{"learner":{"attributes":{"scikit_learn":"{\"_estimator_type\": \"classifier\"}"},"feature_names":[],"feature_types":[],"gradient_booster":{"model":{"gbtree_model_param":{"num_parallel_tree":"1","num_trees":"100"},"iteration_indptr":[0,1,2,3,4,5,6,7,8,9,10,11,12,13,14,15,16,17,18,19,20,21,22,23,24,25,26,27,28,29,30,31,32,33,34,35,36,37,38,39,40,41,42,43,44,45,46,47,48,49,50,51,52,53,54,55,56,57,58,59,60,61,62,63,64,65,66,67,68,69,70,71,72,73,74,75,76,77,78,79,80,81,82,83,84,85,86,87,88,89,90,91,92,93,94,95,96,97,98,99,100],"tree_info":[0,0,0,0,0,0,0,0,0,0,0,0,0,0,0,0,0,0,0,0,0,0,0,0,0,0,0,0,0,0,0,0,0,0,0,0,0,0,0,0,0,0,0,0,0,0,0,0,0,0,0,0,0,0,0,0,0,0,0,0,0,0,0,0,0,0,0,0,0,0,0,0,0,0,0,0,0,0,0,0,0,0,0,0,0,0,0,0,0,0,0,0,0,0,0,0,0,0,0,0],"trees":[{"base_weights":[5.724693E-8,-3.032638E-1,7.136688E-1,-5.5963045E-1,5.8470947E-1,8.320759E-1,-6.3406326E-2,-1.0535926E0,-1.8286197E-1,6.6426448E-3,1.1370647E0,6.2803146E-3,9.9211735E-1,-1.1210679E-1,-1.1526756E0,-8.784854E-1,1.7094544E-1,6.948224E-2,-4.550406E-1,1.5065396E0,-3.9782923E-2,-7.9421115E-1,5.7402194E-2,1.3401937E0,5.5226856E-1,-6.3406326E-2,6.021787E-2,-6.85627E-1,-1.4297992E0,2.3327973E-2,-1.147171E0,-9.6144146E-1,5.332638E-1,-1.2322421E0,3.695692E-1,1.1312484E-2,8.317902E-2,-6.898056E-2,9.3215555E-3,1.4988682E0,7.943218E-3,-6.3406326E-2,8.542232E-1,-4.0094525E-2,1.1312484E-2,-8.428195E-2,-3.01358E-2,-7.682284E-2,-1.39925545E-2,-6.8924956E-2,3.3534866E-2,-2.468325E-2,4.9595032E-2,-7.472899E-2,-1.0909901E-2,5.409748E-2,-2.2826292E-2,8.146804E-2,2.8830498E-2,1.4606798E-2,7.1739934E-2],"categories":[],"categories_nodes":[],"categories_segments":[],"categories_sizes":[],"default_left":[0,0,0,0,0,0,0,0,0,0,0,0,0,0,0,0,0,0,0,0,0,0,0,0,0,0,0,0,0,0,0,0,0,0,0,0,0,0,0,0,0,0,0,0,0,0,0,0,0,0,0,0,0,0,0,0,0,0,0,0,0],"id":0,"left_children":[1,3,5,7,9,11,-1,13,15,17,19,21,23,25,27,29,31,-1,33,35,-1,37,-1,39,41,-1,-1,43,45,-1,47,49,51,53,55,-1,-1,-1,-1,57,-1,-1,59,-1,-1,-1,-1,-1,-1,-1,-1,-1,-1,-1,-1,-1,-1,-1,-1,-1,-1],"loss_changes":[3.02998E1,2.2693224E1,1.0852051E1,1.4091045E1,7.176567E0,5.2801647E0,0E0,2.94915E0,1.1163754E1,8.29436E0,9.410657E0,7.7665024E0,4.388668E0,7.9951105E0,2.8701973E0,6.046419E0,1.3026224E1,0E0,6.7039843E0,1.6341705E0,0E0,3.1275122E0,0E0,3.1358871E0,1.0152817E1,0E0,0E0,1.5596452E0,2.7399025E0,0E0,3.9592247E0,6.199888E0,1.1675478E1,1.070487E0,3.7306204E0,0E0,0E0,0E0,0E0,9.559517E-1,0E0,0E0,4.3942127E0,0E0,0E0,0E0,0E0,0E0,0E0,0E0,0E0,0E0,0E0,0E0,0E0,0E0,0E0,0E0,0E0,0E0,0E0],"parents":[2147483647,0,0,1,1,2,2,3,3,4,4,5,5,7,7,8,8,9,9,10,10,11,11,12,12,13,13,14,14,15,15,16,16,18,18,19,19,21,21,23,23,24,24,27,27,28,28,30,30,31,31,32,32,33,33,34,34,39,39,42,42],"right_children":[2,4,6,8,10,12,-1,14,16,18,20,22,24,26,28,30,32,-1,34,36,-1,38,-1,40,42,-1,-1,44,46,-1,48,50,52,54,56,-1,-1,-1,-1,58,-1,-1,60,-1,-1,-1,-1,-1,-1,-1,-1,-1,-1,-1,-1,-1,-1,-1,-1,-1,-1],"split_conditions":[3.52294E-3,4.294529E-2,4.819376E-2,2.0636126E-2,-7.356396E-4,9.875728E-3,-6.3406326E-2,-1.4952244E-3,1.0009169E-3,4.1013394E-2,4.61837E-2,-1.7421414E-3,3.077605E-2,-1.1011587E-3,1.4965497E-4,-1.9136007E-3,-1.5497736E-3,6.948224E-2,4.222324E-2,-9.4656815E-4,-3.9782923E-2,4.3951385E-2,5.7402194E-2,-9.133863E-4,3.0308925E-2,-6.3406326E-2,6.021787E-2,3.5770237E-2,2.1785177E-2,2.3327973E-2,1.16161646E-4,2.42818E-2,7.99248E-4,1.9767003E-2,4.259044E-2,1.1312484E-2,8.317902E-2,-6.898056E-2,9.3215555E-3,2.9534467E-2,7.943218E-3,-6.3406326E-2,7.351821E-4,-4.0094525E-2,1.1312484E-2,-8.428195E-2,-3.01358E-2,-7.682284E-2,-1.39925545E-2,-6.8924956E-2,3.3534866E-2,-2.468325E-2,4.9595032E-2,-7.472899E-2,-1.0909901E-2,5.409748E-2,-2.2826292E-2,8.146804E-2,2.8830498E-2,1.4606798E-2,7.1739934E-2],"split_indices":[1169,1422,1419,382,284,853,0,662,65,15,1326,347,253,62,509,587,404,0,1062,20,0,3,0,62,949,0,0,0,280,0,989,829,1364,4,18,0,0,0,0,175,0,0,458,0,0,0,0,0,0,0,0,0,0,0,0,0,0,0,0,0,0],"split_type":[0,0,0,0,0,0,0,0,0,0,0,0,0,0,0,0,0,0,0,0,0,0,0,0,0,0,0,0,0,0,0,0,0,0,0,0,0,0,0,0,0,0,0,0,0,0,0,0,0,0,0,0,0,0,0,0,0,0,0,0,0],"sum_hessian":[1.379982E2,9.724873E1,4.074947E1,7.574901E1,2.149972E1,3.8999493E1,1.7499771E0,3.1999582E1,4.3749428E1,1.0999856E1,1.0499863E1,6.499915E0,3.2499577E1,3.2499576E0,2.8749624E1,1.4249814E1,2.9499615E1,2.2499707E0,8.749886E0,8.999883E0,1.4999804E0,3.9999478E0,2.4999673E0,1.6999779E1,1.5499798E1,1.7499771E0,1.4999804E0,1.1999844E1,1.674978E1,2.2499707E0,1.1999844E1,6.749912E0,2.2749702E1,4.2499447E0,4.4999413E0,1.2499837E0,7.749899E0,2.2499707E0,1.7499771E0,1.4749807E1,2.2499707E0,1.7499771E0,1.3749821E1,1.074986E1,1.2499837E0,1.1999844E1,4.749938E0,7.749899E0,4.2499447E0,5.499928E0,1.2499837E0,6.9999084E0,1.5749794E1,2.999961E0,1.2499837E0,2.2499707E0,2.2499707E0,1.224984E1,2.4999673E0,7.749899E0,5.999922E0],"tree_param":{"num_deleted":"0","num_feature":"1434","num_nodes":"61","size_leaf_vector":"1"}},{"base_weights":[-5.748956E-4,-2.8994292E-1,6.803272E-1,-5.350529E-1,5.591015E-1,7.9455173E-1,-6.1438005E-2,-1.0064617E0,-1.7559302E-1,7.569068E-3,1.0861114E0,5.661389E-3,9.474542E-1,-1.07340045E-1,-1.1010836E0,1.0278732E-2,-7.190866E-2,6.742685E-2,-4.402537E-1,1.4422827E0,-3.860219E-2,-7.6694196E-1,5.5376828E-2,5.21853E-1,1.2850561E0,-6.1438005E-2,5.843581E-2,-6.5386164E-1,-1.3668424E0,-5.4054475E-1,4.1988653E-1,-1.1919994E0,3.5688812E-1,7.9995394E-2,9.407968E-3,-6.66604E-2,9.024886E-3,8.9230937E-1,-6.64323E-1,1.3961475E0,8.061673E-3,-3.8334202E-2,1.12844305E-2,-8.0549456E-2,-2.8899252E-2,-4.0165816E-2,4.9814012E-2,-2.7912557E-2,3.6591284E-2,-1.9228239E-2,-7.062122E-2,5.224452E-2,-2.2039477E-2,7.85148E-2,2.0823456E-2,-6.563987E-2,1.8980455E-2,3.1538364E-2,7.783588E-2],"categories":[],"categories_nodes":[],"categories_segments":[],"categories_sizes":[],"default_left":[0,0,0,0,0,0,0,0,0,0,0,0,0,0,0,0,0,0,0,0,0,0,0,0,0,0,0,0,0,0,0,0,0,0,0,0,0,0,0,0,0,0,0,0,0,0,0,0,0,0,0,0,0,0,0,0,0,0,0],"id":1,"left_children":[1,3,5,7,9,11,-1,13,15,17,19,21,23,25,27,29,-1,-1,31,33,-1,35,-1,37,39,-1,-1,41,43,45,47,49,51,-1,-1,-1,-1,53,55,57,-1,-1,-1,-1,-1,-1,-1,-1,-1,-1,-1,-1,-1,-1,-1,-1,-1,-1,-1],"loss_changes":[2.756075E1,2.0727488E1,1.0073383E1,1.2817345E1,6.5255795E0,4.8158894E0,0E0,2.6862717E0,1.050927E1,7.7944503E0,8.716514E0,7.2301397E0,4.139105E0,7.513174E0,2.63826E0,9.245756E0,0E0,0E0,6.2638226E0,1.6735706E0,0E0,2.9214027E0,0E0,7.839404E0,2.020052E0,0E0,0E0,1.4624624E0,2.482315E0,7.861377E0,7.5752015E0,3.9026546E-1,3.4780424E0,0E0,0E0,0E0,0E0,3.5378046E0,3.5432456E0,1.013298E0,0E0,0E0,0E0,0E0,0E0,0E0,0E0,0E0,0E0,0E0,0E0,0E0,0E0,0E0,0E0,0E0,0E0,0E0,0E0],"parents":[2147483647,0,0,1,1,2,2,3,3,4,4,5,5,7,7,8,8,9,9,10,10,11,11,12,12,13,13,14,14,15,15,18,18,19,19,21,21,23,23,24,24,27,27,28,28,29,29,30,30,31,31,32,32,37,37,38,38,39,39],"right_children":[2,4,6,8,10,12,-1,14,16,18,20,22,24,26,28,30,-1,-1,32,34,-1,36,-1,38,40,-1,-1,42,44,46,48,50,52,-1,-1,-1,-1,54,56,58,-1,-1,-1,-1,-1,-1,-1,-1,-1,-1,-1,-1,-1,-1,-1,-1,-1,-1,-1],"split_conditions":[3.52294E-3,4.294529E-2,4.819376E-2,2.0636126E-2,-7.356396E-4,9.875728E-3,-6.1438005E-2,-1.4952244E-3,4.3088637E-2,4.107867E-2,4.61837E-2,-1.7421414E-3,3.8836457E-2,-1.1011587E-3,1.4965497E-4,-5.242996E-4,-7.190866E-2,6.742685E-2,4.222324E-2,1.5518514E-2,-3.860219E-2,4.3951385E-2,5.5376828E-2,3.2881606E-2,-8.4284425E-4,-6.1438005E-2,5.843581E-2,3.7880212E-2,2.1785177E-2,2.5224818E-3,3.0874785E-2,4.166477E-2,4.259044E-2,7.9995394E-2,9.407968E-3,-6.66604E-2,9.024886E-3,3.3325586E-2,-7.002613E-4,-6.515793E-5,8.061673E-3,-3.8334202E-2,1.12844305E-2,-8.0549456E-2,-2.8899252E-2,-4.0165816E-2,4.9814012E-2,-2.7912557E-2,3.6591284E-2,-1.9228239E-2,-7.062122E-2,5.224452E-2,-2.2039477E-2,7.85148E-2,2.0823456E-2,-6.563987E-2,1.8980455E-2,3.1538364E-2,7.783588E-2],"split_indices":[1169,1422,1419,382,284,853,0,662,85,585,1326,347,1293,62,509,629,0,0,1062,748,0,3,0,405,722,0,0,21,280,449,1285,18,18,0,0,0,0,49,2,962,0,0,0,0,0,0,0,0,0,0,0,0,0,0,0,0,0,0,0],"split_type":[0,0,0,0,0,0,0,0,0,0,0,0,0,0,0,0,0,0,0,0,0,0,0,0,0,0,0,0,0,0,0,0,0,0,0,0,0,0,0,0,0,0,0,0,0,0,0,0,0,0,0,0,0,0,0,0,0,0,0],"sum_hessian":[1.378789E2,9.71616E1,4.071731E1,7.568265E1,2.1478949E1,3.8969494E1,1.747818E0,3.1963984E1,4.371867E1,1.0990942E1,1.0488006E1,6.495161E0,3.247433E1,3.246766E0,2.8717216E1,3.8973076E1,4.7455935E0,2.248044E0,8.742898E0,8.988834E0,1.4991708E0,3.9967327E0,2.4984283E0,1.5491094E1,1.6983238E1,1.747818E0,1.4989482E0,1.1993974E1,1.6723244E1,1.648503E1,2.2488045E1,4.2446413E0,4.498257E0,7.7402754E0,1.2485589E0,2.2467346E0,1.7499981E0,1.1993217E1,3.497876E0,1.5234925E1,1.7483122E0,1.0744118E1,1.2498559E0,1.1974902E1,4.7483406E0,1.4485533E1,1.9994975E0,5.246656E0,1.7241388E1,1.4988571E0,2.7457843E0,2.2487657E0,2.2494912E0,3.9974804E0,7.9957376E0,1.9987396E0,1.4991363E0,3.4965274E0,1.1738398E1],"tree_param":{"num_deleted":"0","num_feature":"1434","num_nodes":"59","size_leaf_vector":"1"}},{"base_weights":[-7.542527E-4,-2.7737677E-1,6.5025395E-1,-5.117428E-1,5.3518945E-1,7.6061714E-1,-5.9604544E-2,-9.630594E-1,-1.6818675E-1,7.84957E-3,1.0395116E0,4.7690818E-1,1.2267523E0,-1.0291201E-1,-1.0535555E0,1.0226303E-2,-6.911858E-2,6.525197E-2,-4.2527527E-1,1.3838468E0,-3.7473787E-2,-3.4625842E-3,1.1806281E0,1.4968196E0,-8.421855E-3,-5.9604544E-2,5.67667E-2,-6.239132E-1,-1.3097479E0,-5.135271E-1,3.994314E-1,-1.1523831E0,3.4488577E-1,8.388377E-3,7.692855E-2,-9.20291E-1,5.276488E-1,1.3930942E0,-1.1988939E-2,8.129008E-2,1.7178912E-2,-3.667628E-2,1.1246922E-2,-7.721792E-2,-2.7723206E-2,-3.833039E-2,4.8178717E-2,-2.3454888E-2,3.707443E-2,-7.041091E-2,-9.287988E-3,5.0504424E-2,-2.1283446E-2,-7.0624957E-3,-7.266849E-2,-1.8568855E-2,5.9060197E-2,8.2504E-2,1.4339402E-2],"categories":[],"categories_nodes":[],"categories_segments":[],"categories_sizes":[],"default_left":[0,0,0,0,0,0,0,0,0,0,0,0,0,0,0,0,0,0,0,0,0,0,0,0,0,0,0,0,0,0,0,0,0,0,0,0,0,0,0,0,0,0,0,0,0,0,0,0,0,0,0,0,0,0,0,0,0,0,0],"id":2,"left_children":[1,3,5,7,9,11,-1,13,15,17,19,21,23,25,27,29,-1,-1,31,33,-1,35,37,39,-1,-1,-1,41,43,45,47,49,51,-1,-1,53,55,57,-1,-1,-1,-1,-1,-1,-1,-1,-1,-1,-1,-1,-1,-1,-1,-1,-1,-1,-1,-1,-1],"loss_changes":[2.5140203E1,1.8931278E1,9.371319E0,1.1707369E1,5.954573E0,4.690014E0,0E0,2.4505405E0,9.69209E0,7.2790384E0,8.092211E0,8.939372E0,5.6990376E0,7.0687456E0,2.4450035E0,8.347764E0,0E0,0E0,5.84406E0,1.6150799E0,0E0,8.620384E0,3.5710487E0,1.258009E0,0E0,0E0,0E0,1.3727684E0,2.2723732E0,7.2680964E0,7.3229313E0,1.032589E0,3.2455168E0,0E0,0E0,2.4908853E0,7.027459E0,2.2212143E0,0E0,0E0,0E0,0E0,0E0,0E0,0E0,0E0,0E0,0E0,0E0,0E0,0E0,0E0,0E0,0E0,0E0,0E0,0E0,0E0,0E0],"parents":[2147483647,0,0,1,1,2,2,3,3,4,4,5,5,7,7,8,8,9,9,10,10,11,11,12,12,13,13,14,14,15,15,18,18,19,19,21,21,22,22,23,23,27,27,28,28,29,29,30,30,31,31,32,32,35,35,36,36,37,37],"right_children":[2,4,6,8,10,12,-1,14,16,18,20,22,24,26,28,30,-1,-1,32,34,-1,36,38,40,-1,-1,-1,42,44,46,48,50,52,-1,-1,54,56,58,-1,-1,-1,-1,-1,-1,-1,-1,-1,-1,-1,-1,-1,-1,-1,-1,-1,-1,-1,-1,-1],"split_conditions":[3.52294E-3,4.294529E-2,4.819376E-2,2.0636126E-2,-7.356396E-4,7.6278724E-4,-5.9604544E-2,-1.4952244E-3,4.3088637E-2,4.1013394E-2,4.61837E-2,-1.0256865E-3,2.7451336E-3,-1.1011587E-3,1.4965497E-4,-5.242996E-4,-6.911858E-2,6.525197E-2,4.222324E-2,-1.421622E-3,-3.7473787E-2,3.8350087E-2,1.3415798E-3,-7.4546307E-4,-8.421855E-3,-5.9604544E-2,5.67667E-2,3.0049099E-2,2.1785177E-2,2.5224818E-3,-5.567328E-4,-6.9259387E-4,4.259044E-2,8.388377E-3,7.692855E-2,3.6153715E-2,1.6826877E-2,-9.332396E-4,-1.1988939E-2,8.129008E-2,1.7178912E-2,-3.667628E-2,1.1246922E-2,-7.721792E-2,-2.7723206E-2,-3.833039E-2,4.8178717E-2,-2.3454888E-2,3.707443E-2,-7.041091E-2,-9.287988E-3,5.0504424E-2,-2.1283446E-2,-7.0624957E-3,-7.266849E-2,-1.8568855E-2,5.9060197E-2,8.2504E-2,1.4339402E-2],"split_indices":[1169,1422,1419,382,284,458,0,662,85,15,1326,524,458,62,509,629,0,0,1062,329,0,1095,410,68,0,0,0,864,280,449,1301,803,18,0,0,1137,163,119,0,0,0,0,0,0,0,0,0,0,0,0,0,0,0,0,0,0,0,0,0],"split_type":[0,0,0,0,0,0,0,0,0,0,0,0,0,0,0,0,0,0,0,0,0,0,0,0,0,0,0,0,0,0,0,0,0,0,0,0,0,0,0,0,0,0,0,0,0,0,0,0,0,0,0,0,0,0,0,0,0,0,0],"sum_hessian":[1.3760146E2,9.697103E1,4.0630424E1,7.555045E1,2.1420576E1,3.8888035E1,1.7423886E0,3.187468E1,4.3675777E1,1.0967779E1,1.0452796E1,2.5432117E1,1.3455918E1,3.2377439E0,2.8636934E1,3.8944786E1,4.7309933E0,2.2415018E0,8.726277E0,8.955543E0,1.4972537E0,1.5706014E1,9.726104E0,1.1212641E1,2.2432783E0,1.7423886E0,1.4953554E0,1.1980543E1,1.6656391E1,1.6466452E1,2.2478333E1,4.2333193E0,4.4929585E0,1.2460796E0,7.709463E0,5.492261E0,1.0213753E1,8.477289E0,1.2488145E0,9.716187E0,1.4964542E0,1.07307415E1,1.2498012E0,1.1911605E1,4.7447867E0,1.4468484E1,1.9979678E0,6.2464237E0,1.6231909E1,2.9861388E0,1.2471803E0,2.2444854E0,2.2484732E0,2.7452803E0,2.7469807E0,4.481202E0,5.732551E0,6.4804206E0,1.9968686E0],"tree_param":{"num_deleted":"0","num_feature":"1434","num_nodes":"59","size_leaf_vector":"1"}},{"base_weights":[-1.0047366E-3,-2.6555803E-1,6.216649E-1,-4.899191E-1,5.134519E-1,7.2838795E-1,-5.789196E-2,-9.2288786E-1,-1.6109861E-1,6.5568596E-1,-5.251181E-2,4.5598522E-1,1.1767266E0,-9.878735E-2,-1.009543E0,-4.7603586E-1,4.782916E-1,5.0133184E-2,1.2727796E0,-2.3060337E-1,9.048544E-1,1.4377736E0,-8.216685E-3,-5.789196E-2,5.519972E-2,-6.9547194E-1,-1.3625807E0,-1.1625243E0,1.1856052E-1,7.9038334E-1,-6.1356492E-2,6.3469134E-2,-3.7204748E-1,7.4030094E-2,1.3086359E-2,2.4992616E-1,-6.8314955E-2,1.4059275E0,3.1450576E-1,7.619168E-3,7.8524314E-2,1.780258E-2,-4.4582468E-2,-7.345294E-2,-2.1484816E-2,-6.7461454E-3,-6.478139E-2,2.4478588E-2,-6.762376E-2,5.9810083E-2,-1.8664546E-2,-5.58622E-2,2.2071196E-2,3.841291E-2,-4.988921E-2,2.954197E-2,7.825988E-2,-2.2341676E-2,5.246503E-2],"categories":[],"categories_nodes":[],"categories_segments":[],"categories_sizes":[],"default_left":[0,0,0,0,0,0,0,0,0,0,0,0,0,0,0,0,0,0,0,0,0,0,0,0,0,0,0,0,0,0,0,0,0,0,0,0,0,0,0,0,0,0,0,0,0,0,0,0,0,0,0,0,0,0,0,0,0,0,0],"id":3,"left_children":[1,3,5,7,9,11,-1,13,15,17,-1,19,21,23,25,27,29,31,33,35,37,39,-1,-1,-1,41,43,45,47,49,-1,-1,51,-1,-1,53,-1,55,57,-1,-1,-1,-1,-1,-1,-1,-1,-1,-1,-1,-1,-1,-1,-1,-1,-1,-1,-1,-1],"loss_changes":[2.2924149E1,1.7321249E1,8.72406E0,1.0719418E1,5.6543026E0,4.3195286E0,0E0,2.238245E0,9.208383E0,7.8137274E0,0E0,8.334597E0,5.2758007E0,6.658132E0,2.325014E0,1.2539154E1,9.068986E0,6.4849415E0,1.7977085E0,6.464744E0,4.3341064E0,1.8337231E0,0E0,0E0,0E0,3.960946E0,6.4548683E-1,1.7665787E0,1.0042819E1,6.8081217E0,0E0,0E0,6.2216587E0,0E0,0E0,6.4122567E0,0E0,1.7160606E-1,5.3364825E0,0E0,0E0,0E0,0E0,0E0,0E0,0E0,0E0,0E0,0E0,0E0,0E0,0E0,0E0,0E0,0E0,0E0,0E0,0E0,0E0],"parents":[2147483647,0,0,1,1,2,2,3,3,4,4,5,5,7,7,8,8,9,9,11,11,12,12,13,13,14,14,15,15,16,16,17,17,18,18,19,19,20,20,21,21,25,25,26,26,27,27,28,28,29,29,32,32,35,35,37,37,38,38],"right_children":[2,4,6,8,10,12,-1,14,16,18,-1,20,22,24,26,28,30,32,34,36,38,40,-1,-1,-1,42,44,46,48,50,-1,-1,52,-1,-1,54,-1,56,58,-1,-1,-1,-1,-1,-1,-1,-1,-1,-1,-1,-1,-1,-1,-1,-1,-1,-1,-1,-1],"split_conditions":[3.52294E-3,4.294529E-2,4.819376E-2,2.0636126E-2,4.625542E-2,7.6278724E-4,-5.789196E-2,-1.4952244E-3,4.049904E-2,-7.356396E-4,-5.251181E-2,3.261304E-2,1.1727972E-3,-1.1011587E-3,6.636608E-5,2.9629664E-2,4.281454E-2,4.107867E-2,4.014543E-4,3.2881606E-2,-7.2932534E-4,2.9307771E-3,-8.216685E-3,-5.789196E-2,5.519972E-2,-1.9594141E-4,3.7592815E-3,1.9467881E-2,4.3967724E-2,-1.6609023E-3,-6.1356492E-2,6.3469134E-2,4.222324E-2,7.4030094E-2,1.3086359E-2,-1.7046595E-4,-6.8314955E-2,1.1284452E-2,-5.180884E-4,7.619168E-3,7.8524314E-2,1.780258E-2,-4.4582468E-2,-7.345294E-2,-2.1484816E-2,-6.7461454E-3,-6.478139E-2,2.4478588E-2,-6.762376E-2,5.9810083E-2,-1.8664546E-2,-5.58622E-2,2.2071196E-2,3.841291E-2,-4.988921E-2,2.954197E-2,7.825988E-2,-2.2341676E-2,5.246503E-2],"split_indices":[1169,1422,1419,382,1326,458,0,662,903,284,0,213,605,62,788,1204,1128,585,950,405,614,755,0,0,0,167,1085,325,1243,827,0,0,1062,0,0,950,0,754,548,0,0,0,0,0,0,0,0,0,0,0,0,0,0,0,0,0,0,0,0],"split_type":[0,0,0,0,0,0,0,0,0,0,0,0,0,0,0,0,0,0,0,0,0,0,0,0,0,0,0,0,0,0,0,0,0,0,0,0,0,0,0,0,0,0,0,0,0,0,0,0,0,0,0,0,0,0,0,0,0,0,0],"sum_hessian":[1.3716035E2,9.666421E1,4.049615E1,7.533751E1,2.1326702E1,3.876213E1,1.7340212E0,3.1739025E1,4.3598484E1,2.0080818E1,1.2458845E0,2.5366774E1,1.3395357E1,3.223465E0,2.8515558E1,2.9381735E1,1.4216747E1,1.0680905E1,9.399912E0,1.0220221E1,1.5146552E1,1.1152353E1,2.2430034E0,1.7340212E0,1.4894439E0,1.666232E1,1.1853239E1,1.3193776E1,1.618796E1,1.2471087E1,1.7456598E0,2.231024E0,8.449882E0,7.411963E0,1.9879487E0,7.7296343E0,2.4905863E0,7.4454885E0,7.701064E0,1.2447293E0,9.907624E0,2.4916995E0,1.4170621E1,1.0123057E1,1.7301823E0,1.7439092E0,1.1449867E1,1.3460314E1,2.7276456E0,9.225757E0,3.2453313E0,4.215115E0,4.234767E0,5.7324767E0,1.9971576E0,1.9869006E0,5.4585876E0,3.974686E0,3.7263782E0],"tree_param":{"num_deleted":"0","num_feature":"1434","num_nodes":"59","size_leaf_vector":"1"}},{"base_weights":[-1.800009E-3,-2.552425E-1,5.9516954E-1,-4.703967E-1,4.9321195E-1,6.984961E-1,-5.6288015E-2,-8.850694E-1,-1.5638529E-1,6.3174695E-1,-5.1161285E-2,-2.5548816E-2,8.401796E-1,1.1560548E-2,-9.364491E-1,-7.7246296E-1,1.5576309E-1,5.0326385E-2,1.225717E0,-7.4074525E-1,5.0350737E-2,1.2754668E0,5.3867936E-1,-7.255693E-1,-1.3565217E0,2.1329582E-2,-1.0136043E0,-8.8800925E-1,4.8931152E-1,6.1753493E-2,-3.5937402E-1,7.134365E-2,1.2657526E-2,-6.3702725E-2,7.864442E-3,7.9901084E-2,3.7844136E-1,-5.9949916E-2,7.299813E-1,2.5064519E-2,-4.571204E-2,-7.595807E-2,-2.0170836E-2,-6.926787E-2,-1.0216649E-2,-6.3956305E-2,3.1612147E-2,-2.2011833E-2,4.5197703E-2,-5.3963136E-2,2.1189148E-2,6.0952004E-2,-4.273871E-2,1.7133685E-2,6.5031186E-2],"categories":[],"categories_nodes":[],"categories_segments":[],"categories_sizes":[],"default_left":[0,0,0,0,0,0,0,0,0,0,0,0,0,0,0,0,0,0,0,0,0,0,0,0,0,0,0,0,0,0,0,0,0,0,0,0,0,0,0,0,0,0,0,0,0,0,0,0,0,0,0,0,0,0,0],"id":4,"left_children":[1,3,5,7,9,11,-1,13,15,17,-1,19,21,-1,23,25,27,29,31,33,-1,35,37,39,41,-1,43,45,47,-1,49,-1,-1,-1,-1,-1,51,-1,53,-1,-1,-1,-1,-1,-1,-1,-1,-1,-1,-1,-1,-1,-1,-1,-1],"loss_changes":[2.0974257E1,1.5902069E1,8.1329975E0,9.769957E0,5.313425E0,4.083082E0,0E0,2.084921E0,8.681389E0,7.181633E0,0E0,6.2477665E0,3.6625252E0,0E0,1.7921028E0,4.809534E0,1.1010981E1,6.094673E0,1.660162E0,2.5843456E0,0E0,3.107788E0,7.9596024E0,5.785924E0,8.326435E-1,0E0,3.5978422E0,5.3943906E0,9.519903E0,0E0,5.771057E0,0E0,0E0,0E0,0E0,0E0,5.9182253E0,0E0,3.9346886E0,0E0,0E0,0E0,0E0,0E0,0E0,0E0,0E0,0E0,0E0,0E0,0E0,0E0,0E0,0E0,0E0],"parents":[2147483647,0,0,1,1,2,2,3,3,4,4,5,5,7,7,8,8,9,9,11,11,12,12,14,14,15,15,16,16,17,17,18,18,19,19,21,21,22,22,23,23,24,24,26,26,27,27,28,28,30,30,36,36,38,38],"right_children":[2,4,6,8,10,12,-1,14,16,18,-1,20,22,-1,24,26,28,30,32,34,-1,36,38,40,42,-1,44,46,48,-1,50,-1,-1,-1,-1,-1,52,-1,54,-1,-1,-1,-1,-1,-1,-1,-1,-1,-1,-1,-1,-1,-1,-1,-1],"split_conditions":[3.52294E-3,4.294529E-2,4.819376E-2,2.0636126E-2,4.625542E-2,9.875728E-3,-5.6288015E-2,-1.0373783E-3,1.0009169E-3,-7.356396E-4,-5.1161285E-2,-1.7421414E-3,3.107704E-2,1.1560548E-2,1.5077431E-5,-1.9136007E-3,-1.5497736E-3,4.1013394E-2,4.014543E-4,4.3951385E-2,5.0350737E-2,3.693821E-2,3.207017E-2,-9.296892E-4,4.0425677E-2,2.1329582E-2,1.16161646E-4,2.42818E-2,7.99248E-4,6.1753493E-2,4.222324E-2,7.134365E-2,1.2657526E-2,-6.3702725E-2,7.864442E-3,7.9901084E-2,-8.054037E-4,-5.9949916E-2,7.351821E-4,2.5064519E-2,-4.571204E-2,-7.595807E-2,-2.0170836E-2,-6.926787E-2,-1.0216649E-2,-6.3956305E-2,3.1612147E-2,-2.2011833E-2,4.5197703E-2,-5.3963136E-2,2.1189148E-2,6.0952004E-2,-4.273871E-2,1.7133685E-2,6.5031186E-2],"split_indices":[1169,1422,1419,382,1326,853,0,149,65,284,0,347,598,0,125,587,404,15,950,3,0,63,1189,1016,381,0,989,829,1364,0,1062,0,0,0,0,0,128,0,458,0,0,0,0,0,0,0,0,0,0,0,0,0,0,0,0],"split_type":[0,0,0,0,0,0,0,0,0,0,0,0,0,0,0,0,0,0,0,0,0,0,0,0,0,0,0,0,0,0,0,0,0,0,0,0,0,0,0,0,0,0,0,0,0,0,0,0,0,0,0,0,0,0,0],"sum_hessian":[1.3662523E2,9.630958E1,4.0315647E1,7.509417E1,2.1215408E1,3.8592617E1,1.7230271E0,3.1576603E1,4.3517567E1,1.9974066E1,1.241341E0,6.450143E0,3.2142475E1,1.2354324E0,3.034117E1,1.41383915E1,2.9379175E1,1.0641819E1,9.332248E0,3.9776635E0,2.4724796E0,1.183109E1,2.0311386E1,2.201614E1,8.325028E0,2.238515E0,1.1899877E1,6.7122464E0,2.266693E1,2.2168155E0,8.425003E0,7.3457956E0,1.9864526E0,2.2329075E0,1.744756E0,8.127215E0,3.7038746E0,1.4919345E0,1.881945E1,2.7136095E0,1.9302532E1,6.6041727E0,1.7208561E0,7.666347E0,4.23353E0,5.464896E0,1.2473501E0,6.973027E0,1.5693901E1,4.1928163E0,4.232187E0,2.2093837E0,1.4944909E0,1.2163988E1,6.6554627E0],"tree_param":{"num_deleted":"0","num_feature":"1434","num_nodes":"55","size_leaf_vector":"1"}},{"base_weights":[-2.0929906E-3,-2.4478436E-1,5.699022E-1,-4.5106193E-1,4.7438294E-1,6.7000306E-1,-5.4782E-2,-8.4858567E-1,-1.5059584E-1,6.0949224E-1,-4.98822E-2,-2.5115976E-2,8.061508E-1,-7.305056E-2,-6.929301E-1,1.1855046E-2,-6.332528E-2,5.0497465E-2,1.1823596E0,-7.1710443E-1,4.875986E-2,1.229685E0,5.1448834E-1,3.8633566E-2,-8.355886E-1,-2.4235104E-1,7.467656E-1,8.307869E-1,-5.488504E-1,6.889462E-2,1.2243311E-2,-6.1781436E-2,7.61532E-3,7.710009E-2,3.6486974E-1,-5.8194827E-2,7.000265E-1,2.9957457E-2,-4.8996147E-2,-4.3502025E-2,2.2049973E-2,6.640034E-2,-7.8924475E-3,-8.04017E-3,6.673245E-2,2.0073414E-2,-6.100985E-2,5.922231E-2,-4.1422125E-2,1.6353855E-2,6.2674716E-2],"categories":[],"categories_nodes":[],"categories_segments":[],"categories_sizes":[],"default_left":[0,0,0,0,0,0,0,0,0,0,0,0,0,0,0,0,0,0,0,0,0,0,0,0,0,0,0,0,0,0,0,0,0,0,0,0,0,0,0,0,0,0,0,0,0,0,0,0,0,0,0],"id":5,"left_children":[1,3,5,7,9,11,-1,13,15,17,-1,19,21,-1,23,25,-1,27,29,31,-1,33,35,-1,37,39,41,43,45,-1,-1,-1,-1,-1,47,-1,49,-1,-1,-1,-1,-1,-1,-1,-1,-1,-1,-1,-1,-1,-1],"loss_changes":[1.9152927E1,1.4583595E1,7.5867167E0,8.924291E0,4.99903E0,3.7482967E0,0E0,2.0770092E0,8.059883E0,6.6147494E0,0E0,5.836592E0,3.4401913E0,0E0,6.446081E0,7.603154E0,0E0,5.8779397E0,1.5413532E0,2.4256291E0,0E0,2.874714E0,7.430366E0,0E0,5.9220104E0,1.336905E1,5.7071543E0,2.9297783E0,5.0574484E0,0E0,0E0,0E0,0E0,0E0,5.5647173E0,0E0,3.667574E0,0E0,0E0,0E0,0E0,0E0,0E0,0E0,0E0,0E0,0E0,0E0,0E0,0E0,0E0],"parents":[2147483647,0,0,1,1,2,2,3,3,4,4,5,5,7,7,8,8,9,9,11,11,12,12,14,14,15,15,17,17,18,18,19,19,21,21,22,22,24,24,25,25,26,26,27,27,28,28,34,34,36,36],"right_children":[2,4,6,8,10,12,-1,14,16,18,-1,20,22,-1,24,26,-1,28,30,32,-1,34,36,-1,38,40,42,44,46,-1,-1,-1,-1,-1,48,-1,50,-1,-1,-1,-1,-1,-1,-1,-1,-1,-1,-1,-1,-1,-1],"split_conditions":[3.52294E-3,4.294529E-2,4.819376E-2,2.0636126E-2,4.625542E-2,9.875728E-3,-5.4782E-2,-5.876488E-4,4.3088637E-2,-7.356396E-4,-4.98822E-2,-1.7421414E-3,3.107704E-2,-7.305056E-2,-4.443766E-4,2.8257398E-2,-6.332528E-2,4.20957E-2,4.014543E-4,4.3951385E-2,4.875986E-2,3.693821E-2,3.207017E-2,3.8633566E-2,-1.4952244E-3,4.049904E-2,3.6009E-2,4.0042657E-2,-1.5856525E-3,6.889462E-2,1.2243311E-2,-6.1781436E-2,7.61532E-3,7.710009E-2,-8.054037E-4,-5.8194827E-2,7.351821E-4,2.9957457E-2,-4.8996147E-2,-4.3502025E-2,2.2049973E-2,6.640034E-2,-7.8924475E-3,-8.04017E-3,6.673245E-2,2.0073414E-2,-6.100985E-2,5.922231E-2,-4.1422125E-2,1.6353855E-2,6.2674716E-2],"split_indices":[1169,1422,1419,382,1326,853,0,938,85,284,0,347,598,0,956,418,0,453,950,3,0,63,1189,0,662,903,103,84,14,0,0,0,0,0,128,0,458,0,0,0,0,0,0,0,0,0,0,0,0,0,0],"split_type":[0,0,0,0,0,0,0,0,0,0,0,0,0,0,0,0,0,0,0,0,0,0,0,0,0,0,0,0,0,0,0,0,0,0,0,0,0,0,0,0,0,0,0,0,0,0,0,0,0,0,0],"sum_hessian":[1.359663E2,9.58642E1,4.010209E1,7.4786194E1,2.1078003E1,3.839239E1,1.7096975E0,3.1408188E1,4.3378006E1,1.9842701E1,1.2353029E0,6.4216056E0,3.1970787E1,4.665528E0,2.674266E1,3.8729286E1,4.6487203E0,1.0593693E1,9.249007E0,3.963138E0,2.4584675E0,1.1726361E1,2.0244425E1,1.9804343E0,2.4762226E1,2.9273718E1,9.455568E0,4.4344034E0,6.1592894E0,7.2641606E0,1.9848468E0,2.2186754E0,1.7444627E0,8.039837E0,3.686525E0,1.4902735E0,1.8754152E1,1.9753536E0,2.2786873E1,1.5115878E1,1.415784E1,5.471765E0,3.9838037E0,1.7234831E0,2.7109206E0,2.7162795E0,3.4430099E0,2.189908E0,1.4966168E0,1.2154743E1,6.599408E0],"tree_param":{"num_deleted":"0","num_feature":"1434","num_nodes":"51","size_leaf_vector":"1"}},{"base_weights":[-1.8017754E-3,-2.3403858E-1,5.463559E-1,-4.315006E-1,4.5602706E-1,6.434558E-1,-5.3364493E-2,-8.1322265E-1,-1.4406608E-1,5.8781165E-1,-4.8668727E-2,4.110842E-1,1.085239E0,-6.0712415E-1,-1.2422111E0,-7.2384864E-1,1.4837457E-1,4.9689174E-2,1.1422155E0,6.5907484E-1,-1.1012622E0,1.3636969E0,-8.743678E-3,5.5051297E-2,-7.70405E-1,-7.008489E-2,-4.490693E-3,2.0349963E-2,-9.528674E-1,-8.453409E-1,4.652082E-1,5.9366025E-2,-3.4279487E-1,1.2862809E0,2.1696594E-3,-3.0928493E-1,8.223879E-1,-6.8032995E-2,-1.3156627E-2,7.4698955E-2,2.9560907E-2,-2.1483412E-2,-6.353528E-2,-6.5424584E-2,-9.366951E-3,1.798236E-2,-6.640807E-2,5.0016552E-2,-9.5880395E-3,-5.1663604E-2,2.0180611E-2,7.3373936E-2,3.5900034E-3,2.4132539E-2,-5.2902278E-2,1.3616397E-2,5.7673153E-2],"categories":[],"categories_nodes":[],"categories_segments":[],"categories_sizes":[],"default_left":[0,0,0,0,0,0,0,0,0,0,0,0,0,0,0,0,0,0,0,0,0,0,0,0,0,0,0,0,0,0,0,0,0,0,0,0,0,0,0,0,0,0,0,0,0,0,0,0,0,0,0,0,0,0,0,0,0],"id":6,"left_children":[1,3,5,7,9,11,-1,13,15,17,-1,19,21,23,25,27,29,31,33,35,37,39,-1,-1,41,-1,-1,-1,43,45,47,-1,49,51,-1,53,55,-1,-1,-1,-1,-1,-1,-1,-1,-1,-1,-1,-1,-1,-1,-1,-1,-1,-1,-1,-1],"loss_changes":[1.7471191E1,1.3331678E1,7.08617E0,8.162547E0,4.7036715E0,3.5727577E0,0E0,2.0926838E0,7.612247E0,6.1202183E0,0E0,1.0951196E1,4.759346E0,7.4600058E0,1.618907E0,4.275349E0,9.917931E0,5.5650415E0,1.551362E0,4.057585E0,5.584092E-1,1.9015503E-1,0E0,0E0,3.2428885E0,0E0,0E0,0E0,3.2346306E0,4.939223E0,8.482834E0,0E0,5.243485E0,1.8621712E0,0E0,2.9994972E0,3.4832048E0,0E0,0E0,0E0,0E0,0E0,0E0,0E0,0E0,0E0,0E0,0E0,0E0,0E0,0E0,0E0,0E0,0E0,0E0,0E0,0E0],"parents":[2147483647,0,0,1,1,2,2,3,3,4,4,5,5,7,7,8,8,9,9,11,11,12,12,13,13,14,14,15,15,16,16,17,17,18,18,19,19,20,20,21,21,24,24,28,28,29,29,30,30,32,32,33,33,35,35,36,36],"right_children":[2,4,6,8,10,12,-1,14,16,18,-1,20,22,24,26,28,30,32,34,36,38,40,-1,-1,42,-1,-1,-1,44,46,48,-1,50,52,-1,54,56,-1,-1,-1,-1,-1,-1,-1,-1,-1,-1,-1,-1,-1,-1,-1,-1,-1,-1,-1,-1],"split_conditions":[3.52294E-3,4.294529E-2,4.819376E-2,2.0636126E-2,4.625542E-2,-1.9134466E-4,-5.3364493E-2,2.7167851E-2,1.0009169E-3,-7.356396E-4,-4.8668727E-2,-3.9726184E-4,2.7451336E-3,-1.4081533E-3,4.4598214E-2,-1.9136007E-3,-1.5497736E-3,4.107867E-2,1.3947639E-2,9.875728E-3,-7.617308E-4,-1.4337689E-3,-8.743678E-3,5.5051297E-2,4.026185E-2,-7.008489E-2,-4.490693E-3,2.0349963E-2,1.16161646E-4,-1.4402607E-3,2.5314235E-4,5.9366025E-2,4.222324E-2,4.5195125E-2,2.1696594E-3,-1.8211091E-3,3.875434E-2,-6.8032995E-2,-1.3156627E-2,7.4698955E-2,2.9560907E-2,-2.1483412E-2,-6.353528E-2,-6.5424584E-2,-9.366951E-3,1.798236E-2,-6.640807E-2,5.0016552E-2,-9.5880395E-3,-5.1663604E-2,2.0180611E-2,7.3373936E-2,3.5900034E-3,2.4132539E-2,-5.2902278E-2,1.3616397E-2,5.7673153E-2],"split_indices":[1169,1422,1419,382,1326,53,0,1192,65,284,0,50,458,404,753,587,404,585,754,853,143,155,0,0,951,0,0,0,989,710,86,0,1062,813,0,56,1185,0,0,0,0,0,0,0,0,0,0,0,0,0,0,0,0,0,0,0,0],"split_type":[0,0,0,0,0,0,0,0,0,0,0,0,0,0,0,0,0,0,0,0,0,0,0,0,0,0,0,0,0,0,0,0,0,0,0,0,0,0,0,0,0,0,0,0,0,0,0,0,0,0,0,0,0,0,0,0,0],"sum_hessian":[1.3523723E2,9.539463E1,3.9842598E1,7.446204E1,2.093259E1,3.8148293E1,1.694304E0,3.1199236E1,4.3262806E1,1.9704676E1,1.2279145E0,2.6264208E1,1.1884085E1,2.2705904E1,8.493331E0,1.4010628E1,2.9252178E1,1.0552094E1,9.152582E0,2.3048912E1,3.215297E0,9.665921E0,2.2181635E0,1.4799879E0,2.1225918E1,7.270758E0,1.2225733E0,2.2286863E0,1.1781941E1,6.668629E0,2.2583548E1,2.1872156E0,8.364879E0,7.9408636E0,1.211718E0,3.1972277E0,1.9851685E1,1.9792727E0,1.2360241E0,7.471765E0,2.194156E0,1.3732217E1,7.4937005E0,7.5604763E0,4.221465E0,1.9806296E0,4.6879997E0,1.2157897E1,1.0425652E1,4.1455946E0,4.219284E0,6.728647E0,1.2122169E0,1.7265362E0,1.4706916E0,8.143815E0,1.1707869E1],"tree_param":{"num_deleted":"0","num_feature":"1434","num_nodes":"57","size_leaf_vector":"1"}},{"base_weights":[-2.4915338E-3,-2.2482072E-1,5.226042E-1,-4.1438484E-1,4.3943465E-1,6.2721705E-1,-4.5567717E-2,-7.8152734E-1,-1.3883705E-1,5.6817734E-1,-4.7515593E-2,3.6334023E-1,1.0768507E0,-6.902741E-2,-6.311768E-1,1.5280994E-2,-6.0359985E-2,4.9861696E-2,1.1043715E0,-4.4018936E-1,7.2880536E-1,1.2217385E0,-1.1176884E-2,3.8337182E-2,-7.701509E-1,5.208525E-1,-3.3677205E-1,7.982276E-1,-5.24359E-1,1.2979225E0,1.0331118E-2,-9.47936E-1,4.2730946E-2,-3.2138E-2,8.676828E-1,1.3396823E0,3.3164104E-3,2.8841997E-2,-4.536597E-2,-2.0354334E-2,5.5683475E-2,-5.523436E-2,7.268712E-3,-8.374653E-3,6.452566E-2,1.9120937E-2,-5.840599E-2,2.0615596E-2,6.945689E-2,-6.1216827E-2,7.669589E-3,2.179977E-2,6.8398565E-2,7.428208E-2,4.014033E-3],"categories":[],"categories_nodes":[],"categories_segments":[],"categories_sizes":[],"default_left":[0,0,0,0,0,0,0,0,0,0,0,0,0,0,0,0,0,0,0,0,0,0,0,0,0,0,0,0,0,0,0,0,0,0,0,0,0,0,0,0,0,0,0,0,0,0,0,0,0,0,0,0,0,0,0],"id":7,"left_children":[1,3,5,7,9,11,-1,13,15,17,-1,19,21,-1,23,25,-1,27,29,31,33,35,-1,-1,37,39,41,43,45,47,-1,49,-1,-1,51,53,-1,-1,-1,-1,-1,-1,-1,-1,-1,-1,-1,-1,-1,-1,-1,-1,-1,-1,-1],"loss_changes":[1.5926957E1,1.2249796E1,6.659463E0,7.4863825E0,4.433769E0,4.166688E0,0E0,2.0080662E0,7.2801366E0,5.654382E0,0E0,7.8731346E0,2.8539581E0,0E0,5.9134426E0,7.2113104E0,0E0,5.3575253E0,1.478178E0,6.5058956E0,3.9966478E0,1.6117649E0,0E0,0E0,5.2201557E0,9.595851E0,9.013379E0,2.7769196E0,4.5953054E0,7.983589E-2,0E0,2.22653E0,0E0,0E0,3.0360851E0,1.952671E0,0E0,0E0,0E0,0E0,0E0,0E0,0E0,0E0,0E0,0E0,0E0,0E0,0E0,0E0,0E0,0E0,0E0,0E0,0E0],"parents":[2147483647,0,0,1,1,2,2,3,3,4,4,5,5,7,7,8,8,9,9,11,11,12,12,14,14,15,15,17,17,18,18,19,19,20,20,21,21,24,24,25,25,26,26,27,27,28,28,29,29,31,31,34,34,35,35],"right_children":[2,4,6,8,10,12,-1,14,16,18,-1,20,22,-1,24,26,-1,28,30,32,34,36,-1,-1,38,40,42,44,46,48,-1,50,-1,-1,52,54,-1,-1,-1,-1,-1,-1,-1,-1,-1,-1,-1,-1,-1,-1,-1,-1,-1,-1,-1],"split_conditions":[3.52294E-3,4.294529E-2,4.7916867E-2,2.0636126E-2,4.625542E-2,7.6278724E-4,-4.5567717E-2,-5.876488E-4,4.3088637E-2,-7.356396E-4,-4.7515593E-2,3.8350087E-2,3.168424E-2,-6.902741E-2,-4.443766E-4,-3.8101018E-4,-6.0359985E-2,4.20957E-2,4.014543E-4,-7.369499E-4,-7.5494964E-4,4.5566726E-2,-1.1176884E-2,3.8337182E-2,-1.4952244E-3,-5.567328E-4,-1.4834189E-3,4.358117E-2,-1.5856525E-3,4.4174083E-2,1.0331118E-2,4.4775233E-2,4.2730946E-2,-3.2138E-2,-3.4090701E-6,-7.4546307E-4,3.3164104E-3,2.8841997E-2,-4.536597E-2,-2.0354334E-2,5.5683475E-2,-5.523436E-2,7.268712E-3,-8.374653E-3,6.452566E-2,1.9120937E-2,-5.840599E-2,2.0615596E-2,6.945689E-2,-6.1216827E-2,7.669589E-3,2.179977E-2,6.8398565E-2,7.428208E-2,4.014033E-3],"split_indices":[1169,1422,1428,382,1326,458,0,938,85,284,0,1095,79,0,956,1019,0,453,950,317,32,897,0,0,662,1301,11,1398,14,792,0,3,0,0,1265,68,0,0,0,0,0,0,0,0,0,0,0,0,0,0,0,0,0,0,0],"split_type":[0,0,0,0,0,0,0,0,0,0,0,0,0,0,0,0,0,0,0,0,0,0,0,0,0,0,0,0,0,0,0,0,0,0,0,0,0,0,0,0,0,0,0,0,0,0,0,0,0,0,0,0,0,0,0],"sum_hessian":[1.344198E2,9.4837006E1,3.9582798E1,7.407404E1,2.0762966E1,3.741577E1,2.1670282E0,3.097131E1,4.310273E1,1.9543653E1,1.2193116E0,2.4717735E1,1.2698035E1,4.5723042E0,2.6399004E1,3.8530205E1,4.5725284E0,1.0493263E1,9.05039E0,7.6636324E0,1.7054104E1,1.14794855E1,1.2185497E0,1.9786701E0,2.4420334E1,1.5619744E1,2.291046E1,4.3864365E0,6.106827E0,7.078536E0,1.9718544E0,5.697361E0,1.9662709E0,1.2344378E0,1.5819665E1,1.0271489E1,1.2079966E0,1.9607247E0,2.245961E1,6.2109766E0,9.408768E0,8.338511E0,1.4571947E1,1.7038144E0,2.682622E0,2.7040138E0,3.4028127E0,1.1764613E0,5.902075E0,4.4650702E0,1.2322909E0,9.496683E0,6.3229814E0,9.04372E0,1.2277687E0],"tree_param":{"num_deleted":"0","num_feature":"1434","num_nodes":"55","size_leaf_vector":"1"}},{"base_weights":[-2.2002445E-3,-2.2527586E-1,4.8256713E-1,-3.585603E-1,7.276047E-1,-5.6649536E-1,6.46781E-1,3.418913E-2,-5.9456897E-1,9.339162E-1,-2.870266E-2,-9.2865777E-1,2.6509086E-2,3.724712E-1,1.125269E0,-6.539837E-1,5.10265E-1,-1.2436519E0,-4.2991638E-1,1.3107585E0,9.262502E-2,-8.068561E-3,-6.292555E-2,-1.9572566E-1,6.403589E-1,6.1138935E-2,4.7730673E-3,-1.0623668E0,1.4652063E-1,-3.2998288E-1,9.6103096E-1,-7.381855E-2,-9.432583E-3,3.4884017E-2,-5.015463E-1,7.053936E-2,2.1707974E-2,4.9776442E-2,-4.1362982E-2,8.4141445E-1,-8.565063E-1,-3.516713E-2,1.0460984E0,-6.914591E-2,1.740436E-2,-3.1360902E-2,5.7254154E-2,-6.1906632E-2,2.4981512E-2,5.4686453E-2,-7.7326344E-3,-1.4885798E-2,-6.030897E-2,5.6560863E-2,5.5039967E-3,-6.8460785E-2,4.2840574E-4,-6.1888468E-2,3.0678457E-2,4.145948E-3,6.0825538E-2],"categories":[],"categories_nodes":[],"categories_segments":[],"categories_sizes":[],"default_left":[0,0,0,0,0,0,0,0,0,0,0,0,0,0,0,0,0,0,0,0,0,0,0,0,0,0,0,0,0,0,0,0,0,0,0,0,0,0,0,0,0,0,0,0,0,0,0,0,0,0,0,0,0,0,0,0,0,0,0,0,0],"id":8,"left_children":[1,3,5,7,9,11,13,15,17,19,-1,21,-1,23,25,27,29,31,33,35,37,-1,-1,39,41,-1,-1,43,45,47,49,-1,-1,-1,51,-1,-1,-1,-1,53,55,57,59,-1,-1,-1,-1,-1,-1,-1,-1,-1,-1,-1,-1,-1,-1,-1,-1,-1,-1],"loss_changes":[1.4658447E1,1.20501175E1,7.7258196E0,7.6308002E0,3.683713E0,3.0005763E0,4.4904203E0,1.0740367E1,4.952257E0,3.2067947E0,0E0,1.0904188E0,0E0,3.9717345E0,1.2022495E0,4.54513E0,7.6411643E0,2.142295E0,3.7810583E0,1.6568184E-2,4.414672E0,0E0,0E0,6.7943797E0,4.8079143E0,0E0,0E0,4.556073E0,4.9017477E0,6.266259E0,2.0702543E0,0E0,0E0,0E0,5.461317E0,0E0,0E0,0E0,0E0,7.133887E-1,2.6325898E0,6.61034E0,1.6895151E0,0E0,0E0,0E0,0E0,0E0,0E0,0E0,0E0,0E0,0E0,0E0,0E0,0E0,0E0,0E0,0E0,0E0,0E0],"parents":[2147483647,0,0,1,1,2,2,3,3,4,4,5,5,6,6,7,7,8,8,9,9,11,11,13,13,14,14,15,15,16,16,17,17,18,18,19,19,20,20,23,23,24,24,27,27,28,28,29,29,30,30,34,34,39,39,40,40,41,41,42,42],"right_children":[2,4,6,8,10,12,14,16,18,20,-1,22,-1,24,26,28,30,32,34,36,38,-1,-1,40,42,-1,-1,44,46,48,50,-1,-1,-1,52,-1,-1,-1,-1,54,56,58,60,-1,-1,-1,-1,-1,-1,-1,-1,-1,-1,-1,-1,-1,-1,-1,-1,-1,-1],"split_conditions":[2.556107E-3,4.185124E-2,5.0653536E-3,-1.5046664E-3,4.61837E-2,4.8116646E-3,-4.4804177E-4,-7.6999643E-4,-9.100199E-4,1.4354105E-2,-2.870266E-2,-4.911489E-5,2.6509086E-2,3.8398188E-2,4.5513503E-2,-1.6835298E-3,2.6024291E-2,6.0929996E-3,-1.6017491E-3,4.5265127E-2,4.265098E-2,-8.068561E-3,-6.292555E-2,1.5701398E-3,2.018426E-2,6.1138935E-2,4.7730673E-3,4.3312376E-3,1.3762141E-3,3.9386168E-2,3.766489E-2,-7.381855E-2,-9.432583E-3,3.4884017E-2,1.430999E-3,7.053936E-2,2.1707974E-2,4.9776442E-2,-4.1362982E-2,3.8883187E-2,3.2467052E-2,4.0708147E-2,3.9338797E-2,-6.914591E-2,1.740436E-2,-3.1360902E-2,5.7254154E-2,-6.1906632E-2,2.4981512E-2,5.4686453E-2,-7.7326344E-3,-1.4885798E-2,-6.030897E-2,5.6560863E-2,5.5039967E-3,-6.8460785E-2,4.2840574E-4,-6.1888468E-2,3.0678457E-2,4.145948E-3,6.0825538E-2],"split_indices":[755,420,511,1322,1326,32,1181,299,1343,949,0,26,0,1278,891,662,646,578,755,399,513,0,0,1235,793,0,0,1085,755,30,103,0,0,0,1187,0,0,0,0,969,802,750,1092,0,0,0,0,0,0,0,0,0,0,0,0,0,0,0,0,0,0],"split_type":[0,0,0,0,0,0,0,0,0,0,0,0,0,0,0,0,0,0,0,0,0,0,0,0,0,0,0,0,0,0,0,0,0,0,0,0,0,0,0,0,0,0,0,0,0,0,0,0,0,0,0,0,0,0,0,0,0,0,0,0,0],"sum_hessian":[1.3354565E2,9.182554E1,4.1720108E1,8.1104706E1,1.0720834E1,5.315146E0,3.6404964E1,3.0764193E1,5.0340515E1,9.497937E0,1.2228965E0,4.1108146E0,1.2043316E0,2.426986E1,1.2135103E1,1.2427054E1,1.833714E1,8.860002E0,4.148051E1,6.174253E0,3.3236847E0,1.6836413E0,2.4271731E0,7.862552E0,1.6407309E1,1.0914275E1,1.2208273E0,8.012365E0,4.4146886E0,6.496089E0,1.1841049E1,6.9315825E0,1.9284186E0,1.9555918E0,3.952492E1,4.994898E0,1.1793553E0,1.6358247E0,1.6878599E0,2.9534879E0,4.9090643E0,6.4994807E0,9.907827E0,6.5445256E0,1.4678398E0,2.696882E0,1.7178068E0,2.8661687E0,3.6299205E0,1.0599978E1,1.2410705E0,3.1760128E1,7.7647934E0,1.7236713E0,1.2298167E0,2.7163658E0,2.1926982E0,1.9593477E0,4.540133E0,1.7129172E0,8.19491E0],"tree_param":{"num_deleted":"0","num_feature":"1434","num_nodes":"61","size_leaf_vector":"1"}},{"base_weights":[-2.236423E-3,-2.1601717E-1,4.6309876E-1,-3.4417468E-1,7.041386E-1,-5.4769623E-1,6.2183475E-1,3.21139E-2,-5.6988186E-1,9.0617996E-1,-2.7956203E-2,-9.0031785E-1,2.5837386E-2,3.5712817E-1,1.0855702E0,-6.2769574E-1,4.8774782E-1,-1.203403E0,-4.1057813E-1,1.2723112E0,9.059877E-2,-7.816269E-3,-6.1114192E-2,5.6815463E-1,-3.001051E-1,6.590556E-2,4.677194E-1,-9.181627E-1,3.8197526E-1,-3.2029963E-1,9.2082113E-1,-7.161005E-2,-8.944837E-3,-5.463388E-1,2.105109E-1,6.857583E-2,2.0707967E-2,4.8630536E-2,-4.0155787E-2,1.5035424E-1,6.6030286E-2,4.8615444E-2,-8.888717E-1,-2.1304397E-2,5.809335E-2,-6.4582534E-2,2.892568E-3,3.808598E-2,-1.0728545E-2,-6.0218144E-2,2.4016958E-2,5.2448142E-2,-7.520591E-3,-6.20547E-2,-1.8803164E-2,6.485708E-2,-1.9829087E-2,4.0252417E-2,-2.3579188E-2,3.2678642E-3,-6.819589E-2],"categories":[],"categories_nodes":[],"categories_segments":[],"categories_sizes":[],"default_left":[0,0,0,0,0,0,0,0,0,0,0,0,0,0,0,0,0,0,0,0,0,0,0,0,0,0,0,0,0,0,0,0,0,0,0,0,0,0,0,0,0,0,0,0,0,0,0,0,0,0,0,0,0,0,0,0,0,0,0,0,0],"id":9,"left_children":[1,3,5,7,9,11,13,15,17,19,-1,21,-1,23,25,27,29,31,33,35,37,-1,-1,39,41,-1,43,45,47,49,51,-1,-1,53,55,-1,-1,-1,-1,57,-1,-1,59,-1,-1,-1,-1,-1,-1,-1,-1,-1,-1,-1,-1,-1,-1,-1,-1,-1,-1],"loss_changes":[1.3401445E1,1.1126909E1,7.145072E0,6.9561996E0,3.4704638E0,2.8253002E0,4.1690874E0,9.798389E0,4.664484E0,2.9880753E0,0E0,1.0276432E0,0E0,3.654784E0,1.2511511E0,4.261454E0,7.027726E0,2.0298471E0,3.6869264E0,3.6079407E-2,4.1680107E0,0E0,0E0,5.8883424E0,5.9286757E0,0E0,3.6621485E0,3.9567194E0,9.983001E-1,5.8555136E0,1.9126701E0,0E0,0E0,3.6786337E0,6.0033565E0,0E0,0E0,0E0,0E0,5.908273E0,0E0,0E0,2.4209642E0,0E0,0E0,0E0,0E0,0E0,0E0,0E0,0E0,0E0,0E0,0E0,0E0,0E0,0E0,0E0,0E0,0E0,0E0],"parents":[2147483647,0,0,1,1,2,2,3,3,4,4,5,5,6,6,7,7,8,8,9,9,11,11,13,13,14,14,15,15,16,16,17,17,18,18,19,19,20,20,23,23,24,24,26,26,27,27,28,28,29,29,30,30,33,33,34,34,39,39,42,42],"right_children":[2,4,6,8,10,12,14,16,18,20,-1,22,-1,24,26,28,30,32,34,36,38,-1,-1,40,42,-1,44,46,48,50,52,-1,-1,54,56,-1,-1,-1,-1,58,-1,-1,60,-1,-1,-1,-1,-1,-1,-1,-1,-1,-1,-1,-1,-1,-1,-1,-1,-1,-1],"split_conditions":[2.556107E-3,4.185124E-2,5.0653536E-3,-1.5046664E-3,4.61837E-2,4.8116646E-3,-4.4804177E-4,-7.6999643E-4,-9.100199E-4,1.4354105E-2,-2.7956203E-2,-4.911489E-5,2.5837386E-2,-2.3671209E-4,-9.133863E-4,2.51974E-2,2.6024291E-2,6.1071347E-3,2.3298556E-2,4.5271143E-2,4.265098E-2,-7.816269E-3,-6.1114192E-2,-3.4090701E-6,2.2342106E-2,6.590556E-2,-1.1202839E-3,-1.0355848E-3,-8.3262386E-4,3.9386168E-2,3.766489E-2,-7.161005E-2,-8.944837E-3,-6.046014E-4,9.2675E-5,6.857583E-2,2.0707967E-2,4.8630536E-2,-4.0155787E-2,-7.4604806E-4,6.6030286E-2,4.8615444E-2,-9.797206E-4,-2.1304397E-2,5.809335E-2,-6.4582534E-2,2.892568E-3,3.808598E-2,-1.0728545E-2,-6.0218144E-2,2.4016958E-2,5.2448142E-2,-7.520591E-3,-6.20547E-2,-1.8803164E-2,6.485708E-2,-1.9829087E-2,4.0252417E-2,-2.3579188E-2,3.2678642E-3,-6.819589E-2],"split_indices":[755,420,511,1322,1326,32,1181,299,1343,949,0,26,0,947,62,1069,646,641,892,558,513,0,0,1265,103,0,659,1199,26,30,103,0,0,665,938,0,0,0,0,98,0,0,170,0,0,0,0,0,0,0,0,0,0,0,0,0,0,0,0,0,0],"split_type":[0,0,0,0,0,0,0,0,0,0,0,0,0,0,0,0,0,0,0,0,0,0,0,0,0,0,0,0,0,0,0,0,0,0,0,0,0,0,0,0,0,0,0,0,0,0,0,0,0,0,0,0,0,0,0,0,0,0,0,0,0],"sum_hessian":[1.3270978E2,9.130083E1,4.1408947E1,8.068863E1,1.0612197E1,5.2877007E0,3.6121246E1,3.0574293E1,5.0114334E1,9.392641E0,1.2195561E0,4.0877337E0,1.1999664E0,2.4122122E1,1.19991255E1,1.2334665E1,1.8239628E1,8.752626E0,4.136171E1,6.0960097E0,3.2966306E0,1.6833704E0,2.4043636E0,1.8361948E1,5.7601748E0,7.8944893E0,4.1046357E0,9.649331E0,2.6853337E0,6.4553504E0,1.1784277E1,6.8294883E0,1.923138E0,3.4041176E1,7.320532E0,4.928085E0,1.167925E0,1.6147478E0,1.6818829E0,1.257787E1,5.784076E0,1.6161013E0,4.1440735E0,1.9630799E0,2.1415555E0,6.744893E0,2.9044385E0,1.471644E0,1.2136897E0,2.828203E0,3.6271472E0,1.0543808E1,1.2404691E0,5.4628816E0,2.8578295E1,2.2165322E0,5.1039996E0,5.9841404E0,6.5937304E0,1.6640003E0,2.480073E0],"tree_param":{"num_deleted":"0","num_feature":"1434","num_nodes":"61","size_leaf_vector":"1"}},{"base_weights":[-1.7152567E-3,-2.073465E-1,4.46581E-1,-3.306554E-1,6.821491E-1,-5.299025E-1,6.003746E-1,2.9822081E-2,-5.467268E-1,-2.7960757E-2,8.7974757E-1,-8.749371E-1,2.5375236E-2,3.439777E-1,1.0524262E0,-6.2380517E-1,4.5352677E-1,-1.1661004E0,-3.923954E-1,1.0537285E0,-1.2250956E-2,-7.57199E-3,-5.9524056E-2,-1.8737365E-1,5.960543E-1,6.398564E-2,4.5366916E-1,-9.250706E-1,3.7060118E-1,-2.4118154E-1,8.2891357E-1,-6.956025E-2,-8.608355E-3,4.0248208E-2,-4.553026E-1,4.7835014E-3,6.2866144E-2,7.9953545E-1,-8.144267E-1,-5.1983684E-2,9.885583E-1,-2.0581415E-2,5.657039E-2,-6.45457E-2,-4.7754687E-3,-1.0625051E-2,3.714229E-2,-5.864155E-2,2.6625618E-2,5.7009786E-2,1.0899919E-2,-5.7485797E-2,-1.2719176E-2,4.002768E-3,5.4690372E-2,-6.503051E-2,2.5599793E-4,-5.951887E-2,2.8366277E-2,3.0139978E-3,5.7834566E-2],"categories":[],"categories_nodes":[],"categories_segments":[],"categories_sizes":[],"default_left":[0,0,0,0,0,0,0,0,0,0,0,0,0,0,0,0,0,0,0,0,0,0,0,0,0,0,0,0,0,0,0,0,0,0,0,0,0,0,0,0,0,0,0,0,0,0,0,0,0,0,0,0,0,0,0,0,0,0,0,0,0],"id":10,"left_children":[1,3,5,7,9,11,13,15,17,-1,19,21,-1,23,25,27,29,31,33,35,-1,-1,-1,37,39,-1,41,43,45,47,49,-1,-1,-1,51,-1,-1,53,55,57,59,-1,-1,-1,-1,-1,-1,-1,-1,-1,-1,-1,-1,-1,-1,-1,-1,-1,-1,-1,-1],"loss_changes":[1.2334888E1,1.0286245E1,6.6372557E0,6.3433237E0,3.3113594E0,2.6835246E0,3.9057398E0,8.976517E0,4.4021873E0,0E0,2.2746105E0,9.753783E-1,0E0,3.4576273E0,1.1668949E0,4.1675124E0,5.3176274E0,1.9159765E0,3.5455856E0,1.6571712E0,0E0,0E0,0E0,6.0961494E0,4.4217677E0,0E0,3.4462078E0,2.9371948E0,9.571592E-1,6.145078E0,2.2170525E0,0E0,0E0,0E0,5.39137E0,0E0,0E0,7.430322E-1,2.34779E0,5.9145255E0,1.6081877E0,0E0,0E0,0E0,0E0,0E0,0E0,0E0,0E0,0E0,0E0,0E0,0E0,0E0,0E0,0E0,0E0,0E0,0E0,0E0,0E0],"parents":[2147483647,0,0,1,1,2,2,3,3,4,4,5,5,6,6,7,7,8,8,10,10,11,11,13,13,14,14,15,15,16,16,17,17,18,18,19,19,23,23,24,24,26,26,27,27,28,28,29,29,30,30,34,34,37,37,38,38,39,39,40,40],"right_children":[2,4,6,8,10,12,14,16,18,-1,20,22,-1,24,26,28,30,32,34,36,-1,-1,-1,38,40,-1,42,44,46,48,50,-1,-1,-1,52,-1,-1,54,56,58,60,-1,-1,-1,-1,-1,-1,-1,-1,-1,-1,-1,-1,-1,-1,-1,-1,-1,-1,-1,-1],"split_conditions":[2.556107E-3,4.185124E-2,5.0653536E-3,-1.5046664E-3,4.354559E-2,1.1588042E-3,-4.4804177E-4,-7.7395426E-4,-9.100199E-4,-2.7960757E-2,4.601467E-2,-4.911489E-5,2.5375236E-2,3.8398188E-2,-9.133863E-4,2.51974E-2,2.6024291E-2,6.0929996E-3,-5.3240936E-3,-9.4656815E-4,-1.2250956E-2,-7.57199E-3,-5.9524056E-2,1.5701398E-3,2.018426E-2,6.398564E-2,-1.1202839E-3,-1.5739166E-3,-1.2522013E-3,3.9386168E-2,3.7184164E-2,-6.956025E-2,-8.608355E-3,4.0248208E-2,-5.4455805E-4,4.7835014E-3,6.2866144E-2,3.0810451E-2,3.2467052E-2,4.0708147E-2,3.8422536E-2,-2.0581415E-2,5.657039E-2,-6.45457E-2,-4.7754687E-3,-1.0625051E-2,3.714229E-2,-5.864155E-2,2.6625618E-2,5.7009786E-2,1.0899919E-2,-5.7485797E-2,-1.2719176E-2,4.002768E-3,5.4690372E-2,-6.503051E-2,2.5599793E-4,-5.951887E-2,2.8366277E-2,3.0139978E-3,5.7834566E-2],"split_indices":[755,420,511,1322,996,167,1181,299,1343,0,885,26,0,1278,62,1069,646,578,23,20,0,0,0,1235,793,0,659,404,2,30,456,0,0,0,737,0,0,4,802,750,1134,0,0,0,0,0,0,0,0,0,0,0,0,0,0,0,0,0,0,0,0],"split_type":[0,0,0,0,0,0,0,0,0,0,0,0,0,0,0,0,0,0,0,0,0,0,0,0,0,0,0,0,0,0,0,0,0,0,0,0,0,0,0,0,0,0,0,0,0,0,0,0,0,0,0,0,0,0,0,0,0,0,0,0,0],"sum_hessian":[1.3180319E2,9.072539E1,4.1077805E1,8.023135E1,1.0494036E1,5.2565823E0,3.582122E1,3.0391094E1,4.984026E1,1.1897382E0,9.304298E0,4.06215E0,1.194432E0,2.3980669E1,1.1840551E1,1.1766799E1,1.8624296E1,8.633973E0,4.1206287E1,8.112587E0,1.1917107E0,1.6830615E0,2.3790886E0,7.798636E0,1.6182034E1,7.758257E0,4.0822945E0,9.084334E0,2.6824648E0,6.658773E0,1.1965523E1,6.713754E0,1.9202192E0,1.468034E0,3.973825E1,1.679454E0,6.433133E0,2.9230402E0,4.875596E0,6.4312944E0,9.750738E0,1.9655008E0,2.1167936E0,5.918213E0,3.1661215E0,1.2124151E0,1.4700497E0,2.7869549E0,3.8718178E0,7.352699E0,4.612824E0,7.857838E0,3.1880415E1,1.2177498E0,1.7052903E0,2.6917624E0,2.1838336E0,1.9411083E0,4.490186E0,1.703589E0,8.04715E0],"tree_param":{"num_deleted":"0","num_feature":"1434","num_nodes":"61","size_leaf_vector":"1"}},{"base_weights":[-1.6811172E-3,-1.9923621E-1,4.3024594E-1,-2.9106846E-1,9.0885454E-1,-5.1299495E-1,5.793627E-1,-6.1481655E-1,-7.176945E-2,6.392615E-2,3.0151042E-4,-8.518506E-1,2.5057873E-2,3.3015206E-1,1.0214679E0,-6.960515E-1,2.9804034E-2,-2.1424502E-1,1.0340681E0,-7.335458E-3,-5.8104333E-2,-1.7957121E-1,5.726617E-1,6.598389E-2,5.230998E-1,-3.880147E-1,-1.0384868E0,-4.7008237E-1,3.0788338E-1,6.690939E-2,-7.4920068E-3,7.7782875E-1,-7.881784E-1,-5.3850334E-2,9.540591E-1,-4.6618697E-1,6.1062254E-2,2.7595732E-2,-3.298625E-2,1.5304896E-2,-6.0364444E-2,-5.8267176E-2,-8.852582E-3,-2.6458373E-2,3.5808273E-2,5.3323682E-2,3.8262277E-3,-6.309181E-2,2.4722365E-4,-5.7868578E-2,2.730211E-2,2.81852E-3,5.5925537E-2,1.9736439E-2,-5.3731915E-2],"categories":[],"categories_nodes":[],"categories_segments":[],"categories_sizes":[],"default_left":[0,0,0,0,0,0,0,0,0,0,0,0,0,0,0,0,0,0,0,0,0,0,0,0,0,0,0,0,0,0,0,0,0,0,0,0,0,0,0,0,0,0,0,0,0,0,0,0,0,0,0,0,0,0,0],"id":11,"left_children":[1,3,5,7,9,11,13,15,17,-1,-1,19,-1,21,23,25,-1,27,29,-1,-1,31,33,-1,35,37,39,41,43,-1,-1,45,47,49,51,53,-1,-1,-1,-1,-1,-1,-1,-1,-1,-1,-1,-1,-1,-1,-1,-1,-1,-1,-1],"loss_changes":[1.1336903E1,9.540643E0,6.162136E0,5.9863415E0,2.4016213E0,2.5652852E0,3.6815128E0,3.7759914E0,8.378188E0,0E0,0E0,9.3086123E-1,0E0,3.1689258E0,1.1928644E0,3.0233374E0,0E0,6.3815517E0,2.3897567E0,0E0,0E0,5.71604E0,4.124578E0,0E0,4.989841E0,5.1389456E0,3.7254162E0,6.258406E0,5.8327947E0,0E0,0E0,7.092509E-1,2.204228E0,5.5287094E0,1.5090675E0,2.1904078E0,0E0,0E0,0E0,0E0,0E0,0E0,0E0,0E0,0E0,0E0,0E0,0E0,0E0,0E0,0E0,0E0,0E0,0E0,0E0],"parents":[2147483647,0,0,1,1,2,2,3,3,4,4,5,5,6,6,7,7,8,8,11,11,13,13,14,14,15,15,17,17,18,18,21,21,22,22,24,24,25,25,26,26,27,27,28,28,31,31,32,32,33,33,34,34,35,35],"right_children":[2,4,6,8,10,12,14,16,18,-1,-1,20,-1,22,24,26,-1,28,30,-1,-1,32,34,-1,36,38,40,42,44,-1,-1,46,48,50,52,54,-1,-1,-1,-1,-1,-1,-1,-1,-1,-1,-1,-1,-1,-1,-1,-1,-1,-1,-1],"split_conditions":[2.556107E-3,4.358922E-2,5.0653536E-3,1.0441354E-3,4.5070443E-2,4.8116646E-3,-4.4804177E-4,2.6631386E-3,-5.219242E-4,6.392615E-2,3.0151042E-4,-4.911489E-5,2.5057873E-2,3.8398188E-2,-1.1871149E-3,1.5088066E-3,2.9804034E-2,2.4238419E-2,-4.994815E-4,-7.335458E-3,-5.8104333E-2,1.5701398E-3,2.018426E-2,6.598389E-2,-1.1202839E-3,-3.7383195E-4,-1.6193799E-3,4.2847455E-2,1.4362419E-4,6.690939E-2,-7.4920068E-3,3.8883187E-2,3.2467052E-2,4.0708147E-2,3.9338797E-2,-9.2701084E-4,6.1062254E-2,2.7595732E-2,-3.298625E-2,1.5304896E-2,-6.0364444E-2,-5.8267176E-2,-8.852582E-3,-2.6458373E-2,3.5808273E-2,5.3323682E-2,3.8262277E-3,-6.309181E-2,2.4722365E-4,-5.7868578E-2,2.730211E-2,2.81852E-3,5.5925537E-2,1.9736439E-2,-5.3731915E-2],"split_indices":[755,252,511,65,183,32,1181,1271,1382,0,0,26,0,1278,500,1187,0,1363,869,0,0,1235,793,0,659,170,1322,1362,1094,0,0,969,802,750,1092,62,0,0,0,0,0,0,0,0,0,0,0,0,0,0,0,0,0,0,0],"split_type":[0,0,0,0,0,0,0,0,0,0,0,0,0,0,0,0,0,0,0,0,0,0,0,0,0,0,0,0,0,0,0,0,0,0,0,0,0,0,0,0,0,0,0,0,0,0,0,0,0,0,0,0,0,0,0],"sum_hessian":[1.3085588E2,9.015806E1,4.0697826E1,8.3938995E1,6.219062E0,5.22251E0,3.5475315E1,3.3168804E1,5.077019E1,4.117132E0,2.1019294E0,4.0345087E0,1.1880014E0,2.3803999E1,1.1671317E1,3.1481962E1,1.68684E0,4.56898E1,5.0803914E0,1.6827189E0,2.35179E0,7.757754E0,1.6046246E1,6.270954E0,5.4003634E0,1.7696356E1,1.3785606E1,3.0731415E1,1.4958385E1,3.9383926E0,1.1419988E0,2.9068854E0,4.850868E0,6.396948E0,9.649299E0,2.3717675E0,3.0285957E0,3.7371497E0,1.3959208E1,1.4469154E0,1.2338691E1,8.229286E0,2.2502129E1,4.8070316E0,1.0151354E1,1.6904318E0,1.2164536E0,2.6670928E0,2.1837757E0,1.9255464E0,4.471401E0,1.7019076E0,7.9473906E0,1.1275792E0,1.2441884E0],"tree_param":{"num_deleted":"0","num_feature":"1434","num_nodes":"55","size_leaf_vector":"1"}},{"base_weights":[-6.724742E-4,-1.8974416E-1,4.148683E-1,-3.0452287E-1,6.43669E-1,-4.9688113E-1,5.596373E-1,3.318719E-2,-5.0775397E-1,9.210161E-1,-2.8527638E-1,-8.2893157E-1,2.4612768E-2,8.035336E-2,7.649474E-1,-6.017953E-1,4.4349235E-1,-1.1109279E0,-3.5993928E-1,-1.0285872E-2,6.214388E-2,-4.8637275E-2,2.7301049E-2,-7.1064155E-3,-5.670016E-2,5.5068785E-1,-8.5992324E-1,1.0634022E0,4.0222085E-1,-8.905589E-1,3.4627706E-1,-2.2609681E-1,8.032222E-1,-6.67093E-2,-7.5041982E-3,-4.9242276E-1,2.4353166E-1,8.0939436E-1,-2.8984329E-2,8.479384E-3,-6.429949E-2,1.2120606E0,-1.11831715E-2,-4.054319E-1,8.8022065E-1,-6.2249642E-2,-4.782046E-3,3.5149455E-2,-1.0384864E-2,-5.674521E-2,2.5839064E-2,-1.1555512E-2,4.6606973E-2,-1.6530104E-2,-5.7418175E-2,6.2097855E-2,-1.6416939E-2,5.8033813E-2,-1.8444371E-3,2.6563898E-2,6.5256886E-2,-4.2879567E-2,2.799795E-2,6.33363E-4,6.292807E-2],"categories":[],"categories_nodes":[],"categories_segments":[],"categories_sizes":[],"default_left":[0,0,0,0,0,0,0,0,0,0,0,0,0,0,0,0,0,0,0,0,0,0,0,0,0,0,0,0,0,0,0,0,0,0,0,0,0,0,0,0,0,0,0,0,0,0,0,0,0,0,0,0,0,0,0,0,0,0,0,0,0,0,0,0,0],"id":12,"left_children":[1,3,5,7,9,11,13,15,17,19,21,23,-1,25,27,29,31,33,35,-1,-1,-1,-1,-1,-1,37,39,41,43,45,47,49,51,-1,-1,53,55,57,-1,-1,-1,59,-1,61,63,-1,-1,-1,-1,-1,-1,-1,-1,-1,-1,-1,-1,-1,-1,-1,-1,-1,-1,-1,-1],"loss_changes":[1.0371036E1,8.87419E0,5.7267103E0,5.5361857E0,3.1748328E0,2.4398074E0,3.4902182E0,8.383016E0,4.0817766E0,3.4980392E0,2.4526324E0,8.8726425E-1,0E0,5.7547836E0,2.295147E0,3.7721448E0,4.878453E0,1.819314E0,3.4659715E0,0E0,0E0,0E0,0E0,0E0,0E0,2.9752946E0,2.1358778E0,2.7947836E0,5.36086E0,2.692255E0,8.7201035E-1,5.714175E0,1.9361362E0,0E0,0E0,3.298133E0,5.0915003E0,2.2400475E0,0E0,0E0,0E0,6.573105E-2,0E0,2.8826714E0,2.7602296E0,0E0,0E0,0E0,0E0,0E0,0E0,0E0,0E0,0E0,0E0,0E0,0E0,0E0,0E0,0E0,0E0,0E0,0E0,0E0,0E0],"parents":[2147483647,0,0,1,1,2,2,3,3,4,4,5,5,6,6,7,7,8,8,9,9,10,10,11,11,13,13,14,14,15,15,16,16,17,17,18,18,25,25,26,26,27,27,28,28,29,29,30,30,31,31,32,32,35,35,36,36,37,37,41,41,43,43,44,44],"right_children":[2,4,6,8,10,12,14,16,18,20,22,24,-1,26,28,30,32,34,36,-1,-1,-1,-1,-1,-1,38,40,42,44,46,48,50,52,-1,-1,54,56,58,-1,-1,-1,60,-1,62,64,-1,-1,-1,-1,-1,-1,-1,-1,-1,-1,-1,-1,-1,-1,-1,-1,-1,-1,-1,-1],"split_conditions":[2.556107E-3,4.185124E-2,5.0653536E-3,-1.5046664E-3,4.574564E-2,1.1588042E-3,-1.1832621E-3,-7.7395426E-4,-9.100199E-4,-8.9273904E-5,4.5223035E-2,-4.911489E-5,2.4612768E-2,-7.6149375E-4,-9.176298E-4,2.51974E-2,2.6024291E-2,6.0929996E-3,2.3298556E-2,-1.0285872E-2,6.214388E-2,-4.8637275E-2,2.7301049E-2,-7.1064155E-3,-5.670016E-2,1.1143198E-3,2.7540896E-2,3.5951506E-2,4.0150803E-4,-1.5739166E-3,-8.3262386E-4,3.9386168E-2,3.1564195E-2,-6.67093E-2,-7.5041982E-3,2.6145048E-2,9.2675E-5,-2.1562379E-4,-2.8984329E-2,8.479384E-3,-6.429949E-2,3.1502636E-3,-1.11831715E-2,-8.120616E-4,3.7488207E-2,-6.2249642E-2,-4.782046E-3,3.5149455E-2,-1.0384864E-2,-5.674521E-2,2.5839064E-2,-1.1555512E-2,4.6606973E-2,-1.6530104E-2,-5.7418175E-2,6.2097855E-2,-1.6416939E-2,5.8033813E-2,-1.8444371E-3,2.6563898E-2,6.5256886E-2,-4.2879567E-2,2.799795E-2,6.33363E-4,6.292807E-2],"split_indices":[755,420,511,1322,873,167,929,299,1343,557,807,26,0,1262,224,1069,646,578,892,0,0,0,0,0,0,632,43,253,449,404,26,30,526,0,0,4,938,1253,0,0,0,854,0,227,9,0,0,0,0,0,0,0,0,0,0,0,0,0,0,0,0,0,0,0,0],"split_type":[0,0,0,0,0,0,0,0,0,0,0,0,0,0,0,0,0,0,0,0,0,0,0,0,0,0,0,0,0,0,0,0,0,0,0,0,0,0,0,0,0,0,0,0,0,0,0,0,0,0,0,0,0,0,0,0,0,0,0,0,0,0,0,0,0],"sum_hessian":[1.3000052E2,8.9720795E1,4.027972E1,7.941788E1,1.0302923E1,5.1860366E0,3.509368E1,3.015157E1,4.9266304E1,7.9406796E0,2.3622437E0,4.003902E0,1.1821345E0,1.0941888E1,2.4151796E1,1.1652155E1,1.8499414E1,8.414467E0,4.0851837E1,1.8445065E0,6.096173E0,1.1998414E0,1.1624024E0,1.6823461E0,2.3215559E0,7.5697613E0,3.372126E0,1.2190033E1,1.1961763E1,8.978232E0,2.6739233E0,6.5950627E0,1.190435E1,6.5126557E0,1.9018117E0,3.364875E1,7.2030883E0,6.391021E0,1.1787407E0,1.1632693E0,2.2088568E0,1.0980089E1,1.2099437E0,4.5037737E0,7.457989E0,5.8179593E0,3.1602726E0,1.4629296E0,1.2109935E0,2.7289104E0,3.8661525E0,1.2314496E0,1.0672901E1,2.8196644E1,5.452105E0,2.1964948E0,5.0065937E0,4.2538147E0,2.1372058E0,2.1274526E0,8.852636E0,3.1432407E0,1.3605331E0,2.5786052E0,4.879384E0],"tree_param":{"num_deleted":"0","num_feature":"1434","num_nodes":"65","size_leaf_vector":"1"}},{"base_weights":[-9.888251E-4,-1.7550412E-1,4.1776726E-1,-3.3363858E-1,3.7961477E-1,5.112462E-1,-4.192183E-2,-1.8333693E-1,-8.998933E-1,5.7474995E-1,-4.6145588E-1,2.7215087E-1,9.334399E-1,-3.1952292E-1,1.0994039E0,-6.5757E-2,-5.708355E-1,7.1782225E-1,-3.0671684E-2,2.04557E-2,-5.9184875E-2,-1.3000247E-1,8.7317145E-1,1.113815E0,-3.8482107E-3,9.9769406E-2,-5.357511E-1,6.781906E-2,9.264656E-3,4.428161E-2,-9.2278695E-1,3.4494612E-1,6.602361E-2,-8.7742496E-1,3.105022E-1,1.0811074E0,-1.707657E-2,9.222654E-3,1.2335283E0,-2.4672378E-2,2.4636133E-2,-4.149336E-2,-1.1777968E-2,1.5261556E-2,-6.0571324E-2,-2.5468308E-2,4.2591877E-2,-6.468664E-2,-4.5280377E-3,-2.2488741E-2,4.4791184E-2,6.639905E-2,5.7857963E-3,6.5595195E-2,1.6366748E-2],"categories":[],"categories_nodes":[],"categories_segments":[],"categories_sizes":[],"default_left":[0,0,0,0,0,0,0,0,0,0,0,0,0,0,0,0,0,0,0,0,0,0,0,0,0,0,0,0,0,0,0,0,0,0,0,0,0,0,0,0,0,0,0,0,0,0,0,0,0,0,0,0,0,0,0],"id":13,"left_children":[1,3,5,7,9,11,-1,13,15,17,19,21,23,25,27,-1,29,31,-1,-1,-1,33,35,37,-1,39,41,-1,-1,-1,43,45,-1,47,49,51,-1,-1,53,-1,-1,-1,-1,-1,-1,-1,-1,-1,-1,-1,-1,-1,-1,-1,-1],"loss_changes":[9.570834E0,8.241058E0,4.9525905E0,6.0032806E0,3.70552E0,3.4282188E0,0E0,1.0575745E1,1.2915144E0,3.4084082E0,3.3150315E0,6.0837054E0,2.4144297E0,4.92078E0,1.1211472E0,0E0,5.997325E0,3.1498213E0,0E0,0E0,0E0,5.4313517E0,2.9030142E0,9.859066E-1,0E0,4.697575E0,2.9456558E0,0E0,0E0,0E0,3.428145E0,5.312177E0,0E0,1.8718009E0,5.1187735E0,1.9449224E0,0E0,0E0,2.4430752E-1,0E0,0E0,0E0,0E0,0E0,0E0,0E0,0E0,0E0,0E0,0E0,0E0,0E0,0E0,0E0,0E0],"parents":[2147483647,0,0,1,1,2,2,3,3,4,4,5,5,7,7,8,8,9,9,10,10,11,11,12,12,13,13,14,14,16,16,17,17,21,21,22,22,23,23,25,25,26,26,30,30,31,31,33,33,34,34,35,35,38,38],"right_children":[2,4,6,8,10,12,-1,14,16,18,20,22,24,26,28,-1,30,32,-1,-1,-1,34,36,38,-1,40,42,-1,-1,-1,44,46,-1,48,50,52,-1,-1,54,-1,-1,-1,-1,-1,-1,-1,-1,-1,-1,-1,-1,-1,-1,-1,-1],"split_conditions":[3.52294E-3,4.294529E-2,4.7916867E-2,4.2530697E-2,2.447314E-4,7.6278724E-4,-4.192183E-2,4.137365E-2,-5.876488E-4,4.6125E-2,-4.859254E-4,-1.0256865E-3,2.7451336E-3,-1.5046664E-3,3.7222367E-2,-6.5757E-2,-5.2844774E-4,-9.513343E-4,-3.0671684E-2,2.04557E-2,-5.9184875E-2,3.8350087E-2,1.3415798E-3,2.9307771E-3,-3.8482107E-3,-7.75316E-4,-8.8132464E-4,6.781906E-2,9.264656E-3,4.428161E-2,-1.613422E-3,3.67928E-3,6.602361E-2,2.1514509E-2,1.6826877E-2,-9.332396E-4,-1.707657E-2,9.222654E-3,3.775959E-2,-2.4672378E-2,2.4636133E-2,-4.149336E-2,-1.1777968E-2,1.5261556E-2,-6.0571324E-2,-2.5468308E-2,4.2591877E-2,-6.468664E-2,-4.5280377E-3,-2.2488741E-2,4.4791184E-2,6.639905E-2,5.7857963E-3,6.5595195E-2,1.6366748E-2],"split_indices":[1169,1422,1428,1056,1421,458,0,1092,938,1326,650,524,458,1322,201,0,938,1082,0,0,0,1095,410,755,0,182,32,0,0,0,134,383,0,205,163,119,0,0,441,0,0,0,0,0,0,0,0,0,0,0,0,0,0,0,0],"split_type":[0,0,0,0,0,0,0,0,0,0,0,0,0,0,0,0,0,0,0,0,0,0,0,0,0,0,0,0,0,0,0,0,0,0,0,0,0,0,0,0,0,0,0,0,0,0,0,0,0,0,0,0,0,0,0],"sum_hessian":[1.2896167E2,9.143664E1,3.7525043E1,7.147486E1,1.9961773E1,3.547801E1,2.047032E0,5.7528717E1,1.3946142E1,1.6459646E1,3.502126E0,2.3700584E1,1.1777426E1,5.2686054E1,4.8426657E0,4.8407674E0,9.105375E0,1.5044023E1,1.4156243E0,1.7845857E0,1.7175403E0,1.4668999E1,9.031586E0,9.90658E0,1.8708458E0,1.8109041E1,3.457701E1,3.4023595E0,1.4403062E0,1.4769639E0,7.628412E0,1.0265103E1,4.7789197E0,5.071727E0,9.597272E0,7.805416E0,1.2261692E0,1.4204099E0,8.48617E0,7.1138964E0,1.0995145E1,1.6573997E1,1.8003014E1,1.4408457E0,6.187566E0,3.820749E0,6.444354E0,2.895589E0,2.1761377E0,4.275448E0,5.3218246E0,5.9167695E0,1.8886466E0,7.3985686E0,1.0876013E0],"tree_param":{"num_deleted":"0","num_feature":"1434","num_nodes":"55","size_leaf_vector":"1"}},{"base_weights":[-7.212647E-4,-1.5898667E-1,4.270071E-1,-3.1283855E-1,4.042714E-1,-4.420872E-1,5.813614E-1,-7.0256156E-1,-1.1929841E-1,-5.080043E-1,5.48637E-1,-7.6969635E-1,2.326458E-2,7.529723E-2,8.0409676E-1,-1.1970227E0,-3.466166E-1,-1.1171455E-2,-5.9185058E-2,-4.8547033E-2,9.997183E-3,1.2304044E-1,9.665734E-1,-1.082396E-2,-5.252532E-2,5.8737135E-1,-8.4250325E-1,6.123031E-2,5.000479E-1,-1.0112302E-2,-6.673102E-2,4.384432E-2,-5.290128E-1,-2.4083014E-1,6.856062E-1,5.8130223E-2,-3.3338484E-1,1.1925449E0,-9.052063E-3,-2.9538516E-2,9.7501206E-1,-4.9975708E-2,-1.1915769E-2,-5.580619E-1,8.251607E-1,-1.4644751E-2,-5.48678E-2,-3.9837748E-2,7.858115E-3,1.6970802E-3,6.5933496E-2,-3.4422986E-2,4.536462E-2,1.7234683E-2,6.386478E-2,5.9272278E-2,9.7908685E-3,-5.2387655E-2,9.040555E-3,5.9261095E-2,6.1058127E-3],"categories":[],"categories_nodes":[],"categories_segments":[],"categories_sizes":[],"default_left":[0,0,0,0,0,0,0,0,0,0,0,0,0,0,0,0,0,0,0,0,0,0,0,0,0,0,0,0,0,0,0,0,0,0,0,0,0,0,0,0,0,0,0,0,0,0,0,0,0,0,0,0,0,0,0,0,0,0,0,0,0],"id":14,"left_children":[1,3,5,7,9,11,13,15,17,19,21,23,-1,25,27,29,31,33,-1,-1,-1,35,37,-1,-1,39,41,-1,43,-1,-1,-1,45,47,49,-1,51,53,-1,-1,55,-1,-1,57,59,-1,-1,-1,-1,-1,-1,-1,-1,-1,-1,-1,-1,-1,-1,-1,-1],"loss_changes":[8.794578E0,8.343806E0,4.964024E0,5.5765495E0,3.0155032E0,2.1000948E0,3.3467207E0,3.9317646E0,5.8963766E0,1.2947905E0,3.1578255E0,4.9996495E-1,0E0,5.3552375E0,2.0580912E0,1.089221E0,3.9825654E0,7.7856035E0,0E0,0E0,0E0,5.262051E0,2.5884285E0,0E0,0E0,3.8766584E0,1.5210724E-1,0E0,5.2118773E0,0E0,0E0,0E0,1.6036949E0,8.213521E0,4.9326615E0,0E0,4.1118927E0,1.1843872E-1,0E0,0E0,7.21395E-1,0E0,0E0,1.5798879E0,2.6319623E0,0E0,0E0,0E0,0E0,0E0,0E0,0E0,0E0,0E0,0E0,0E0,0E0,0E0,0E0,0E0,0E0],"parents":[2147483647,0,0,1,1,2,2,3,3,4,4,5,5,6,6,7,7,8,8,9,9,10,10,11,11,13,13,14,14,15,15,16,16,17,17,21,21,22,22,25,25,26,26,28,28,32,32,33,33,34,34,36,36,37,37,40,40,43,43,44,44],"right_children":[2,4,6,8,10,12,14,16,18,20,22,24,-1,26,28,30,32,34,-1,-1,-1,36,38,-1,-1,40,42,-1,44,-1,-1,-1,46,48,50,-1,52,54,-1,-1,56,-1,-1,58,60,-1,-1,-1,-1,-1,-1,-1,-1,-1,-1,-1,-1,-1,-1,-1,-1],"split_conditions":[2.9458732E-3,4.294529E-2,5.0653536E-3,2.3049032E-2,4.3010976E-2,7.943499E-4,-1.1832621E-3,-6.014012E-7,4.3088637E-2,-9.641043E-5,-1.0849471E-3,-8.904098E-3,2.326458E-2,-1.7011411E-3,-9.0199E-4,1.9175954E-2,-2.3863475E-5,2.7348187E-2,-5.9185058E-2,-4.8547033E-2,9.997183E-3,4.1139625E-2,4.5596827E-2,-1.082396E-2,-5.252532E-2,9.771784E-3,2.0232454E-2,6.123031E-2,-5.4767466E-4,-1.0112302E-2,-6.673102E-2,4.384432E-2,1.4965497E-4,4.049904E-2,-5.5833295E-4,5.8130223E-2,4.4223893E-2,-1.098749E-3,-9.052063E-3,-2.9538516E-2,3.461745E-2,-4.9975708E-2,-1.1915769E-2,3.8520027E-2,-9.176298E-4,-1.4644751E-2,-5.48678E-2,-3.9837748E-2,7.858115E-3,1.6970802E-3,6.5933496E-2,-3.4422986E-2,4.536462E-2,1.7234683E-2,6.386478E-2,5.9272278E-2,9.7908685E-3,-5.2387655E-2,9.040555E-3,5.9261095E-2,6.1058127E-3],"split_indices":[755,1422,511,397,1095,11,929,785,85,35,1385,22,0,1091,1316,262,764,1252,0,0,0,15,831,0,0,853,754,0,872,0,0,0,509,903,734,0,1188,746,0,0,1,0,0,0,224,0,0,0,0,0,0,0,0,0,0,0,0,0,0,0,0],"split_type":[0,0,0,0,0,0,0,0,0,0,0,0,0,0,0,0,0,0,0,0,0,0,0,0,0,0,0,0,0,0,0,0,0,0,0,0,0,0,0,0,0,0,0,0,0,0,0,0,0,0,0,0,0,0,0,0,0,0,0,0,0],"sum_hessian":[1.2791262E2,9.382454E1,3.4088078E1,7.404422E1,1.9780317E1,4.8599496E0,2.9228128E1,2.3696863E1,5.034736E1,2.358377E0,1.742194E1,3.6822202E0,1.1777295E0,9.341623E0,1.9886505E1,8.929501E0,1.4767363E1,4.6621796E1,3.725562E0,1.2013276E0,1.1570494E0,9.273189E0,8.148751E0,1.8360233E0,1.8461969E0,6.227242E0,3.1143808E0,7.0745335E0,1.2811972E1,1.3851624E0,7.5443387E0,1.4218811E0,1.3345482E1,3.5556652E1,1.1065146E1,2.357195E0,6.9159937E0,6.7754736E0,1.373278E0,1.4119478E0,4.8152943E0,1.952637E0,1.1617439E0,2.8429163E0,9.969055E0,1.049902E1,2.8464622E0,1.4416885E1,2.1139765E1,5.9716506E0,5.0934954E0,5.723153E0,1.1928408E0,1.0762048E0,5.699269E0,3.3808665E0,1.4344275E0,1.4583478E0,1.3845685E0,6.139099E0,3.829956E0],"tree_param":{"num_deleted":"0","num_feature":"1434","num_nodes":"61","size_leaf_vector":"1"}},{"base_weights":[-6.812915E-4,-1.6245687E-1,3.9007974E-1,-3.0848175E-1,3.5317367E-1,4.7960347E-1,-4.0214192E-2,-1.6302103E-1,-8.619297E-1,5.2049875E-1,-5.3203636E-1,2.4959469E-1,8.897733E-1,-2.9359838E-1,1.0603513E0,-6.381197E-2,-5.3523695E-1,6.791712E-1,-2.7116755E-2,2.1179834E-2,-5.369988E-2,-1.3127975E-1,8.2443553E-1,1.0708591E0,-4.7244406E-3,1.4035873E-1,-4.8620287E-1,6.55339E-2,8.9266645E-3,4.3207787E-2,-8.821705E-1,3.6027578E-1,1.1372192E0,-8.388593E-1,2.879919E-1,1.0287251E0,-1.6825289E-2,9.812049E-3,1.1852988E0,-2.571897E-2,3.338385E-2,-3.4346323E-2,-3.7171735E-4,1.4270413E-2,-5.808727E-2,-2.1432145E-2,4.007382E-2,1.5693424E-2,6.263025E-2,-6.2040735E-2,-4.289996E-3,-2.1757668E-2,4.258854E-2,6.360529E-2,5.2857473E-3,6.3191086E-2,1.5171464E-2],"categories":[],"categories_nodes":[],"categories_segments":[],"categories_sizes":[],"default_left":[0,0,0,0,0,0,0,0,0,0,0,0,0,0,0,0,0,0,0,0,0,0,0,0,0,0,0,0,0,0,0,0,0,0,0,0,0,0,0,0,0,0,0,0,0,0,0,0,0,0,0,0,0,0,0,0,0],"id":15,"left_children":[1,3,5,7,9,11,-1,13,15,17,19,21,23,25,27,-1,29,31,-1,-1,-1,33,35,37,-1,39,41,-1,-1,-1,43,45,47,49,51,53,-1,-1,55,-1,-1,-1,-1,-1,-1,-1,-1,-1,-1,-1,-1,-1,-1,-1,-1,-1,-1],"loss_changes":[8.1472E0,6.9714994E0,4.4204884E0,5.6205297E0,3.3253376E0,3.1487846E0,0E0,9.560673E0,1.3012362E0,3.3726454E0,2.4055953E0,5.424702E0,2.3197765E0,4.5064473E0,1.0465078E0,0E0,5.578113E0,1.9192963E0,0E0,0E0,0E0,4.830454E0,2.673861E0,8.27796E-1,0E0,6.2469134E0,3.550702E0,0E0,0E0,0E0,3.0877562E0,4.1249347E0,1.8453074E-1,1.7129903E0,4.633992E0,1.7957354E0,0E0,0E0,2.515211E-1,0E0,0E0,0E0,0E0,0E0,0E0,0E0,0E0,0E0,0E0,0E0,0E0,0E0,0E0,0E0,0E0,0E0,0E0],"parents":[2147483647,0,0,1,1,2,2,3,3,4,4,5,5,7,7,8,8,9,9,10,10,11,11,12,12,13,13,14,14,16,16,17,17,21,21,22,22,23,23,25,25,26,26,30,30,31,31,32,32,33,33,34,34,35,35,38,38],"right_children":[2,4,6,8,10,12,-1,14,16,18,20,22,24,26,28,-1,30,32,-1,-1,-1,34,36,38,-1,40,42,-1,-1,-1,44,46,48,50,52,54,-1,-1,56,-1,-1,-1,-1,-1,-1,-1,-1,-1,-1,-1,-1,-1,-1,-1,-1,-1,-1],"split_conditions":[3.52294E-3,4.294529E-2,4.7916867E-2,4.2530697E-2,1.6820593E-3,7.6278724E-4,-4.0214192E-2,4.137365E-2,-5.876488E-4,4.6125E-2,-6.298972E-4,-1.0256865E-3,2.7451336E-3,-1.6129832E-3,3.7222367E-2,-6.381197E-2,-5.2844774E-4,-9.513343E-4,-2.7116755E-2,2.1179834E-2,-5.369988E-2,3.8350087E-2,1.3415798E-3,1.8668049E-3,-4.7244406E-3,-1.5497736E-3,2.6918566E-2,6.55339E-2,8.9266645E-3,4.3207787E-2,-1.613422E-3,3.67928E-3,4.2803102E-4,2.1514509E-2,1.6826877E-2,-9.332396E-4,-1.6825289E-2,9.812049E-3,3.775959E-2,-2.571897E-2,3.338385E-2,-3.4346323E-2,-3.7171735E-4,1.4270413E-2,-5.808727E-2,-2.1432145E-2,4.007382E-2,1.5693424E-2,6.263025E-2,-6.2040735E-2,-4.289996E-3,-2.1757668E-2,4.258854E-2,6.360529E-2,5.2857473E-3,6.3191086E-2,1.5171464E-2],"split_indices":[1169,1422,1428,1056,755,458,0,1092,938,1326,110,524,458,824,201,0,938,1082,0,0,0,1095,410,797,0,404,64,0,0,0,134,383,407,205,163,119,0,0,441,0,0,0,0,0,0,0,0,0,0,0,0,0,0,0,0,0,0],"split_type":[0,0,0,0,0,0,0,0,0,0,0,0,0,0,0,0,0,0,0,0,0,0,0,0,0,0,0,0,0,0,0,0,0,0,0,0,0,0,0,0,0,0,0,0,0,0,0,0,0,0,0,0,0,0,0,0,0],"sum_hessian":[1.2687714E2,9.014235E1,3.6734795E1,7.056135E1,1.9581001E1,3.473004E1,2.004752E0,5.6900856E1,1.366049E1,1.6814651E1,2.7663507E0,2.3282534E1,1.1447508E1,5.2099945E1,4.800909E0,4.741194E0,8.919296E0,1.4944534E1,1.8701168E0,1.0801452E0,1.6862055E0,1.4468024E1,8.814508E0,9.594347E0,1.853161E0,1.6098864E1,3.6001083E1,3.3605843E0,1.4403248E0,1.4757727E0,7.4435234E0,9.86383E0,5.080704E0,5.0108166E0,9.457208E0,7.592374E0,1.2221346E0,1.4242393E0,8.170108E0,7.1926885E0,8.906174E0,2.5059933E1,1.094115E1,1.4339799E0,6.0095434E0,3.5480177E0,6.315812E0,1.0817677E0,3.9989367E0,2.8447146E0,2.166102E0,4.2429843E0,5.2142234E0,5.7088428E0,1.8835309E0,7.1044044E0,1.0657034E0],"tree_param":{"num_deleted":"0","num_feature":"1434","num_nodes":"57","size_leaf_vector":"1"}},{"base_weights":[-6.425036E-5,-1.6241387E-1,3.6142364E-1,-2.4088594E-1,8.0808866E-1,-4.6692166E-1,4.940814E-1,-8.875715E-1,-1.5054062E-1,5.843499E-2,-2.0461518E-3,-7.7342564E-1,2.2491999E-2,2.5788265E-1,9.233359E-1,1.8553933E-2,-1.1023202E0,-2.090275E-1,9.555969E-1,-6.3193603E-3,-5.303022E-2,6.752842E-1,-2.6081834E-2,1.0191274E0,2.0087951E-5,-1.5077668E-2,-6.048749E-2,-8.932919E-1,-1.1620392E-1,1.0357826E-2,5.9962608E-2,-1.9050053E-1,1.0941713E0,4.7354227E-1,-8.22887E-1,2.0884423E-2,1.1061764E0,3.4502592E-2,-6.606433E-2,2.3735598E-2,-1.6563678E-2,-4.224622E-2,3.0628446E-2,6.361549E-2,5.7236617E-3,-1.4252083E-3,5.7320476E-2,-6.846213E-2,4.4503794E-3,5.8537554E-2,1.6964315E-2],"categories":[],"categories_nodes":[],"categories_segments":[],"categories_sizes":[],"default_left":[0,0,0,0,0,0,0,0,0,0,0,0,0,0,0,0,0,0,0,0,0,0,0,0,0,0,0,0,0,0,0,0,0,0,0,0,0,0,0,0,0,0,0,0,0,0,0,0,0,0,0],"id":16,"left_children":[1,3,5,7,9,11,13,15,17,-1,-1,19,-1,21,23,-1,25,27,29,-1,-1,31,33,35,-1,-1,-1,37,39,-1,-1,41,43,45,47,-1,49,-1,-1,-1,-1,-1,-1,-1,-1,-1,-1,-1,-1,-1,-1],"loss_changes":[7.498574E0,6.909585E0,4.5821366E0,4.677459E0,2.1375813E0,2.0283775E0,3.271881E0,3.082179E0,4.9519725E0,0E0,0E0,7.671089E-1,0E0,2.8289223E0,1.0516853E0,0E0,3.8363743E-1,4.3796515E0,4.5701838E-1,0E0,0E0,3.7046337E0,6.3924427E0,1.0239124E-1,0E0,0E0,0E0,6.524316E0,8.202662E0,0E0,0E0,2.617173E0,1.0140872E0,3.3777347E0,3.1990042E0,0E0,3.9123535E-2,0E0,0E0,0E0,0E0,0E0,0E0,0E0,0E0,0E0,0E0,0E0,0E0,0E0,0E0],"parents":[2147483647,0,0,1,1,2,2,3,3,4,4,5,5,6,6,7,7,8,8,11,11,13,13,14,14,16,16,17,17,18,18,21,21,22,22,23,23,27,27,28,28,31,31,32,32,33,33,34,34,36,36],"right_children":[2,4,6,8,10,12,14,16,18,-1,-1,20,-1,22,24,-1,26,28,30,-1,-1,32,34,36,-1,-1,-1,38,40,-1,-1,42,44,46,48,-1,50,-1,-1,-1,-1,-1,-1,-1,-1,-1,-1,-1,-1,-1,-1],"split_conditions":[2.556107E-3,4.3856848E-2,5.0653536E-3,-6.56935E-5,4.5070443E-2,4.8116646E-3,-4.4804177E-4,-5.6537953E-3,2.890267E-3,5.843499E-2,-2.0461518E-3,9.050712E-4,2.2491999E-2,1.5701398E-3,3.3216632E-4,1.8553933E-2,3.9919777E-4,-1.5497736E-3,-1.1375416E-3,-6.3193603E-3,-5.303022E-2,1.7121085E-3,-8.6707E-4,1.3649091E-3,2.0087951E-5,-1.5077668E-2,-6.048749E-2,-1.719903E-3,-1.4145508E-3,1.0357826E-2,5.9962608E-2,4.320117E-3,4.1694164E-2,-9.2774566E-4,-2.3865237E-5,2.0884423E-2,4.5104295E-2,3.4502592E-2,-6.606433E-2,2.3735598E-2,-1.6563678E-2,-4.224622E-2,3.0628446E-2,6.361549E-2,5.7236617E-3,-1.4252083E-3,5.7320476E-2,-6.846213E-2,4.4503794E-3,5.8537554E-2,1.6964315E-2],"split_indices":[755,45,511,563,183,32,1181,398,1100,0,0,754,0,1235,548,0,530,404,146,0,0,1130,479,1202,0,0,0,20,1385,0,0,398,849,101,1067,0,996,0,0,0,0,0,0,0,0,0,0,0,0,0,0],"split_type":[0,0,0,0,0,0,0,0,0,0,0,0,0,0,0,0,0,0,0,0,0,0,0,0,0,0,0,0,0,0,0,0,0,0,0,0,0,0,0,0,0,0,0,0,0,0,0,0,0,0,0],"sum_hessian":[1.2577119E2,8.717175E1,3.859943E1,8.134613E1,5.8256254E0,4.980473E0,3.3618958E1,8.889745E0,7.245638E1,3.8246105E0,2.001015E0,3.8497303E0,1.1307427E0,2.2718689E1,1.0900268E1,1.1895833E0,7.7001615E0,6.958796E1,2.8684247E0,1.6260959E0,2.2236342E0,8.640255E0,1.4078434E1,9.780882E0,1.1193852E0,1.3611685E0,6.338993E0,7.2822323E0,6.230573E1,1.1588783E0,1.7095463E0,2.995067E0,5.645188E0,8.902169E0,5.1762652E0,1.9697553E0,7.8111267E0,1.4193032E0,5.862929E0,1.6303555E1,4.6002174E1,1.6215454E0,1.3735213E0,4.5239263E0,1.1212617E0,5.6466627E0,3.2555063E0,2.923271E0,2.2529945E0,6.718762E0,1.0923648E0],"tree_param":{"num_deleted":"0","num_feature":"1434","num_nodes":"51","size_leaf_vector":"1"}},{"base_weights":[1.1821892E-3,-1.5466034E-1,3.497973E-1,-2.3014717E-1,7.858357E-1,-4.5318478E-1,4.787174E-1,-1.6896397E-1,-5.8360584E-2,5.7195336E-2,-2.151735E-3,-7.5309265E-1,2.1952862E-2,2.4925414E-1,8.978443E-1,-2.9142946E-1,6.785624E-1,-5.7226024E-3,-5.219805E-2,4.3782192E-1,-3.292478E-1,1.1259489E0,3.4299183E-1,-5.989296E-1,-9.2387885E-2,1.1880932E0,-1.1747344E-1,5.265964E-2,1.1510854E0,4.084527E-2,-8.216392E-1,5.9855312E-2,1.7091211E-2,-2.1941124E-2,4.9962983E-2,2.739035E-2,-3.3606708E-2,-1.8417554E-2,2.0238305E-2,7.015399E-2,7.963687E-3,-5.4421436E-2,3.66251E-2,3.199348E-2,-2.3898743E-2,1.7536338E-2,6.23796E-2,1.0742053E-3,-6.077334E-2],"categories":[],"categories_nodes":[],"categories_segments":[],"categories_sizes":[],"default_left":[0,0,0,0,0,0,0,0,0,0,0,0,0,0,0,0,0,0,0,0,0,0,0,0,0,0,0,0,0,0,0,0,0,0,0,0,0,0,0,0,0,0,0,0,0,0,0,0,0],"id":17,"left_children":[1,3,5,7,9,11,13,15,-1,-1,-1,17,-1,19,21,23,25,-1,-1,27,29,31,33,35,37,39,41,43,45,-1,47,-1,-1,-1,-1,-1,-1,-1,-1,-1,-1,-1,-1,-1,-1,-1,-1,-1,-1],"loss_changes":[6.8944407E0,6.4073386E0,4.275238E0,4.501775E0,2.0504522E0,1.9193459E0,3.0716867E0,8.304596E0,0E0,0E0,0E0,7.7434945E-1,0E0,2.7106628E0,1.0994835E0,4.1644297E0,4.2611876E0,0E0,0E0,4.9318514E0,4.2573686E0,3.0506134E-2,2.9310033E0,2.6270943E0,6.053421E0,1.166832E0,4.821273E0,4.30934E0,5.0927162E-2,0E0,1.6675625E0,0E0,0E0,0E0,0E0,0E0,0E0,0E0,0E0,0E0,0E0,0E0,0E0,0E0,0E0,0E0,0E0,0E0,0E0],"parents":[2147483647,0,0,1,1,2,2,3,3,4,4,5,5,6,6,7,7,11,11,13,13,14,14,15,15,16,16,19,19,20,20,21,21,22,22,23,23,24,24,25,25,26,26,27,27,28,28,30,30],"right_children":[2,4,6,8,10,12,14,16,-1,-1,-1,18,-1,20,22,24,26,-1,-1,28,30,32,34,36,38,40,42,44,46,-1,48,-1,-1,-1,-1,-1,-1,-1,-1,-1,-1,-1,-1,-1,-1,-1,-1,-1,-1],"split_conditions":[2.556107E-3,4.3856848E-2,5.0653536E-3,4.3088637E-2,4.5074105E-2,4.8116646E-3,-4.4804177E-4,2.8257398E-2,-5.8360584E-2,5.7195336E-2,-2.151735E-3,-4.911489E-5,2.1952862E-2,-2.3671209E-4,-9.133863E-4,4.0247306E-2,3.6009E-2,-5.7226024E-3,-5.219805E-2,-3.4090701E-6,2.2342106E-2,-9.917286E-4,-1.1202839E-3,-2.3578946E-3,1.694128E-2,4.1569073E-2,4.127787E-2,-7.4604806E-4,1.8581426E-2,4.084527E-2,-9.797206E-4,5.9855312E-2,1.7091211E-2,-2.1941124E-2,4.9962983E-2,2.739035E-2,-3.3606708E-2,-1.8417554E-2,2.0238305E-2,7.015399E-2,7.963687E-3,-5.4421436E-2,3.66251E-2,3.199348E-2,-2.3898743E-2,1.7536338E-2,6.23796E-2,1.0742053E-3,-6.077334E-2],"split_indices":[755,45,511,85,618,32,1181,418,0,0,0,26,0,947,62,852,103,0,0,1265,103,326,659,845,1012,598,442,98,64,0,170,0,0,0,0,0,0,0,0,0,0,0,0,0,0,0,0,0,0],"split_type":[0,0,0,0,0,0,0,0,0,0,0,0,0,0,0,0,0,0,0,0,0,0,0,0,0,0,0,0,0,0,0,0,0,0,0,0,0,0,0,0,0,0,0,0,0,0,0,0,0],"sum_hessian":[1.24905754E2,8.6702995E1,3.820276E1,8.09602E1,5.742799E0,4.93704E0,3.3265717E1,7.7106064E1,3.8541286E0,3.7449193E0,1.9978797E0,3.8117552E0,1.1252844E0,2.252723E1,1.073849E1,6.7944405E1,9.16166E0,1.628859E0,2.1828961E0,1.7172787E1,5.354441E0,6.8805575E0,3.8579326E0,2.5908773E1,4.2035633E1,5.285791E0,3.875869E0,1.1848453E1,5.3243356E0,1.410988E0,3.943453E0,5.825252E0,1.0553055E0,1.9117701E0,1.9461625E0,1.1656615E0,2.474311E1,2.719767E1,1.4837964E1,4.0712657E0,1.2145253E0,1.6782297E0,2.1976395E0,5.5266743E0,6.321778E0,1.0715845E0,4.252751E0,1.5565563E0,2.3868966E0],"tree_param":{"num_deleted":"0","num_feature":"1434","num_nodes":"49","size_leaf_vector":"1"}},{"base_weights":[2.6995474E-3,-1.4718486E-1,3.3967778E-1,-2.3053883E-1,6.606603E-1,-4.4000912E-1,4.6523637E-1,-1.8610956E-2,-5.2555853E-1,1.0074118E0,-3.2403056E-2,-7.3552823E-1,2.171471E-2,2.4179971E-1,8.764594E-1,-8.552399E-1,1.562652E-1,-8.778141E-1,-3.1156737E-1,6.0360175E-2,-8.269817E-4,-5.5463943E-3,-5.1172722E-2,6.4619356E-1,-3.1974044E-2,5.8675595E-2,4.134925E-1,-5.704273E-2,9.515769E-3,3.895668E-2,9.75119E-1,-6.40658E-2,-1.6403916E-1,3.433831E-2,-4.3587452E-1,-1.830366E-1,1.0524982E0,4.4085956E-1,-7.795281E-1,-5.106355E-1,5.4950953E-2,-3.086794E-2,1.1588059E-2,4.046431E-3,6.1490048E-2,-4.368519E-2,1.6038485E-2,-2.6586443E-2,2.5589485E-2,-4.0939823E-2,2.9836988E-2,6.134237E-2,5.4393695E-3,-2.128295E-3,5.516336E-2,-6.505317E-2,4.2853653E-3,-5.1267326E-2,1.5440213E-2],"categories":[],"categories_nodes":[],"categories_segments":[],"categories_sizes":[],"default_left":[0,0,0,0,0,0,0,0,0,0,0,0,0,0,0,0,0,0,0,0,0,0,0,0,0,0,0,0,0,0,0,0,0,0,0,0,0,0,0,0,0,0,0,0,0,0,0,0,0,0,0,0,0,0,0,0,0,0,0],"id":18,"left_children":[1,3,5,7,9,11,13,15,17,19,-1,21,-1,23,25,27,29,31,33,-1,-1,-1,-1,35,37,-1,39,-1,-1,41,43,-1,45,-1,47,49,51,53,55,57,-1,-1,-1,-1,-1,-1,-1,-1,-1,-1,-1,-1,-1,-1,-1,-1,-1,-1,-1],"loss_changes":[6.3629227E0,6.02464E0,4.0012465E0,4.979092E0,4.471718E0,1.8420118E0,2.9018035E0,7.0791535E0,2.2381792E0,1.4610243E0,0E0,7.4529266E-1,0E0,2.6045392E0,1.1031294E0,2.7141852E0,3.814968E0,3.2580013E0,3.064102E0,0E0,0E0,0E0,0E0,3.3828983E0,5.59966E0,0E0,4.3991604E0,0E0,0E0,4.714478E0,1.0356255E0,0E0,2.171074E0,0E0,2.127345E0,2.4545996E0,9.3653727E-1,3.1682882E0,2.8742805E0,1.6928242E0,0E0,0E0,0E0,0E0,0E0,0E0,0E0,0E0,0E0,0E0,0E0,0E0,0E0,0E0,0E0,0E0,0E0,0E0,0E0],"parents":[2147483647,0,0,1,1,2,2,3,3,4,4,5,5,6,6,7,7,8,8,9,9,11,11,13,13,14,14,15,15,16,16,17,17,18,18,23,23,24,24,26,26,29,29,30,30,32,32,34,34,35,35,36,36,37,37,38,38,39,39],"right_children":[2,4,6,8,10,12,14,16,18,20,-1,22,-1,24,26,28,30,32,34,-1,-1,-1,-1,36,38,-1,40,-1,-1,42,44,-1,46,-1,48,50,52,54,56,58,-1,-1,-1,-1,-1,-1,-1,-1,-1,-1,-1,-1,-1,-1,-1,-1,-1,-1,-1],"split_conditions":[2.556107E-3,4.3298356E-2,5.0653536E-3,-1.223158E-3,4.600583E-2,1.1588042E-3,-4.4804177E-4,-8.1576535E-4,-1.1792483E-3,4.565299E-2,-3.2403056E-2,-4.911489E-5,2.171471E-2,1.5701398E-3,-1.1871149E-3,2.8417153E-2,3.4052275E-2,1.4740381E-3,-8.548271E-4,6.0360175E-2,-8.269817E-4,-5.5463943E-3,-5.1172722E-2,1.7121085E-3,-8.6707E-4,5.8675595E-2,-1.039052E-3,-5.704273E-2,9.515769E-3,3.9848767E-2,-3.831945E-4,-6.40658E-2,-2.8347084E-4,3.433831E-2,4.1829225E-2,4.320117E-3,4.1694164E-2,-9.2774566E-4,-2.3865237E-5,1.0735784E-3,5.4950953E-2,-3.086794E-2,1.1588059E-2,4.046431E-3,6.1490048E-2,-4.368519E-2,1.6038485E-2,-2.6586443E-2,2.5589485E-2,-4.0939823E-2,2.9836988E-2,6.134237E-2,5.4393695E-3,-2.128295E-3,5.516336E-2,-6.505317E-2,4.2853653E-3,-5.1267326E-2,1.5440213E-2],"split_indices":[755,1407,511,137,1323,167,1181,194,794,876,0,26,0,1235,500,1099,610,389,1106,0,0,0,0,1130,479,0,194,0,0,1059,68,0,953,0,36,398,849,101,1067,893,0,0,0,0,0,0,0,0,0,0,0,0,0,0,0,0,0,0,0],"split_type":[0,0,0,0,0,0,0,0,0,0,0,0,0,0,0,0,0,0,0,0,0,0,0,0,0,0,0,0,0,0,0,0,0,0,0,0,0,0,0,0,0,0,0,0,0,0,0,0,0,0,0,0,0,0,0,0,0,0,0],"sum_hessian":[1.2398918E2,8.6207985E1,3.7781193E1,7.879273E1,7.4152565E0,4.89293E0,3.2888264E1,4.6472336E1,3.2320393E1,6.044082E0,1.3711742E0,3.775513E0,1.1174169E0,2.233864E1,1.0549624E1,7.361841E0,3.9110493E1,1.1041927E1,2.1278467E1,4.9075613E0,1.1365209E0,1.6283615E0,2.1471515E0,8.46887E0,1.386977E1,5.491415E0,5.058209E0,5.7107005E0,1.6511408E0,3.5125946E1,3.9845486E0,6.546194E0,4.4957333E0,1.8550967E0,1.942337E1,2.965687E0,5.5031834E0,8.7473E0,5.12247E0,2.262863E0,2.795346E0,7.475842E0,2.7650105E1,1.175416E0,2.8091323E0,1.4991345E0,2.9965987E0,1.803779E1,1.3855798E0,1.6061423E0,1.3595446E0,4.391783E0,1.1114001E0,5.597779E0,3.1495214E0,2.881741E0,2.2407289E0,1.2355223E0,1.0273405E0],"tree_param":{"num_deleted":"0","num_feature":"1434","num_nodes":"59","size_leaf_vector":"1"}},{"base_weights":[3.076407E-3,-1.3547169E-1,3.437794E-1,-2.665038E-1,3.2701373E-1,4.2691487E-1,-3.7761733E-2,-1.2441606E-1,-8.113583E-1,5.0850505E-1,-4.45677E-1,2.1565264E-1,8.141317E-1,-2.4665388E-1,1.0043192E0,-6.1126348E-2,-4.9218848E-1,6.473364E-1,-3.0302072E-2,2.4826467E-2,-4.923777E-2,-1.4634082E-1,7.675454E-1,9.971442E-1,-6.1161597E-3,1.4952952E-1,-4.2396635E-1,6.406748E-2,9.89161E-3,4.2337596E-2,-8.3527315E-1,2.95918E-1,6.156482E-2,-7.8791606E-1,2.3830791E-1,9.644724E-1,-1.5615411E-2,1.1109233E0,8.124474E-3,-2.311325E-2,3.148271E-2,-5.5269804E-2,-1.3611713E-2,1.366768E-2,-5.540223E-2,-2.9795198E-2,3.4192443E-2,-5.854115E-2,-3.7539625E-3,-2.1524219E-2,3.90674E-2,6.051558E-2,3.2119283E-3,5.9624232E-2,1.24185635E-2],"categories":[],"categories_nodes":[],"categories_segments":[],"categories_sizes":[],"default_left":[0,0,0,0,0,0,0,0,0,0,0,0,0,0,0,0,0,0,0,0,0,0,0,0,0,0,0,0,0,0,0,0,0,0,0,0,0,0,0,0,0,0,0,0,0,0,0,0,0,0,0,0,0,0,0],"id":19,"left_children":[1,3,5,7,9,11,-1,13,15,17,19,21,23,25,27,-1,29,31,-1,-1,-1,33,35,37,-1,39,41,-1,-1,-1,43,45,-1,47,49,51,-1,53,-1,-1,-1,-1,-1,-1,-1,-1,-1,-1,-1,-1,-1,-1,-1,-1,-1],"loss_changes":[5.895659E0,5.468887E0,3.621192E0,5.299037E0,3.0390897E0,2.6224961E0,0E0,8.043999E0,1.2678785E0,2.9775438E0,2.6971693E0,4.8053174E0,2.1295133E0,3.7013292E0,1.0241532E0,0E0,5.16059E0,2.7837229E0,0E0,0E0,0E0,3.8958442E0,2.3139338E0,7.6041603E-1,0E0,5.211357E0,3.4250264E0,0E0,0E0,0E0,2.788764E0,4.176272E0,0E0,1.512722E0,4.02686E0,1.7479978E0,0E0,3.0518818E-1,0E0,0E0,0E0,0E0,0E0,0E0,0E0,0E0,0E0,0E0,0E0,0E0,0E0,0E0,0E0,0E0,0E0],"parents":[2147483647,0,0,1,1,2,2,3,3,4,4,5,5,7,7,8,8,9,9,10,10,11,11,12,12,13,13,14,14,16,16,17,17,21,21,22,22,23,23,25,25,26,26,30,30,31,31,33,33,34,34,35,35,37,37],"right_children":[2,4,6,8,10,12,-1,14,16,18,20,22,24,26,28,-1,30,32,-1,-1,-1,34,36,38,-1,40,42,-1,-1,-1,44,46,-1,48,50,52,-1,54,-1,-1,-1,-1,-1,-1,-1,-1,-1,-1,-1,-1,-1,-1,-1,-1,-1],"split_conditions":[3.52294E-3,4.294529E-2,4.7916867E-2,4.2530697E-2,2.447314E-4,7.6278724E-4,-3.7761733E-2,4.137365E-2,-5.876488E-4,4.638146E-2,-6.298972E-4,-1.0256865E-3,2.7451336E-3,-1.6129832E-3,-7.7654154E-4,-6.1126348E-2,-5.2239536E-4,-9.513343E-4,-3.0302072E-2,2.4826467E-2,-4.923777E-2,3.8350087E-2,1.3415798E-3,-7.4546307E-4,-6.1161597E-3,-1.5497736E-3,-5.8831135E-4,6.406748E-2,9.89161E-3,4.2337596E-2,-1.613422E-3,2.39092E-3,6.156482E-2,2.1514509E-2,1.6826877E-2,-9.332396E-4,-1.5615411E-2,3.775959E-2,8.124474E-3,-2.311325E-2,3.148271E-2,-5.5269804E-2,-1.3611713E-2,1.366768E-2,-5.540223E-2,-2.9795198E-2,3.4192443E-2,-5.854115E-2,-3.7539625E-3,-2.1524219E-2,3.90674E-2,6.051558E-2,3.2119283E-3,5.9624232E-2,1.24185635E-2],"split_indices":[1169,1422,1428,1056,1421,458,0,1092,938,1419,110,524,458,824,1199,0,950,1082,0,0,0,1095,410,68,0,404,1175,0,0,0,134,65,0,205,163,119,0,441,0,0,0,0,0,0,0,0,0,0,0,0,0,0,0,0,0],"split_type":[0,0,0,0,0,0,0,0,0,0,0,0,0,0,0,0,0,0,0,0,0,0,0,0,0,0,0,0,0,0,0,0,0,0,0,0,0,0,0,0,0,0,0,0,0,0,0,0,0,0,0,0,0,0,0],"sum_hessian":[1.2291148E2,8.780688E1,3.5104603E1,6.875177E1,1.9055105E1,3.3204388E1,1.9002148E0,5.5505367E1,1.3246403E1,1.5707579E1,3.3475273E0,2.2490625E1,1.0713764E1,5.0786823E1,4.7185454E0,4.551992E0,8.694411E0,1.4340477E1,1.3671013E0,1.2469774E0,2.10055E0,1.4025778E1,8.464847E0,8.908047E0,1.8057177E0,1.5750627E1,3.5036194E1,3.073862E0,1.6446837E0,1.4739686E0,7.2204423E0,9.893475E0,4.4470024E0,4.8641725E0,9.161606E0,7.249622E0,1.2152249E0,7.5481014E0,1.359945E0,6.94202E0,8.808607E0,5.236018E0,2.9800177E1,1.42533E0,5.795112E0,2.836494E0,7.0569806E0,2.7464223E0,2.11775E0,4.198332E0,4.9632735E0,5.4239807E0,1.8256413E0,6.5465627E0,1.0015384E0],"tree_param":{"num_deleted":"0","num_feature":"1434","num_nodes":"55","size_leaf_vector":"1"}},{"base_weights":[3.0233578E-3,-1.4181462E-1,3.0854878E-1,-2.1272482E-1,7.3921114E-1,-4.626727E-1,4.322525E-1,-1.611313E-1,-5.3940844E-2,5.464811E-2,-3.1153562E-3,1.3783197E-2,-8.2996637E-1,8.065264E-1,1.7818365E-1,-2.833442E-1,6.601418E-1,-5.313736E-2,-2.7146095E-3,6.1116602E-2,3.6458007E-1,-9.240627E-1,3.9250812E-1,-2.0164643E-1,-1.0227215E0,6.127077E-2,-1.9606404E-2,-3.4133088E-2,8.3612233E-1,-5.396381E-2,-1.2140235E-2,6.9464006E-2,5.2215762E-2,-4.1426674E-2,-4.4808537E-3,-6.092102E-2,-1.9917777E-3,-3.251693E-2,5.2229185E-2,5.407239E-2,8.22754E-3,-2.2835245E-2,3.6113705E-2],"categories":[],"categories_nodes":[],"categories_segments":[],"categories_sizes":[],"default_left":[0,0,0,0,0,0,0,0,0,0,0,0,0,0,0,0,0,0,0,0,0,0,0,0,0,0,0,0,0,0,0,0,0,0,0,0,0,0,0,0,0,0,0],"id":20,"left_children":[1,3,5,7,9,11,13,15,-1,-1,-1,-1,17,19,21,23,25,-1,-1,-1,27,29,31,33,35,-1,37,-1,39,-1,-1,41,-1,-1,-1,-1,-1,-1,-1,-1,-1,-1,-1],"loss_changes":[5.477933E0,5.404628E0,3.9978106E0,3.3345122E0,1.9054751E0,1.8520072E0,3.167615E0,7.7423816E0,0E0,0E0,0E0,0E0,7.090578E-1,2.0897207E0,5.5660243E0,3.7940521E0,3.8860207E0,0E0,0E0,0E0,4.5772524E0,1.4861059E-1,3.9580507E0,4.2013397E0,1.1716805E0,0E0,4.4030094E0,0E0,8.1777906E-1,0E0,0E0,5.0940638E0,0E0,0E0,0E0,0E0,0E0,0E0,0E0,0E0,0E0,0E0,0E0],"parents":[2147483647,0,0,1,1,2,2,3,3,4,4,5,5,6,6,7,7,12,12,13,13,14,14,15,15,16,16,20,20,21,21,22,22,23,23,24,24,26,26,28,28,31,31],"right_children":[2,4,6,8,10,12,14,16,-1,-1,-1,-1,18,20,22,24,26,-1,-1,-1,28,30,32,34,36,-1,38,-1,40,-1,-1,42,-1,-1,-1,-1,-1,-1,-1,-1,-1,-1,-1],"split_conditions":[1.7417748E-3,4.358922E-2,5.0653536E-3,4.3088637E-2,4.5162786E-2,4.321621E-2,2.9785244E-2,2.8257398E-2,-5.3940844E-2,5.464811E-2,-3.1153562E-3,1.3783197E-2,5.064031E-2,3.6497407E-2,2.0213919E-2,2.7127992E-2,3.5654586E-2,-5.313736E-2,-2.7146095E-3,6.1116602E-2,3.6405534E-2,3.990573E-2,7.6278724E-4,-1.5497736E-3,3.616372E-2,6.127077E-2,-1.3328738E-3,-3.4133088E-2,1.4629285E-2,-5.396381E-2,-1.2140235E-2,3.875434E-2,5.2215762E-2,-4.1426674E-2,-4.4808537E-3,-6.092102E-2,-1.9917777E-3,-3.251693E-2,5.2229185E-2,5.407239E-2,8.22754E-3,-2.2835245E-2,3.6113705E-2],"split_indices":[854,252,511,85,618,897,601,418,0,0,0,0,12,348,793,1069,412,0,0,0,681,855,458,404,406,0,329,0,847,0,0,1185,0,0,0,0,0,0,0,0,0,0,0],"split_type":[0,0,0,0,0,0,0,0,0,0,0,0,0,0,0,0,0,0,0,0,0,0,0,0,0,0,0,0,0,0,0,0,0,0,0,0,0,0,0,0,0,0,0],"sum_hessian":[1.21801575E2,8.29934E1,3.880818E1,7.751322E1,5.480177E0,4.985609E0,3.382257E1,7.427469E1,3.2385356E0,3.549837E0,1.9303396E0,1.7391095E0,3.2464993E0,1.2796844E1,2.1025726E1,6.5223785E1,9.0509E0,2.212447E0,1.0340525E0,5.683616E0,7.113228E0,2.8836958E0,1.814203E1,5.9880043E1,5.343744E0,4.503268E0,4.547632E0,2.0694635E0,5.0437646E0,1.8727746E0,1.0109211E0,1.2870042E1,5.27199E0,8.108926E0,5.1771114E1,4.256593E0,1.0871506E0,3.0994911E0,1.4481412E0,3.2472262E0,1.7965381E0,7.29258E0,5.577462E0],"tree_param":{"num_deleted":"0","num_feature":"1434","num_nodes":"43","size_leaf_vector":"1"}},{"base_weights":[3.0785429E-3,-1.18119E-1,3.4169635E-1,-2.4411254E-1,3.4544665E-1,4.2996687E-1,-3.620265E-2,-1.0301789E0,-1.6444267E-1,8.5627294E-1,9.042418E-2,2.0728412E-1,8.6290383E-1,-5.969367E-2,-1.9225638E-2,2.621185E-1,-3.6307633E-1,-6.9938735E-3,6.1509248E-2,-5.868269E-1,5.857161E-1,-1.2367404E-1,6.996983E-1,1.0947402E0,-1.154327E-2,-2.8060248E-1,6.8548405E-1,-4.9846014E-1,1.2446975E-1,2.1880332E-1,-5.3910553E-2,8.71773E-1,-2.1946557E-2,-6.607582E-1,3.1527275E-1,9.497819E-1,-4.696145E-3,5.852861E-2,1.3767469E-2,-4.4553515E-2,3.1807974E-2,-1.4397896E-2,5.2893337E-2,-1.4238265E-2,-5.0114404E-2,2.834141E-2,-4.9815904E-2,-2.8304098E-2,4.4404183E-2,5.6633722E-2,-2.2629132E-3,-6.1742105E-2,1.0098572E-2,-2.152363E-2,4.150555E-2,5.814609E-2,-3.47206E-3],"categories":[],"categories_nodes":[],"categories_segments":[],"categories_sizes":[],"default_left":[0,0,0,0,0,0,0,0,0,0,0,0,0,0,0,0,0,0,0,0,0,0,0,0,0,0,0,0,0,0,0,0,0,0,0,0,0,0,0,0,0,0,0,0,0,0,0,0,0,0,0,0,0,0,0,0,0],"id":21,"left_children":[1,3,5,7,9,11,-1,13,15,17,19,21,23,-1,-1,25,27,-1,-1,29,31,33,35,37,-1,39,41,43,45,47,-1,49,-1,51,53,55,-1,-1,-1,-1,-1,-1,-1,-1,-1,-1,-1,-1,-1,-1,-1,-1,-1,-1,-1,-1,-1],"loss_changes":[5.0425124E0,5.3702374E0,3.3577623E0,4.323826E0,2.4961202E0,2.7648258E0,0E0,2.1870518E-1,5.715664E0,2.5783453E0,5.138751E0,3.5869517E0,2.8023663E0,0E0,0E0,5.1682887E0,3.0770845E0,0E0,0E0,2.8240647E0,2.9494147E0,3.437E0,1.8325467E0,2.0400143E-1,0E0,6.2752767E0,4.8199544E0,3.5852365E0,5.883404E0,2.2405546E0,0E0,1.7692947E0,0E0,3.4598727E0,3.5106769E0,1.5512562E0,0E0,0E0,0E0,0E0,0E0,0E0,0E0,0E0,0E0,0E0,0E0,0E0,0E0,0E0,0E0,0E0,0E0,0E0,0E0,0E0,0E0],"parents":[2147483647,0,0,1,1,2,2,3,3,4,4,5,5,7,7,8,8,9,9,10,10,11,11,12,12,15,15,16,16,19,19,20,20,21,21,22,22,23,23,25,25,26,26,27,27,28,28,29,29,31,31,33,33,34,34,35,35],"right_children":[2,4,6,8,10,12,-1,14,16,18,20,22,24,-1,-1,26,28,-1,-1,30,32,34,36,38,-1,40,42,44,46,48,-1,50,-1,52,54,56,-1,-1,-1,-1,-1,-1,-1,-1,-1,-1,-1,-1,-1,-1,-1,-1,-1,-1,-1,-1,-1],"split_conditions":[2.9458732E-3,4.294529E-2,4.7916867E-2,-8.608204E-4,4.20957E-2,7.6278724E-4,-3.620265E-2,3.436907E-2,-1.442164E-3,4.0042657E-2,4.201542E-2,-1.0256865E-3,1.1727972E-3,-5.969367E-2,-1.9225638E-2,-1.5497736E-3,2.791507E-2,-6.9938735E-3,6.1509248E-2,3.9163392E-2,4.600583E-2,1.8153515E-2,-8.4988825E-4,3.7349783E-2,-1.154327E-2,2.890267E-3,2.429857E-2,2.5229385E-2,4.296399E-2,-3.7916575E-4,-5.3910553E-2,4.574564E-2,-2.1946557E-2,3.7369035E-2,3.8061395E-2,1.6330311E-2,-4.696145E-3,5.852861E-2,1.3767469E-2,-4.4553515E-2,3.1807974E-2,-1.4397896E-2,5.2893337E-2,-1.4238265E-2,-5.0114404E-2,2.834141E-2,-4.9815904E-2,-2.8304098E-2,4.4404183E-2,5.6633722E-2,-2.2629132E-3,-6.1742105E-2,1.0098572E-2,-2.152363E-2,4.150555E-2,5.814609E-2,-3.47206E-3],"split_indices":[755,1422,1428,1211,453,458,0,381,1064,84,183,524,605,0,0,404,418,0,0,396,1323,64,722,417,0,1100,841,151,337,110,0,873,0,66,819,31,0,0,0,0,0,0,0,0,0,0,0,0,0,0,0,0,0,0,0,0,0],"split_type":[0,0,0,0,0,0,0,0,0,0,0,0,0,0,0,0,0,0,0,0,0,0,0,0,0,0,0,0,0,0,0,0,0,0,0,0,0,0,0,0,0,0,0,0,0,0,0,0,0,0,0,0,0,0,0,0,0],"sum_hessian":[1.2088583E2,8.950244E1,3.1383398E1,7.0747284E1,1.875516E1,2.9533823E1,1.849575E0,5.4126387E0,6.533464E1,5.4602637E0,1.3294895E1,2.0479105E1,9.054718E0,3.6405902E0,1.7720484E0,2.065624E1,4.4678402E1,1.6610136E0,3.7992501E0,5.537809E0,7.757086E0,1.2695279E1,7.7838254E0,7.470398E0,1.5843202E0,9.199904E0,1.1456336E1,3.495075E1,9.727654E0,2.308203E0,3.229606E0,6.180763E0,1.5763233E0,5.4821424E0,7.2131367E0,5.76911E0,2.014715E0,6.445316E0,1.025082E0,5.5393195E0,3.660585E0,3.2326393E0,8.223697E0,2.5640657E1,9.310089E0,7.3291903E0,2.398464E0,1.1333189E0,1.1748842E0,4.6287103E0,1.5520526E0,3.0327487E0,2.4493937E0,3.012862E0,4.200275E0,4.654726E0,1.1143847E0],"tree_param":{"num_deleted":"0","num_feature":"1434","num_nodes":"57","size_leaf_vector":"1"}},{"base_weights":[2.621979E-3,1.3406177E-1,-2.9390466E-1,7.567767E-2,5.5128146E-2,-4.1925767E-1,7.254819E-1,2.3639785E-1,-2.8945193E-1,-1.4819947E-1,-7.103228E-1,5.3347327E-2,-1.0139703E-2,1.4334364E-1,1.003918E0,4.973661E-2,-1.026841E0,-3.423807E-1,7.0827156E-1,-9.273195E-1,2.225957E-2,2.3743527E-1,-8.5602415E-1,6.6068575E-2,-9.088933E-3,2.9144862E-1,-6.484041E-1,-1.1661363E0,-1.2784123E-2,-9.0016603E-1,-1.3034695E-1,-2.3849073E-3,5.0919563E-2,-1.1222004E0,2.0601055E-2,-3.906632E-2,5.2540876E-2,6.0814302E-3,3.968351E-2,4.7639685E-4,-5.4998714E-2,-3.0322565E-2,3.6741175E-2,1.3492274E-2,-4.8687723E-2,-1.7639412E-2,-6.319504E-2,-5.3307693E-2,-9.989514E-3,-1.3949975E-2,3.8519952E-2,-6.556672E-2,-1.8569613E-2],"categories":[],"categories_nodes":[],"categories_segments":[],"categories_sizes":[],"default_left":[0,0,0,0,0,0,0,0,0,0,0,0,0,0,0,0,0,0,0,0,0,0,0,0,0,0,0,0,0,0,0,0,0,0,0,0,0,0,0,0,0,0,0,0,0,0,0,0,0,0,0,0,0],"id":22,"left_children":[1,3,5,7,-1,9,11,13,15,17,19,-1,-1,21,23,25,27,29,31,33,35,37,39,-1,-1,41,43,45,-1,47,49,-1,-1,51,-1,-1,-1,-1,-1,-1,-1,-1,-1,-1,-1,-1,-1,-1,-1,-1,-1,-1,-1],"loss_changes":[4.741276E0,4.681778E0,5.078661E0,4.795705E0,0E0,2.569788E0,1.6293557E0,3.8902986E0,6.3215218E0,3.3724957E0,2.5778189E0,0E0,0E0,5.050014E0,2.47647E0,3.2476285E0,5.552721E-1,1.776864E0,9.4043994E-1,3.7076826E0,4.6665173E0,2.9884157E0,9.928529E-1,0E0,0E0,6.080365E0,1.7480481E0,6.687832E-2,0E0,2.8014278E-1,1.9253516E0,0E0,0E0,1.092454E0,0E0,0E0,0E0,0E0,0E0,0E0,0E0,0E0,0E0,0E0,0E0,0E0,0E0,0E0,0E0,0E0,0E0,0E0,0E0],"parents":[2147483647,0,0,1,1,2,2,3,3,5,5,6,6,7,7,8,8,9,9,10,10,13,13,14,14,15,15,16,16,17,17,18,18,19,19,20,20,21,21,22,22,25,25,26,26,27,27,29,29,30,30,33,33],"right_children":[2,4,6,8,-1,10,12,14,16,18,20,-1,-1,22,24,26,28,30,32,34,36,38,40,-1,-1,42,44,46,-1,48,50,-1,-1,52,-1,-1,-1,-1,-1,-1,-1,-1,-1,-1,-1,-1,-1,-1,-1,-1,-1,-1,-1],"split_conditions":[-6.227043E-4,-2.8284843E-4,4.5857027E-2,4.847224E-4,5.5128146E-2,8.089723E-4,4.474758E-2,2.6070015E-4,-6.9453684E-4,8.888576E-6,7.3337345E-3,5.3347327E-2,-1.0139703E-2,-4.551623E-5,-7.9884415E-4,-5.7221326E-4,2.1815738E-2,-1.4758183E-4,1.6018683E-4,4.4798244E-2,-2.0609845E-3,4.262601E-2,-1.209383E-4,6.6068575E-2,-9.088933E-3,-3.5086102E-4,-1.4160041E-3,1.8537942E-2,-1.2784123E-2,4.35359E-2,3.7802858E-3,-2.3849073E-3,5.0919563E-2,4.470449E-2,2.0601055E-2,-3.906632E-2,5.2540876E-2,6.0814302E-3,3.968351E-2,4.7639685E-4,-5.4998714E-2,-3.0322565E-2,3.6741175E-2,1.3492274E-2,-4.8687723E-2,-1.7639412E-2,-6.319504E-2,-5.3307693E-2,-9.989514E-3,-1.3949975E-2,3.8519952E-2,-6.556672E-2,-1.8569613E-2],"split_indices":[656,227,213,131,0,650,834,188,1331,296,704,0,0,266,20,494,754,506,188,1431,836,804,557,0,0,119,59,1432,0,864,22,0,0,910,0,0,0,0,0,0,0,0,0,0,0,0,0,0,0,0,0,0,0],"split_type":[0,0,0,0,0,0,0,0,0,0,0,0,0,0,0,0,0,0,0,0,0,0,0,0,0,0,0,0,0,0,0,0,0,0,0,0,0,0,0,0,0,0,0,0,0,0,0,0,0,0,0,0,0],"sum_hessian":[1.1963697E2,8.327292E1,3.636405E1,7.955524E1,3.7176847E0,3.2906307E1,3.4577417E0,5.5484863E1,2.4070372E1,1.7820189E1,1.5086121E1,2.418658E0,1.0390837E0,5.0543705E1,4.94116E0,1.7125454E1,6.944916E0,1.5015972E1,2.8042161E0,1.143358E1,3.6525404E0,4.6891254E1,3.6524506E0,3.807366E0,1.1337943E0,1.3153837E1,3.9716182E0,5.4485507E0,1.4963651E0,3.2420094E0,1.1773963E1,1.0618849E0,1.7423311E0,1.0122788E1,1.3107922E0,2.185462E0,1.4670782E0,3.9819584E1,7.0716696E0,1.0143633E0,2.6380873E0,4.226579E0,8.927258E0,1.0836862E0,2.8879318E0,1.0791512E0,4.3693995E0,2.198669E0,1.0433404E0,1.0698601E1,1.0753618E0,7.4895515E0,2.633237E0],"tree_param":{"num_deleted":"0","num_feature":"1434","num_nodes":"53","size_leaf_vector":"1"}},{"base_weights":[2.3251546E-3,-1.2953864E-1,2.819808E-1,-1.9466048E-1,6.949823E-1,-4.5958623E-1,4.0258402E-1,-7.997839E-1,-1.174694E-1,5.2298535E-2,-3.8339056E-3,1.2300379E-2,-8.07711E-1,7.6378673E-1,1.5887234E-1,-1.0288452E0,1.8233363E-2,-4.942928E-2,-5.7634063E-2,-5.138134E-2,-3.07967E-3,5.912785E-2,3.266464E-1,-8.8973004E-1,3.645376E-1,-5.9021402E-2,-4.627391E-1,-1.7604099E-1,4.327415E-1,-3.3875678E-2,7.9348934E-1,-1.3084571E-2,-5.117566E-2,6.1450742E-2,4.9642656E-2,-3.990004E-2,4.581497E-3,-2.9283628E-2,4.3072854E-3,3.426159E-2,-4.3437865E-2,4.814714E-2,2.0025278E-4,-2.1226007E-2,3.373694E-2],"categories":[],"categories_nodes":[],"categories_segments":[],"categories_sizes":[],"default_left":[0,0,0,0,0,0,0,0,0,0,0,0,0,0,0,0,0,0,0,0,0,0,0,0,0,0,0,0,0,0,0,0,0,0,0,0,0,0,0,0,0,0,0,0,0],"id":23,"left_children":[1,3,5,7,9,11,13,15,17,-1,-1,-1,19,21,23,25,-1,-1,27,-1,-1,-1,29,31,33,-1,35,37,39,-1,41,-1,-1,43,-1,-1,-1,-1,-1,-1,-1,-1,-1,-1,-1],"loss_changes":[4.454508E0,4.5436354E0,3.646533E0,3.4967637E0,1.7671785E0,1.6432785E0,2.8560762E0,2.64893E0,3.557675E0,0E0,0E0,0E0,6.2117887E-1,2.060192E0,4.9521785E0,8.748627E-2,0E0,0E0,3.9056358E0,0E0,0E0,0E0,4.250529E0,5.2216053E-2,3.4905007E0,0E0,6.687115E-1,5.8324027E0,4.9056854E0,0E0,7.810724E-1,0E0,0E0,4.3537326E0,0E0,0E0,0E0,0E0,0E0,0E0,0E0,0E0,0E0,0E0,0E0],"parents":[2147483647,0,0,1,1,2,2,3,3,4,4,5,5,6,6,7,7,8,8,12,12,13,13,14,14,15,15,18,18,22,22,23,23,24,24,26,26,27,27,28,28,30,30,33,33],"right_children":[2,4,6,8,10,12,14,16,18,-1,-1,-1,20,22,24,26,-1,-1,28,-1,-1,-1,30,32,34,-1,36,38,40,-1,42,-1,-1,44,-1,-1,-1,-1,-1,-1,-1,-1,-1,-1,-1],"split_conditions":[1.7417748E-3,4.3856848E-2,5.0653536E-3,-6.56935E-5,4.5070443E-2,4.321621E-2,2.9785244E-2,2.244242E-3,-1.191217E-3,5.2298535E-2,-3.8339056E-3,1.2300379E-2,5.064031E-2,3.6497407E-2,2.0213919E-2,2.9646525E-2,1.8233363E-2,-4.942928E-2,3.341208E-2,-5.138134E-2,-3.07967E-3,5.912785E-2,3.6405534E-2,-1.752164E-3,7.6278724E-4,-5.9021402E-2,-7.415584E-4,4.0035244E-2,4.253153E-2,-3.3875678E-2,-6.335899E-4,-1.3084571E-2,-5.117566E-2,3.875434E-2,4.9642656E-2,-3.990004E-2,4.581497E-3,-2.9283628E-2,4.3072854E-3,3.426159E-2,-4.3437865E-2,4.814714E-2,2.0025278E-4,-2.1226007E-2,3.373694E-2],"split_indices":[854,45,511,563,183,897,601,1181,944,0,0,0,12,348,793,1057,0,0,517,0,0,0,681,20,458,0,563,894,202,0,125,0,0,1185,0,0,0,0,0,0,0,0,0,0,0],"split_type":[0,0,0,0,0,0,0,0,0,0,0,0,0,0,0,0,0,0,0,0,0,0,0,0,0,0,0,0,0,0,0,0,0,0,0,0,0,0,0,0,0,0,0,0,0],"sum_hessian":[1.188049E2,8.110086E1,3.770405E1,7.587227E1,5.2285895E0,4.880992E0,3.2823055E1,7.524492E0,6.834778E1,3.349565E0,1.8790245E0,1.7094805E0,3.1715114E0,1.2364206E1,2.0458849E1,6.384951E0,1.1395406E0,3.3953028E0,6.495248E1,2.1581154E0,1.013396E0,5.4438825E0,6.920324E0,2.8092961E0,1.7649551E1,4.1804156E0,2.2045355E0,5.2835686E1,1.2116789E1,2.053044E0,4.8672795E0,1.0124559E0,1.7968402E0,1.2646794E1,5.002758E0,1.0998886E0,1.104647E0,2.0138374E1,3.269731E1,1.0544638E1,1.5721507E0,3.826299E0,1.0409807E0,7.2275014E0,5.4192924E0],"tree_param":{"num_deleted":"0","num_feature":"1434","num_nodes":"45","size_leaf_vector":"1"}},{"base_weights":[1.5656461E-3,-1.251995E-1,2.7219146E-1,-1.8809268E-1,6.777529E-1,-4.4704896E-1,3.8984436E-1,-6.827218E-1,-1.0702459E-1,5.1337153E-2,-3.7474507E-3,1.1920954E-2,-7.879791E-1,5.130182E-2,2.5060096E-1,-9.855725E-1,9.556195E-2,8.350698E-2,-4.3686086E-1,-5.026972E-2,-2.930741E-3,-8.626835E-1,3.8822675E-1,-4.759053E-3,-6.0930707E-2,-4.1992225E-2,3.8929306E-2,5.635045E-2,-4.674129E-2,-5.841117E-2,-2.7094686E-1,-1.0612895E-2,-5.2848946E-2,1.511637E-1,9.4737667E-1,-4.333337E-2,5.79053E-3,-1.9944284E-2,2.9449737E-2,1.65994E-2,-4.6820667E-2,5.4354906E-2,1.7540371E-2],"categories":[],"categories_nodes":[],"categories_segments":[],"categories_sizes":[],"default_left":[0,0,0,0,0,0,0,0,0,0,0,0,0,0,0,0,0,0,0,0,0,0,0,0,0,0,0,0,0,0,0,0,0,0,0,0,0,0,0,0,0,0,0],"id":24,"left_children":[1,3,5,7,9,11,13,15,17,-1,-1,-1,19,-1,21,23,25,27,29,-1,-1,31,33,-1,-1,-1,-1,-1,35,-1,37,-1,-1,39,41,-1,-1,-1,-1,-1,-1,-1,-1],"loss_changes":[4.111462E0,4.249564E0,3.409211E0,2.9936252E0,1.6914995E0,1.5526838E0,2.7006106E0,2.5887833E0,4.240453E0,0E0,0E0,0E0,5.963855E-1,0E0,4.7347097E0,1.4832602E0,3.130496E0,5.929769E0,2.675068E0,0E0,0E0,2.1413302E-1,3.335855E0,0E0,0E0,0E0,0E0,0E0,5.3520164E0,0E0,2.5890617E0,0E0,0E0,4.169693E0,2.5418472E-1,0E0,0E0,0E0,0E0,0E0,0E0,0E0,0E0],"parents":[2147483647,0,0,1,1,2,2,3,3,4,4,5,5,6,6,7,7,8,8,12,12,14,14,15,15,16,16,17,17,18,18,21,21,22,22,28,28,30,30,33,33,34,34],"right_children":[2,4,6,8,10,12,14,16,18,-1,-1,-1,20,-1,22,24,26,28,30,-1,-1,32,34,-1,-1,-1,-1,-1,36,-1,38,-1,-1,40,42,-1,-1,-1,-1,-1,-1,-1,-1],"split_conditions":[1.7417748E-3,4.358922E-2,5.0653536E-3,-3.1102533E-4,4.5162786E-2,4.321621E-2,1.725643E-2,2.8054372E-5,-4.3137066E-4,5.1337153E-2,-3.7474507E-3,1.1920954E-2,4.893107E-2,5.130182E-2,1.6651042E-2,-2.8955715E-4,-2.4352803E-4,-1.262839E-3,-6.6997565E-4,-5.026972E-2,-2.930741E-3,-1.752164E-3,7.6278724E-4,-4.759053E-3,-6.0930707E-2,-4.1992225E-2,3.8929306E-2,5.635045E-2,-1.5497736E-3,-5.841117E-2,7.310348E-3,-1.0612895E-2,-5.2848946E-2,6.181157E-4,-3.0973527E-4,-4.333337E-2,5.79053E-3,-1.9944284E-2,2.9449737E-2,1.65994E-2,-4.6820667E-2,5.4354906E-2,1.7540371E-2],"split_indices":[854,252,511,611,618,897,991,1067,656,0,0,0,1089,0,793,44,575,1253,377,0,0,20,458,0,0,0,0,0,404,0,704,0,0,458,272,0,0,0,0,0,0,0,0],"split_type":[0,0,0,0,0,0,0,0,0,0,0,0,0,0,0,0,0,0,0,0,0,0,0,0,0,0,0,0,0,0,0,0,0,0,0,0,0,0,0,0,0,0,0],"sum_hessian":[1.17853645E2,8.0625046E1,3.7228596E1,7.5478745E1,5.146305E0,4.84011E0,3.2388485E1,9.583621E0,6.589513E1,3.267331E0,1.8789742E0,1.7075737E0,3.1325364E0,4.6723294E0,2.7716156E1,6.7072945E0,2.8763263E0,4.2241142E1,2.3653982E1,2.1216452E0,1.0108911E0,2.4697216E0,2.5246435E1,1.6835016E0,5.023793E0,1.1169958E0,1.7593306E0,3.838188E0,3.8402954E1,3.2567632E0,2.0397219E1,1.0493515E0,1.4203701E0,1.8621721E1,6.6247144E0,5.6371307E0,3.2765823E1,1.822232E1,2.1748986E0,1.6562695E1,2.0590255E0,4.701366E0,1.9233483E0],"tree_param":{"num_deleted":"0","num_feature":"1434","num_nodes":"43","size_leaf_vector":"1"}},{"base_weights":[9.659492E-4,3.892236E-2,-8.605975E-1,-3.5927642E-2,5.695354E-1,-5.2023972E-3,-5.119386E-2,3.5704277E-2,-9.811551E-1,8.8658535E-1,-7.581237E-1,-8.164628E-2,2.9658952E-1,9.2991E-3,-6.1193693E-2,1.0652026E0,-8.48206E-3,-9.614131E-3,-4.7289338E-2,-8.0850303E-1,1.0379834E-2,-4.3948555E-1,4.573189E-1,4.9314767E-1,6.6870235E-2,-5.5068176E-2,-1.9093605E-2,-4.40737E-3,4.696266E-2,-3.54574E-2,2.0311264E-2,1.2787749E-2,5.195212E-2,4.652326E-2,-1.6346378E-2],"categories":[],"categories_nodes":[],"categories_segments":[],"categories_sizes":[],"default_left":[0,0,0,0,0,0,0,0,0,0,0,0,0,0,0,0,0,0,0,0,0,0,0,0,0,0,0,0,0,0,0,0,0,0,0],"id":25,"left_children":[1,3,5,7,9,-1,-1,11,13,15,17,19,21,-1,-1,23,-1,-1,-1,25,27,29,31,33,-1,-1,-1,-1,-1,-1,-1,-1,-1,-1,-1],"loss_changes":[3.891208E0,4.5459504E0,5.1370835E-1,6.8600025E0,6.6265664E0,0E0,0E0,2.9223425E0,2.2491064E0,2.4219522E0,1.6494155E-1,4.4283094E0,3.7012665E0,0E0,0E0,9.441366E-1,0E0,0E0,0E0,5.0880814E-1,5.540924E0,1.6136454E0,2.6390605E0,2.0631557E0,0E0,0E0,0E0,0E0,0E0,0E0,0E0,0E0,0E0,0E0,0E0],"parents":[2147483647,0,0,1,1,2,2,3,3,4,4,7,7,8,8,9,9,10,10,11,11,12,12,15,15,19,19,20,20,21,21,22,22,23,23],"right_children":[2,4,6,8,10,-1,-1,12,14,16,18,20,22,-1,-1,24,-1,-1,-1,26,28,30,32,34,-1,-1,-1,-1,-1,-1,-1,-1,-1,-1,-1],"split_conditions":[4.3088637E-2,2.8097618E-2,8.9364E-5,3.4807708E-2,3.1938512E-2,-5.2023972E-3,-5.119386E-2,1.3248789E-3,-2.5744748E-3,4.18352E-2,-8.914592E-4,-7.4684294E-4,5.0653536E-3,9.2991E-3,-6.1193693E-2,-6.901232E-4,-8.48206E-3,-9.614131E-3,-4.7289338E-2,1.6339732E-3,3.3542715E-2,4.8116646E-3,-9.123814E-4,-2.8227067E-3,6.6870235E-2,-5.5068176E-2,-1.9093605E-2,-4.40737E-3,4.696266E-2,-3.54574E-2,2.0311264E-2,1.2787749E-2,5.195212E-2,4.652326E-2,-1.6346378E-2],"split_indices":[85,382,113,1303,450,0,0,1340,11,865,146,308,511,0,0,83,0,0,0,1058,1096,32,593,164,0,0,0,0,0,0,0,0,0,0,0],"split_type":[0,0,0,0,0,0,0,0,0,0,0,0,0,0,0,0,0,0,0,0,0,0,0,0,0,0,0,0,0,0,0,0,0,0,0],"sum_hessian":[1.1696614E2,1.1294514E2,4.0210047E0,9.979939E1,1.3145738E1,1.0043991E0,3.0166056E0,9.366354E1,6.1358523E0,1.0879816E1,2.2659218E0,6.507759E1,2.8585953E1,1.0965828E0,5.03927E0,9.298807E0,1.5810088E0,1.0685748E0,1.197347E0,6.43848E0,5.863911E1,4.812472E0,2.377348E1,3.9046218E0,5.394185E0,2.8799815E0,3.5584986E0,5.3833954E1,4.805159E0,3.7714036E0,1.0410686E0,1.8725018E1,5.048463E0,2.458813E0,1.4458089E0],"tree_param":{"num_deleted":"0","num_feature":"1434","num_nodes":"35","size_leaf_vector":"1"}},{"base_weights":[4.195961E-4,3.7162706E-2,-8.41658E-1,-3.464591E-2,5.489658E-1,-5.073735E-3,-5.021782E-2,3.4243494E-2,-9.56417E-1,8.5935247E-1,-7.401097E-1,-8.781701E-2,2.6918867E-1,9.058953E-3,-5.9887346E-2,1.0346355E0,-8.223591E-3,-4.6335243E-2,-9.191548E-3,-3.42135E-1,1.9951223E-1,-4.538889E-1,4.1604668E-1,4.7714913E-1,6.513261E-2,-6.93094E-3,-6.362373E-2,5.8280315E-2,3.8509977E-3,1.2070441E-2,-3.934553E-2,9.88693E-3,5.0751526E-2,4.521102E-2,-1.585689E-2],"categories":[],"categories_nodes":[],"categories_segments":[],"categories_sizes":[],"default_left":[0,0,0,0,0,0,0,0,0,0,0,0,0,0,0,0,0,0,0,0,0,0,0,0,0,0,0,0,0,0,0,0,0,0,0],"id":26,"left_children":[1,3,5,7,9,-1,-1,11,13,15,17,19,21,-1,-1,23,-1,-1,-1,25,27,29,31,33,-1,-1,-1,-1,-1,-1,-1,-1,-1,-1,-1],"loss_changes":[3.6605976E0,4.1849627E0,4.93778E-1,6.4047914E0,6.2401977E0,0E0,0E0,2.7289083E0,2.1422057E0,2.279029E0,1.67544E-1,4.6598186E0,3.6398864E0,0E0,0E0,8.980875E-1,0E0,0E0,0E0,6.2044806E0,3.4763126E0,1.5710522E0,3.399764E0,1.9421772E0,0E0,0E0,0E0,0E0,0E0,0E0,0E0,0E0,0E0,0E0,0E0],"parents":[2147483647,0,0,1,1,2,2,3,3,4,4,7,7,8,8,9,9,10,10,11,11,12,12,15,15,19,19,20,20,21,21,22,22,23,23],"right_children":[2,4,6,8,10,-1,-1,12,14,16,18,20,22,-1,-1,24,-1,-1,-1,26,28,30,32,34,-1,-1,-1,-1,-1,-1,-1,-1,-1,-1,-1],"split_conditions":[4.3088637E-2,2.8097618E-2,8.9364E-5,3.4807708E-2,3.1938512E-2,-5.073735E-3,-5.021782E-2,1.024063E-3,-2.5744748E-3,4.18352E-2,3.4470245E-2,4.4939414E-5,5.0653536E-3,9.058953E-3,-5.9887346E-2,-6.901232E-4,-8.223591E-3,-4.6335243E-2,-9.191548E-3,1.22615E-5,6.5907446E-4,4.321621E-2,-9.123814E-4,-2.8227067E-3,6.513261E-2,-6.93094E-3,-6.362373E-2,5.8280315E-2,3.8509977E-3,1.2070441E-2,-3.934553E-2,9.88693E-3,5.0751526E-2,4.521102E-2,-1.585689E-2],"split_indices":[85,382,113,1303,450,0,0,902,11,865,0,242,511,0,0,83,0,0,0,266,608,897,593,164,0,0,0,0,0,0,0,0,0,0,0],"split_type":[0,0,0,0,0,0,0,0,0,0,0,0,0,0,0,0,0,0,0,0,0,0,0,0,0,0,0,0,0,0,0,0,0,0,0],"sum_hessian":[1.1629976E2,1.1235322E2,3.946539E0,9.934667E1,1.3006544E1,1.0037514E0,2.9427876E0,9.3334114E1,6.0125594E0,1.0751203E1,2.255342E0,6.183523E1,3.1498884E1,1.095897E0,4.9166627E0,9.170597E0,1.580605E0,1.1902056E0,1.0651363E0,3.2700737E1,2.9134493E1,4.9645433E0,2.6534342E1,3.880105E0,5.290492E0,2.7774033E1,4.926704E0,2.3201067E0,2.6814386E1,1.6968592E0,3.267684E0,2.0421545E1,6.1127963E0,2.433343E0,1.4467622E0],"tree_param":{"num_deleted":"0","num_feature":"1434","num_nodes":"35","size_leaf_vector":"1"}},{"base_weights":[-5.015345E-5,3.0345934E-2,-4.8561923E-2,-8.509913E-2,2.760148E-1,-1.4687638E-1,6.4683974E-1,-4.0528816E-1,3.892478E-1,-2.3658398E-1,4.112911E-1,5.440516E-2,-2.9762074E-2,1.1699188E-2,-7.32711E-1,2.0055526E-1,1.0034775E0,-8.450376E-1,-1.3831227E-1,9.419624E-1,-2.6194412E-1,-4.7645625E-2,-1.8060299E-3,5.617995E-1,-2.275077E-1,5.6000512E-2,1.8570686E-2,-5.577449E-2,-1.4076936E-2,-3.1437618E-3,-4.645401E-2,5.6262422E-2,4.2517236E-3,-3.706063E-2,3.2280788E-2,3.7866354E-2,-1.2504363E-2,-3.5148866E-2,2.5729865E-3],"categories":[],"categories_nodes":[],"categories_segments":[],"categories_sizes":[],