{"learner":{"attributes":{"scikit_learn":"{\"_estimator_type\": \"classifier\"}"},"feature_names":[],"feature_types":[],"gradient_booster":{"model":{"gbtree_model_param":{"num_parallel_tree":"1","num_trees":"100"},"iteration_indptr":[0,1,2,3,4,5,6,7,8,9,10,11,12,13,14,15,16,17,18,19,20,21,22,23,24,25,26,27,28,29,30,31,32,33,34,35,36,37,38,39,40,41,42,43,44,45,46,47,48,49,50,51,52,53,54,55,56,57,58,59,60,61,62,63,64,65,66,67,68,69,70,71,72,73,74,75,76,77,78,79,80,81,82,83,84,85,86,87,88,89,90,91,92,93,94,95,96,97,98,99,100],"tree_info":[0,0,0,0,0,0,0,0,0,0,0,0,0,0,0,0,0,0,0,0,0,0,0,0,0,0,0,0,0,0,0,0,0,0,0,0,0,0,0,0,0,0,0,0,0,0,0,0,0,0,0,0,0,0,0,0,0,0,0,0,0,0,0,0,0,0,0,0,0,0,0,0,0,0,0,0,0,0,0,0,0,0,0,0,0,0,0,0,0,0,0,0,0,0,0,0,0,0,0,0],"trees":[{"base_weights":[5.724693E-8,-1.1265837E0,1.3519022E-1,-1.3266398E0,2.021755E-2,-3.0380687E-2,1.0325286E0,-1.4933753E0,2.1739474E-4,-3.296272E-1,5.9697354E-1,-3.9782923E-2,1.2290813E0,-8.860415E-3,-8.5039884E-2,-1.3081121E-1,-1.0408455E0,-4.1787916E-1,8.797213E-1,1.5321976E0,-1.1210679E-1,6.0266282E-2,-2.1913189E-1,-1.2733486E0,-1.1210679E-1,-1.1521858E0,4.5008513E-1,1.1776394E0,6.340703E-3,8.756658E-2,5.054398E-1,3.3575173E-2,-5.5354666E-2,1.1063807E-2,-3.2394275E-2,-7.586356E-2,2.4154992E-4,-5.978308E-2,4.5685496E-2,-1.0909901E-2,-7.117044E-2,-1.6425263E-2,6.021787E-2,-3.3132285E-2,6.657809E-2,-3.606758E-2,5.7402194E-2,-3.3132285E-2,6.3867465E-2],"categories":[],"categories_nodes":[],"categories_segments":[],"categories_sizes":[],"default_left":[0,0,0,0,0,0,0,0,0,0,0,0,0,0,0,0,0,0,0,0,0,0,0,0,0,0,0,0,0,0,0,0,0,0,0,0,0,0,0,0,0,0,0,0,0,0,0,0,0],"id":0,"left_children":[1,3,5,7,-1,9,11,13,-1,15,17,-1,19,-1,-1,21,23,25,27,29,31,-1,33,35,37,39,41,43,45,-1,47,-1,-1,-1,-1,-1,-1,-1,-1,-1,-1,-1,-1,-1,-1,-1,-1,-1,-1],"loss_changes":[2.1322151E1,5.1304626E0,1.8602774E1,3.0024185E0,0E0,2.0190144E1,7.984871E0,2.974596E0,0E0,1.0150676E1,1.033891E1,0E0,7.4893246E0,0E0,0E0,7.1085296E0,3.2581768E0,5.776675E0,7.147827E0,2.4334793E0,4.0570307E0,0E0,1.0575893E1,3.9044952E0,5.816437E0,8.926673E-1,3.0383215E0,6.6891384E0,7.4745355E0,0E0,4.453019E0,0E0,0E0,0E0,0E0,0E0,0E0,0E0,0E0,0E0,0E0,0E0,0E0,0E0,0E0,0E0,0E0,0E0,0E0],"parents":[2147483647,0,0,1,1,2,2,3,3,5,5,6,6,7,7,9,9,10,10,12,12,15,15,16,16,17,17,18,18,19,19,20,20,22,22,23,23,24,24,25,25,26,26,27,27,28,28,30,30],"right_children":[2,4,6,8,-1,10,12,14,-1,16,18,-1,20,-1,-1,22,24,26,28,30,32,-1,34,36,38,40,42,44,46,-1,48,-1,-1,-1,-1,-1,-1,-1,-1,-1,-1,-1,-1,-1,-1,-1,-1,-1,-1],"split_conditions":[-2.9968176E-2,2.1614354E-2,3.2192245E-3,4.109109E-2,2.021755E-2,7.227563E-4,-3.3481658E-2,-5.9677072E-2,2.1739474E-4,1.0180095E-1,-3.441301E-2,-3.9782923E-2,3.3622044E-1,-8.860415E-3,-8.5039884E-2,-1.46636E-3,6.471794E-1,3.899939E-3,1.1837851E-2,2.902154E-2,2.0434582E-1,6.0266282E-2,-3.4602676E-4,4.518082E-1,-4.5342356E-4,-2.1737248E-2,5.4394716E-4,-6.572186E-2,-4.3946253E-3,8.756658E-2,3.411409E-2,3.3575173E-2,-5.5354666E-2,1.1063807E-2,-3.2394275E-2,-7.586356E-2,2.4154992E-4,-5.978308E-2,4.5685496E-2,-1.0909901E-2,-7.117044E-2,-1.6425263E-2,6.021787E-2,-3.3132285E-2,6.657809E-2,-3.606758E-2,5.7402194E-2,-3.3132285E-2,6.3867465E-2],"split_indices":[1434,646,173,63,0,1076,1438,1438,0,1440,1444,0,1436,0,0,689,1444,796,1438,310,1444,0,1193,1436,137,1,17,1440,212,0,64,0,0,0,0,0,0,0,0,0,0,0,0,0,0,0,0,0,0],"split_type":[0,0,0,0,0,0,0,0,0,0,0,0,0,0,0,0,0,0,0,0,0,0,0,0,0,0,0,0,0,0,0,0,0,0,0,0,0,0,0,0,0,0,0,0,0,0,0,0,0],"sum_hessian":[1.379982E2,1.3999817E1,1.2399838E2,1.2499837E1,1.4999804E0,1.0549862E2,1.8499758E1,1.0999856E1,1.4999804E0,7.174906E1,3.374956E1,1.4999804E0,1.6999779E1,1.7499771E0,9.249879E0,5.6999256E1,1.4749807E1,7.2499056E0,2.6499655E1,1.3749821E1,3.2499576E0,2.749964E0,5.424929E1,1.149985E1,3.2499576E0,3.7499511E0,3.4999542E0,1.9499746E1,6.9999084E0,1.074986E1,2.999961E0,1.9999739E0,1.2499837E0,2.6999647E1,2.7249645E1,9.499876E0,1.9999739E0,1.4999804E0,1.7499771E0,1.2499837E0,2.4999673E0,1.9999739E0,1.4999804E0,1.2499837E0,1.8249762E1,4.4999413E0,2.4999673E0,1.2499837E0,1.7499771E0],"tree_param":{"num_deleted":"0","num_feature":"1446","num_nodes":"49","size_leaf_vector":"1"}},{"base_weights":[-3.71108E-4,-1.0766045E0,1.2869003E-1,-1.2691374E0,1.9611368E-2,-2.9560577E-2,9.868659E-1,-1.4289197E0,2.1087324E-4,-3.4150648E-1,4.9255446E-1,1.3032953E0,-1.9082443E-1,-8.578782E-3,-8.136078E-2,-4.16352E-1,5.7006665E-2,1.6718562E-1,1.1811923E0,-3.2037046E-2,1.5189722E0,-8.418473E-1,3.9828088E-2,6.4114384E-2,-4.8391092E-1,6.932081E-1,-2.720637E-1,1.3549497E0,-1.1587829E-2,1.0651308E-2,8.1410065E-2,-1.05529735E-2,-5.490895E-2,-2.8506536E-2,4.2094864E-2,-4.4449368E-3,6.0882736E-2,-4.5655027E-2,4.8749726E-2,6.7313766E-4,8.179876E-2],"categories":[],"categories_nodes":[],"categories_segments":[],"categories_sizes":[],"default_left":[0,0,0,0,0,0,0,0,0,0,0,0,0,0,0,0,0,0,0,0,0,0,0,0,0,0,0,0,0,0,0,0,0,0,0,0,0,0,0,0,0],"id":1,"left_children":[1,3,5,7,-1,9,11,13,-1,15,17,19,21,-1,-1,23,-1,25,27,-1,29,31,-1,-1,33,35,37,39,-1,-1,-1,-1,-1,-1,-1,-1,-1,-1,-1,-1,-1],"loss_changes":[1.9431957E1,4.734152E0,1.699435E1,2.7486992E0,0E0,1.7504742E1,7.507473E0,2.7077923E0,0E0,7.929318E0,8.814268E0,7.4641895E0,3.8830295E0,0E0,0E0,8.048001E0,0E0,6.768884E0,3.44199E0,0E0,1.683258E0,3.3380055E-1,0E0,0E0,7.6785154E0,5.5395293E0,1.3870995E1,4.310198E0,0E0,0E0,0E0,0E0,0E0,0E0,0E0,0E0,0E0,0E0,0E0,0E0,0E0],"parents":[2147483647,0,0,1,1,2,2,3,3,5,5,6,6,7,7,9,9,10,10,11,11,12,12,15,15,17,17,18,18,20,20,21,21,24,24,25,25,26,26,27,27],"right_children":[2,4,6,8,-1,10,12,14,-1,16,18,20,22,-1,-1,24,-1,26,28,-1,30,32,-1,-1,34,36,38,40,-1,-1,-1,-1,-1,-1,-1,-1,-1,-1,-1,-1,-1],"split_conditions":[-2.9968176E-2,2.1614354E-2,3.658754E-3,4.109109E-2,1.9611368E-2,1.256858E-3,2.8385475E-1,-5.9677072E-2,2.1087324E-4,4.8500143E-2,2.4577023E-2,-3.3481658E-2,5.8440363E-1,-8.578782E-3,-8.136078E-2,-4.5385547E-2,5.7006665E-2,-6.0364837E-4,3.427582E-2,-3.2037046E-2,2.8260984E-3,4.4463575E-3,3.9828088E-2,6.4114384E-2,2.7114466E-2,-2.8128775E-3,7.3006685E-4,-3.6054198E-2,-1.1587829E-2,1.0651308E-2,8.1410065E-2,-1.05529735E-2,-5.490895E-2,-2.8506536E-2,4.2094864E-2,-4.4449368E-3,6.0882736E-2,-4.5655027E-2,4.8749726E-2,6.7313766E-4,8.179876E-2],"split_indices":[1434,646,638,63,0,1277,1436,1438,0,213,1068,1438,1436,0,0,54,0,53,1445,0,557,110,0,0,532,599,284,1444,0,0,0,0,0,0,0,0,0,0,0,0,0],"split_type":[0,0,0,0,0,0,0,0,0,0,0,0,0,0,0,0,0,0,0,0,0,0,0,0,0,0,0,0,0,0,0,0,0,0,0,0,0,0,0,0,0],"sum_hessian":[1.3790152E2,1.3980138E1,1.2392138E2,1.2480201E1,1.4999368E0,1.054429E2,1.8478483E1,1.098022E1,1.4999815E0,6.622289E1,3.922E1,1.4480985E1,3.9974978E0,1.7498866E0,9.230333E0,6.3722904E1,2.499991E0,2.7479307E1,1.1740695E1,1.2493091E0,1.3231676E1,2.4979188E0,1.499579E0,1.7497019E0,6.19732E1,1.2241431E1,1.5237877E1,1.0491545E1,1.2491503E0,1.2489898E0,1.1982686E1,1.2486331E0,1.2492857E0,5.872423E1,3.248972E0,5.24703E0,6.994401E0,1.0241262E1,4.996614E0,1.9986783E0,8.4928665E0],"tree_param":{"num_deleted":"0","num_feature":"1446","num_nodes":"41","size_leaf_vector":"1"}},{"base_weights":[1.3097241E-3,-1.0310313E0,1.248368E-1,-1.2169735E0,1.9025639E-2,-2.5605455E-2,9.422303E-1,-1.3708388E0,2.0454312E-4,4.7250026E-1,-3.2290235E-1,1.2466503E0,-1.8651903E-1,-8.306301E-3,-7.807869E-2,-3.9607862E-1,6.7547154E-1,-3.9485186E-1,5.500756E-2,-3.1165218E-2,1.4552368E0,-8.1893206E-1,3.8645547E-2,-8.745227E-1,4.3941054E-2,1.0619313E0,-1.1277967E-1,5.3210385E-2,-4.6441767E-1,1.0356239E-2,7.7989146E-2,-5.3660274E-2,-1.001709E-2,-7.627558E-2,2.8379573E-2,6.359759E-2,-4.4304565E-2,-3.66094E-2,3.6189027E-2,-2.740152E-2,4.0483546E-2],"categories":[],"categories_nodes":[],"categories_segments":[],"categories_sizes":[],"default_left":[0,0,0,0,0,0,0,0,0,0,0,0,0,0,0,0,0,0,0,0,0,0,0,0,0,0,0,0,0,0,0,0,0,0,0,0,0,0,0,0,0],"id":2,"left_children":[1,3,5,7,-1,9,11,13,-1,15,17,19,21,-1,-1,23,25,27,-1,-1,29,31,-1,33,-1,35,37,-1,39,-1,-1,-1,-1,-1,-1,-1,-1,-1,-1,-1,-1],"loss_changes":[1.7814983E1,4.381671E0,1.5366165E1,2.5288906E0,0E0,1.59002905E1,6.9053974E0,2.4819489E0,0E0,7.346448E0,7.313728E0,6.9234943E0,3.6635861E0,0E0,0E0,5.792345E0,1.0147254E1,7.0604324E0,0E0,0E0,1.5268002E0,3.3488035E-1,0E0,6.9586277E0,0E0,1.0203104E1,6.609762E0,0E0,7.095812E0,0E0,0E0,0E0,0E0,0E0,0E0,0E0,0E0,0E0,0E0,0E0,0E0],"parents":[2147483647,0,0,1,1,2,2,3,3,5,5,6,6,7,7,9,9,10,10,11,11,12,12,15,15,16,16,17,17,20,20,21,21,23,23,25,25,26,26,28,28],"right_children":[2,4,6,8,-1,10,12,14,-1,16,18,20,22,-1,-1,24,26,28,-1,-1,30,32,-1,34,-1,36,38,-1,40,-1,-1,-1,-1,-1,-1,-1,-1,-1,-1,-1,-1],"split_conditions":[-2.9968176E-2,2.1614354E-2,3.658754E-3,4.109109E-2,1.9025639E-2,-1.6288508E-3,2.8385475E-1,-5.9677072E-2,2.0454312E-4,-3.441301E-2,4.8500143E-2,-3.3481658E-2,5.8440363E-1,-8.306301E-3,-7.807869E-2,1.935168E-3,6.975369E-2,-4.5967173E-2,5.500756E-2,-3.1165218E-2,2.8260984E-3,1.1173889E-2,3.8645547E-2,-2.453157E-3,4.3941054E-2,2.1277303E-2,-1.0111035E-3,5.3210385E-2,2.7114466E-2,1.0356239E-2,7.7989146E-2,-5.3660274E-2,-1.001709E-2,-7.627558E-2,2.8379573E-2,6.359759E-2,-4.4304565E-2,-3.66094E-2,3.6189027E-2,-2.740152E-2,4.0483546E-2],"split_indices":[1434,646,638,63,0,356,1436,1438,0,1444,213,1438,1436,0,0,1376,1444,1137,0,0,557,1438,0,362,0,1438,239,0,532,0,0,0,0,0,0,0,0,0,0,0,0],"split_type":[0,0,0,0,0,0,0,0,0,0,0,0,0,0,0,0,0,0,0,0,0,0,0,0,0,0,0,0,0,0,0,0,0,0,0,0,0,0,0,0,0],"sum_hessian":[1.3769186E2,1.3929937E1,1.23761925E2,1.2430335E1,1.499602E0,1.0534224E2,1.8419691E1,1.0930352E1,1.4999826E0,3.91534E1,6.6188835E1,1.4424892E1,3.994799E0,1.7497334E0,9.180619E0,7.236161E0,3.1917238E1,6.3691147E1,2.4976892E0,1.2480485E0,1.3176844E1,2.4959922E0,1.4988068E0,5.4899426E0,1.7462186E0,2.118404E1,1.0733198E1,2.2478266E0,6.144332E1,1.2488434E0,1.1928E1,1.2480543E0,1.2479378E0,3.7426376E0,1.7473052E0,1.9435692E1,1.7483494E0,6.2386913E0,4.4945064E0,5.8194164E1,3.2491572E0],"tree_param":{"num_deleted":"0","num_feature":"1446","num_nodes":"41","size_leaf_vector":"1"}},{"base_weights":[1.9920364E-3,-9.892274E-1,1.202422E-1,-1.1693507E0,1.8459473E-2,1.0010449E0,-8.228575E-3,-1.3181486E0,1.9841325E-4,-3.9642822E-2,1.2427446E0,-2.5613925E-1,5.208727E-1,-8.042653E-3,-7.512992E-2,1.3949755E0,-1.0009217E-2,-7.8630425E-2,-8.871435E-1,-3.1837207E-1,7.573853E-1,9.345928E-3,1.505619E0,2.7123648E-1,-3.9848498E-1,1.6125752E-2,-1.076043E0,-1.0653534E0,4.951733E-1,9.592062E-1,-3.5901952E-1,3.171869E-2,8.201846E-2,1.6452725E-3,7.095983E-2,2.516622E-2,-2.928865E-2,1.28280325E-2,-6.1071582E-2,-8.42875E-3,-6.68518E-2,-1.5225323E-2,5.942886E-2,6.0132634E-2,-1.0053973E-2,-5.1115483E-2,2.7757024E-2],"categories":[],"categories_nodes":[],"categories_segments":[],"categories_sizes":[],"default_left":[0,0,0,0,0,0,0,0,0,0,0,0,0,0,0,0,0,0,0,0,0,0,0,0,0,0,0,0,0,0,0,0,0,0,0,0,0,0,0,0,0,0,0,0,0,0,0],"id":3,"left_children":[1,3,5,7,-1,9,11,13,-1,-1,15,17,19,-1,-1,21,-1,23,25,27,29,-1,31,33,35,-1,37,39,41,43,45,-1,-1,-1,-1,-1,-1,-1,-1,-1,-1,-1,-1,-1,-1,-1,-1],"loss_changes":[1.633458E1,4.0661077E0,1.4095328E1,2.3367596E0,0E0,7.8596725E0,1.4514414E1,2.2887993E0,0E0,0E0,3.4339085E0,8.367485E0,7.249854E0,0E0,0E0,1.4717827E0,0E0,6.8097067E0,4.103799E0,5.673056E0,6.6177187E0,0E0,3.5343742E-1,7.9411983E0,5.647179E0,0E0,3.1131248E0,9.273815E-1,2.9878721E0,6.979336E0,3.5934575E0,0E0,0E0,0E0,0E0,0E0,0E0,0E0,0E0,0E0,0E0,0E0,0E0,0E0,0E0,0E0,0E0],"parents":[2147483647,0,0,1,1,2,2,3,3,5,5,6,6,7,7,10,10,11,11,12,12,15,15,17,17,18,18,19,19,20,20,22,22,23,23,24,24,26,26,27,27,28,28,29,29,30,30],"right_children":[2,4,6,8,-1,10,12,14,-1,-1,16,18,20,-1,-1,22,-1,24,26,28,30,-1,32,34,36,-1,38,40,42,44,46,-1,-1,-1,-1,-1,-1,-1,-1,-1,-1,-1,-1,-1,-1,-1,-1],"split_conditions":[-2.9968176E-2,2.1614354E-2,-4.971867E-3,4.109109E-2,1.8459473E-2,-1.3404821E-1,7.227563E-4,-5.9677072E-2,1.9841325E-4,-3.9642822E-2,1.1111953E-1,1.0180095E-1,-3.441301E-2,-8.042653E-3,-7.512992E-2,-2.662143E-3,-1.0009217E-2,0E0,-1.3633493E-3,3.899939E-3,2.1277303E-2,9.345928E-3,-9.506594E-3,3.9515473E-4,-1.9441254E-3,1.6125752E-2,-6.589009E-4,-9.53399E-2,1.5411683E-3,9.161526E-2,1.8821403E-2,3.171869E-2,8.201846E-2,1.6452725E-3,7.095983E-2,2.516622E-2,-2.928865E-2,1.28280325E-2,-6.1071582E-2,-8.42875E-3,-6.68518E-2,-1.5225323E-2,5.942886E-2,6.0132634E-2,-1.0053973E-2,-5.1115483E-2,2.7757024E-2],"split_indices":[1434,646,1349,63,0,1444,1076,1438,0,0,1444,1440,1444,0,0,50,0,833,1067,796,1438,0,1442,1328,683,0,1435,1444,827,1444,1439,0,0,0,0,0,0,0,0,0,0,0,0,0,0,0,0],"split_type":[0,0,0,0,0,0,0,0,0,0,0,0,0,0,0,0,0,0,0,0,0,0,0,0,0,0,0,0,0,0,0,0,0,0,0,0,0,0,0,0,0,0,0,0,0,0,0],"sum_hessian":[1.3734464E2,1.3853509E1,1.2349112E2,1.2354507E1,1.4990017E0,1.4854673E1,1.08636444E2,1.0854524E1,1.4999837E0,1.4930303E0,1.3361643E1,7.4326584E1,3.430986E1,1.7495239E0,9.1050005E0,1.2116563E1,1.2450802E0,5.888591E1,1.5440679E1,7.467162E0,2.68427E1,1.2422699E0,1.0874292E1,2.8196115E1,3.0689793E1,1.9899933E0,1.34506855E1,3.7314758E0,3.7356865E0,2.2852322E1,3.990378E0,2.221118E0,8.653174E0,2.4200459E1,3.995657E0,4.987428E0,2.5702366E1,1.247912E0,1.2202773E1,1.2444017E0,2.4870741E0,1.9953583E0,1.7403282E0,1.8858906E1,3.9934144E0,2.2439342E0,1.7464437E0],"tree_param":{"num_deleted":"0","num_feature":"1446","num_nodes":"47","size_leaf_vector":"1"}},{"base_weights":[2.1989788E-3,-9.506709E-1,1.1540459E-1,-1.1256187E0,1.7912017E-2,-2.2492785E-2,8.692578E-1,-4.3771738E-1,-7.244371E-2,4.45783E-1,-2.9803568E-1,-3.634661E-2,1.044645E0,-5.5882778E-2,4.412446E-2,-3.644626E-1,6.366697E-1,-6.5772504E-1,-1.7121391E-3,1.3141133E0,-1.2374648E-1,-8.150984E-1,4.1526582E-2,1.0044241E0,-1.0034725E-1,-7.407207E-2,-3.9540845E-1,-3.209417E-1,8.366289E-1,7.60199E-2,3.8211715E-1,3.0958567E-2,-5.292511E-2,2.2093533E-2,-6.4151995E-2,5.888753E-2,-4.0408853E-2,-3.4477323E-2,3.4672458E-2,-3.329041E-2,3.6079798E-2,3.9522066E-3,-4.4504654E-2,5.4772507E-2,-3.1383555E-2,-3.390052E-2,5.584779E-2],"categories":[],"categories_nodes":[],"categories_segments":[],"categories_sizes":[],"default_left":[0,0,0,0,0,0,0,0,0,0,0,0,0,0,0,0,0,0,0,0,0,0,0,0,0,0,0,0,0,0,0,0,0,0,0,0,0,0,0,0,0,0,0,0,0,0,0],"id":4,"left_children":[1,3,5,7,-1,9,11,13,-1,15,17,-1,19,-1,-1,21,23,25,27,29,31,33,-1,35,37,-1,39,41,43,-1,45,-1,-1,-1,-1,-1,-1,-1,-1,-1,-1,-1,-1,-1,-1,-1,-1],"loss_changes":[1.4988018E1,3.7819347E0,1.29278965E1,2.3136292E0,0E0,1.3803103E1,6.1419926E0,6.076808E0,0E0,6.3641725E0,7.171838E0,0E0,5.746006E0,0E0,0E0,5.0903673E0,8.896663E0,5.9820995E0,1.0411985E1,2.2060547E0,3.598054E0,4.364304E0,0E0,7.7820396E0,5.9558177E0,0E0,7.8557835E0,6.483863E0,4.75406E0,0E0,3.8444185E0,0E0,0E0,0E0,0E0,0E0,0E0,0E0,0E0,0E0,0E0,0E0,0E0,0E0,0E0,0E0,0E0],"parents":[2147483647,0,0,1,1,2,2,3,3,5,5,6,6,7,7,9,9,10,10,12,12,15,15,16,16,17,17,18,18,19,19,20,20,21,21,23,23,24,24,26,26,27,27,28,28,30,30],"right_children":[2,4,6,8,-1,10,12,14,-1,16,18,-1,20,-1,-1,22,24,26,28,30,32,34,-1,36,38,-1,40,42,44,-1,46,-1,-1,-1,-1,-1,-1,-1,-1,-1,-1,-1,-1,-1,-1,-1,-1],"split_conditions":[-2.9968176E-2,2.1614354E-2,3.2192245E-3,-2.7301328E-3,1.7912017E-2,-1.6288508E-3,-3.3481658E-2,-3.4415056E-3,-7.244371E-2,-3.441301E-2,6.6953166E-5,-3.634661E-2,3.3622044E-1,-5.5882778E-2,4.412446E-2,1.2632516E-3,6.975369E-2,-2.2630078E-4,-5.016268E-4,2.902154E-2,2.0434582E-1,7.490672E-4,4.1526582E-2,4.3568057E-1,-1.0111035E-3,-7.407207E-2,8.28641E-4,5.636603E-2,6.195609E-4,7.60199E-2,2.8838154E-3,3.0958567E-2,-5.292511E-2,2.2093533E-2,-6.4151995E-2,5.888753E-2,-4.0408853E-2,-3.4477323E-2,3.4672458E-2,-3.329041E-2,3.6079798E-2,3.9522066E-3,-4.4504654E-2,5.4772507E-2,-3.1383555E-2,-3.390052E-2,5.584779E-2],"split_indices":[1434,646,173,280,0,356,1438,4,0,1444,323,0,1436,0,0,59,1444,983,962,310,1444,1322,0,1436,239,0,410,1436,800,0,119,0,0,0,0,0,0,0,0,0,0,0,0,0,0,0,0],"split_type":[0,0,0,0,0,0,0,0,0,0,0,0,0,0,0,0,0,0,0,0,0,0,0,0,0,0,0,0,0,0,0,0,0,0,0,0,0,0,0,0,0,0,0,0,0,0,0],"sum_hessian":[1.3692784E2,1.3754687E1,1.2317316E2,1.2256527E1,1.4981605E0,1.04946205E2,1.822695E1,4.6708508E0,7.5856757E0,3.864778E1,6.629842E1,1.4931487E0,1.6733803E1,3.1842892E0,1.4865617E0,7.195625E0,3.1452156E1,2.9396347E1,3.690208E1,1.3496386E1,3.2374165E0,5.456042E0,1.7395829E0,2.074037E1,1.0711786E1,5.977741E0,2.3418606E1,2.7172361E1,9.729717E0,1.0533586E1,2.9628E0,1.991912E0,1.2455044E0,1.4952539E0,3.9607878E0,1.924988E1,1.49049E0,6.2236114E0,4.488175E0,1.9179619E1,4.2389865E0,1.64634E1,1.07089615E1,8.482325E0,1.247392E0,1.2445961E0,1.718204E0],"tree_param":{"num_deleted":"0","num_feature":"1446","num_nodes":"47","size_leaf_vector":"1"}},{"base_weights":[1.4039618E-3,-9.143312E-1,1.0980492E-1,-1.0843986E0,1.738247E-2,9.263644E-1,-8.228725E-3,-1.2307324E0,1.6176535E-3,-3.787924E-2,1.1569573E0,-1.1781087E-1,1.0227389E0,-7.1548815E-3,-1.408062E0,1.301272E0,-9.560619E-3,1.1838946E0,-1.9797862E-1,1.3670033E0,-9.732445E-3,-2.347216E-2,-7.4211255E-2,8.162133E-3,1.4074793E0,7.3573827E-3,7.1142726E-2,1.5892673E-1,-4.174888E-1,7.7302516E-2,1.5803963E-2,3.2558437E-2,7.6811366E-2,-6.346088E-4,6.6216804E-2,-3.4341242E-2,1.1921049E-2],"categories":[],"categories_nodes":[],"categories_segments":[],"categories_sizes":[],"default_left":[0,0,0,0,0,0,0,0,0,0,0,0,0,0,0,0,0,0,0,0,0,0,0,0,0,0,0,0,0,0,0,0,0,0,0,0,0],"id":5,"left_children":[1,3,5,7,-1,9,11,13,-1,-1,15,17,19,-1,21,23,-1,25,27,29,-1,-1,-1,-1,31,-1,-1,33,35,-1,-1,-1,-1,-1,-1,-1,-1],"loss_changes":[1.3739623E1,3.5213032E0,1.1934783E1,2.1893253E0,0E0,6.948695E0,1.2447472E1,2.0464325E0,0E0,0E0,3.0018349E0,1.0620324E1,4.7029543E0,0E0,1.1550903E-2,1.3306065E0,0E0,1.2565393E0,7.478367E0,1.0876627E0,0E0,0E0,0E0,0E0,1.36652E-1,0E0,0E0,7.3676214E0,1.0561129E1,0E0,0E0,0E0,0E0,0E0,0E0,0E0,0E0],"parents":[2147483647,0,0,1,1,2,2,3,3,5,5,6,6,7,7,10,10,11,11,12,12,14,14,15,15,17,17,18,18,19,19,24,24,27,27,28,28],"right_children":[2,4,6,8,-1,10,12,14,-1,-1,16,18,20,-1,22,24,-1,26,28,30,-1,-1,-1,-1,32,-1,-1,34,36,-1,-1,-1,-1,-1,-1,-1,-1],"split_conditions":[-2.9968176E-2,2.1614354E-2,-4.971867E-3,4.109109E-2,1.738247E-2,-1.3404821E-1,4.5621973E-2,-5.9677072E-2,1.6176535E-3,-3.787924E-2,1.1111953E-1,-5.6769894E-3,4.683005E-3,-7.1548815E-3,-3.701182E-2,1.284538E-3,-9.560619E-3,-7.8606075E-3,-1.2029392E-3,3.962897E-4,-9.732445E-3,-2.347216E-2,-7.4211255E-2,8.162133E-3,-9.506594E-3,7.3573827E-3,7.1142726E-2,2.388554E-3,1.3718609E-2,7.7302516E-2,1.5803963E-2,3.2558437E-2,7.6811366E-2,-6.346088E-4,6.6216804E-2,-3.4341242E-2,1.1921049E-2],"split_indices":[1434,646,1349,63,0,1444,321,1438,0,0,1444,86,1440,0,0,539,0,665,397,605,0,0,0,0,1442,0,0,49,1297,0,0,0,0,0,0,0,0],"split_type":[0,0,0,0,0,0,0,0,0,0,0,0,0,0,0,0,0,0,0,0,0,0,0,0,0,0,0,0,0,0,0,0,0,0,0,0,0],"sum_hessian":[1.3639998E2,1.3650488E1,1.2274949E2,1.2153387E1,1.4971011E0,1.4637642E1,1.0811185E2,1.0655126E1,1.4982616E0,1.4877417E0,1.31498995E1,9.852527E1,9.586579E0,1.7470027E0,8.908123E0,1.19098015E1,1.2400981E0,4.917109E0,9.360816E1,7.3774233E0,2.2091558E0,1.2062455E0,7.701877E0,1.2331707E0,1.0676631E1,1.2237129E0,3.6933963E0,3.5752907E1,5.7855255E1,5.90094E0,1.4764833E0,2.4343162E0,8.242314E0,3.2025867E1,3.7270396E0,4.098037E1,1.6874884E1],"tree_param":{"num_deleted":"0","num_feature":"1446","num_nodes":"37","size_leaf_vector":"1"}},{"base_weights":[2.7368008E-3,-8.8238406E-1,1.06878474E-1,-1.0634199E0,1.4996628E-2,2.9047048E-1,-3.8592434E-1,1.7420817E-2,-1.2415221E0,2.8911312E-4,7.227068E-1,1.5802072E-1,-7.481003E-1,-1.3724918E0,-3.2342938E-3,-3.2720995E-1,6.93148E-1,-7.199235E-1,8.7111837E-1,-8.2712656E-1,1.0052704E0,-9.861256E-1,5.9229386E-1,-2.287384E-2,-7.629713E-2,-6.112676E-1,4.4335026E-1,1.0540661E0,-2.7040273E-1,7.610058E-3,-5.8104396E-2,1.0164349E0,-4.6127445E-1,1.7917445E-2,-1.1996679E0,-5.5918638E-3,7.2117455E-2,-1.4962925E0,-2.7600098E-1,5.5686604E-2,-1.2665304E-2,-1.9243047E-2,-6.577676E-2,-4.8408277E-2,4.3460988E-2,6.0430117E-2,-1.26518905E-2,5.434662E-2,-5.0011028E-2,5.536002E-2,-3.0993937E-2,3.0604387E-2,-5.861159E-2,-9.7731175E-3,-7.170372E-2,-9.06328E-3,-8.287793E-2,-5.7670392E-2,2.2478452E-2],"categories":[],"categories_nodes":[],"categories_segments":[],"categories_sizes":[],"default_left":[0,0,0,0,0,0,0,0,0,0,0,0,0,0,0,0,0,0,0,0,0,0,0,0,0,0,0,0,0,0,0,0,0,0,0,0,0,0,0,0,0,0,0,0,0,0,0,0,0,0,0,0,0,0,0,0,0,0,0],"id":6,"left_children":[1,3,5,7,-1,9,11,-1,13,15,17,19,21,23,-1,25,27,29,31,33,35,37,39,-1,-1,41,43,45,47,-1,-1,49,51,-1,53,-1,-1,55,57,-1,-1,-1,-1,-1,-1,-1,-1,-1,-1,-1,-1,-1,-1,-1,-1,-1,-1,-1,-1],"loss_changes":[1.27172575E1,3.427722E0,1.127821E1,3.6550312E0,0E0,1.1349524E1,6.802196E0,0E0,1.6989803E0,1.2739018E1,8.409191E0,1.283955E1,7.1377945E0,7.6049423E-1,0E0,8.61537E0,6.551429E0,1.6954386E0,6.9375153E0,3.6099668E0,4.158271E0,6.0425587E0,1.9234301E0,0E0,0E0,4.002118E0,7.36236E0,2.9950037E0,6.739652E0,0E0,0E0,5.2067013E0,3.7495775E0,0E0,1.0635138E0,0E0,0E0,1.8506203E0,6.041724E0,0E0,0E0,0E0,0E0,0E0,0E0,0E0,0E0,0E0,0E0,0E0,0E0,0E0,0E0,0E0,0E0,0E0,0E0,0E0,0E0],"parents":[2147483647,0,0,1,1,2,2,3,3,5,5,6,6,8,8,9,9,10,10,11,11,12,12,13,13,15,15,16,16,17,17,18,18,19,19,20,20,21,21,22,22,25,25,26,26,27,27,28,28,31,31,32,32,34,34,37,37,38,38],"right_children":[2,4,6,8,-1,10,12,-1,14,16,18,20,22,24,-1,26,28,30,32,34,36,38,40,-1,-1,42,44,46,48,-1,-1,50,52,-1,54,-1,-1,56,58,-1,-1,-1,-1,-1,-1,-1,-1,-1,-1,-1,-1,-1,-1,-1,-1,-1,-1,-1,-1],"split_conditions":[-2.9968176E-2,5.0543487E-2,4.388999E-2,-1.3667072E-1,1.4996628E-2,2.3359023E-3,-2.162945E-3,1.7420817E-2,2.2892088E-3,2.829223E-2,-9.759191E-2,-1.240355E-2,3.0326018E-2,-4.4956756E-1,-3.2342938E-3,1.5892398E-4,2.507783E-2,2.7361655E-4,7.3113196E-2,-2.5708706E-4,5.5915657E-3,2.5334328E-1,3.6302075E-2,-2.287384E-2,-7.629713E-2,4.088552E-3,-5.690878E-3,2.0647426E-3,3.8860105E-2,7.610058E-3,-5.8104396E-2,4.2946666E-2,-3.6344212E-3,1.7917445E-2,-6.810586E-3,-5.5918638E-3,7.2117455E-2,-4.2068284E-2,-7.105977E-4,5.5686604E-2,-1.2665304E-2,-1.9243047E-2,-6.577676E-2,-4.8408277E-2,4.3460988E-2,6.0430117E-2,-1.26518905E-2,5.434662E-2,-5.0011028E-2,5.536002E-2,-3.0993937E-2,3.0604387E-2,-5.861159E-2,-9.7731175E-3,-7.170372E-2,-9.06328E-3,-8.287793E-2,-5.7670392E-2,2.2478452E-2],"split_indices":[1434,1440,1440,1441,0,1443,475,0,590,486,1445,763,853,1436,0,542,1436,20,1441,11,1443,1445,1,0,0,646,1015,1437,486,0,0,1182,22,0,1109,0,0,405,155,0,0,0,0,0,0,0,0,0,0,0,0,0,0,0,0,0,0,0,0],"split_type":[0,0,0,0,0,0,0,0,0,0,0,0,0,0,0,0,0,0,0,0,0,0,0,0,0,0,0,0,0,0,0,0,0,0,0,0,0,0,0,0,0,0,0,0,0,0,0,0,0,0,0,0,0,0,0,0,0,0,0],"sum_hessian":[1.3594109E2,1.3524105E1,1.22416985E2,1.1815484E1,1.7086207E0,8.948881E1,3.2928177E1,1.2164296E0,1.0599055E1,5.4141586E1,3.5347225E1,1.3386676E1,1.95415E1,9.38801E0,1.211045E0,3.7122395E1,1.7019194E1,2.9379644E0,3.240926E1,6.20061E0,7.1860657E0,1.6819092E1,2.722409E0,1.9200652E0,7.4679446E0,2.7274649E1,9.847744E0,1.2313118E1,4.706075E0,1.2090389E0,1.7289257E0,2.9435978E1,2.9732807E0,1.4917529E0,4.708857E0,2.230182E0,4.9558835E0,9.143293E0,7.6757984E0,1.4878417E0,1.2345672E0,2.1809757E1,5.464892E0,1.9873662E0,7.8603783E0,1.1078669E1,1.2344499E0,1.4744787E0,3.2315965E0,2.8195354E1,1.2406241E0,1.240106E0,1.7331746E0,1.2382044E0,3.4706528E0,1.2308087E0,7.9124846E0,3.2074645E0,4.4683337E0],"tree_param":{"num_deleted":"0","num_feature":"1446","num_nodes":"59","size_leaf_vector":"1"}},{"base_weights":[8.151574E-4,-8.496015E-1,1.00540936E-1,-1.0156708E0,1.7504824E-2,9.6558994E-1,2.6819326E-3,-3.6083683E-1,-1.3319772E0,1.2616451E0,-2.7954191E-2,-9.9093005E-2,9.711743E-1,-5.105899E-2,4.3692883E-2,-7.093212E-2,-2.1766558E-2,-1.1166806E-2,7.37047E-2,2.4376126E-1,-3.141683E-1,1.2901943E0,-7.8258686E-2,7.429928E-2,1.2019479E0,-5.923176E-1,2.705083E-1,7.306055E-2,1.4750947E-2,-3.4058534E-2,2.810186E-2,-1.7628126E-2,2.41271E-2,7.19325E-2,8.02056E-3,5.204166E-2,-3.3735484E-2,-6.1384715E-2,2.9307265E-2],"categories":[],"categories_nodes":[],"categories_segments":[],"categories_sizes":[],"default_left":[0,0,0,0,0,0,0,0,0,0,0,0,0,0,0,0,0,0,0,0,0,0,0,0,0,0,0,0,0,0,0,0,0,0,0,0,0,0,0],"id":7,"left_children":[1,3,5,7,-1,9,11,13,15,17,-1,19,21,-1,-1,-1,-1,-1,-1,23,25,27,29,31,33,35,37,-1,-1,-1,-1,-1,-1,-1,-1,-1,-1,-1,-1],"loss_changes":[1.164935E1,3.2279854E0,1.0404307E1,2.195591E0,0E0,6.343667E0,1.1081187E1,5.4417596E0,3.0561447E-2,3.7260284E0,0E0,7.579935E0,3.6799555E0,0E0,0E0,0E0,0E0,0E0,0E0,6.3713884E0,1.0400301E1,9.7389317E-1,1.7088858E0,6.247545E0,1.2270956E0,6.485794E0,1.0643164E1,0E0,0E0,0E0,0E0,0E0,0E0,0E0,0E0,0E0,0E0,0E0,0E0],"parents":[2147483647,0,0,1,1,2,2,3,3,5,5,6,6,7,7,8,8,9,9,11,11,12,12,19,19,20,20,21,21,22,22,23,23,24,24,25,25,26,26],"right_children":[2,4,6,8,-1,10,12,14,16,18,-1,20,22,-1,-1,-1,-1,-1,-1,24,26,28,30,32,34,36,38,-1,-1,-1,-1,-1,-1,-1,-1,-1,-1,-1,-1],"split_conditions":[-2.9968176E-2,2.1614354E-2,-8.615172E-3,-2.7301328E-3,1.7504824E-2,3.7656724E-2,4.5621973E-2,-3.4415056E-3,4.3338794E-2,-1.0456578E-2,-2.7954191E-2,-1.2029392E-3,4.683005E-3,-5.105899E-2,4.3692883E-2,-7.093212E-2,-2.1766558E-2,-1.1166806E-2,7.37047E-2,8.19901E-4,1.3718609E-2,3.962897E-4,1.8702142E-3,2.3359023E-3,3.7814802E-3,-4.5169964E-2,-2.0181173E-3,7.306055E-2,1.4750947E-2,-3.4058534E-2,2.810186E-2,-1.7628126E-2,2.41271E-2,7.19325E-2,8.02056E-3,5.204166E-2,-3.3735484E-2,-6.1384715E-2,2.9307265E-2],"split_indices":[1434,646,998,280,0,1444,321,4,855,1437,0,397,1440,0,0,0,0,0,0,943,1297,605,1435,1443,829,801,1280,0,0,0,0,0,0,0,0,0,0,0,0],"split_type":[0,0,0,0,0,0,0,0,0,0,0,0,0,0,0,0,0,0,0,0,0,0,0,0,0,0,0,0,0,0,0,0,0,0,0,0,0,0,0],"sum_hessian":[1.3535349E2,1.341731E1,1.2193618E2,1.1920587E1,1.4967234E0,1.1491047E1,1.1044513E2,4.579875E0,7.340711E0,9.767036E0,1.7240102E0,1.0075489E2,9.69024E0,3.0966465E0,1.4832284E0,6.1628747E0,1.1778364E0,1.2160195E0,8.551018E0,3.878841E1,6.1966476E1,7.25527E0,2.4349697E0,3.3874935E1,4.913476E0,4.198148E1,1.9984999E1,5.791696E0,1.4635736E0,1.2212168E0,1.213753E0,1.6626513E1,1.7248423E1,3.6929348E0,1.2205411E0,1.4575567E0,4.0523922E1,2.9748757E0,1.7010122E1],"tree_param":{"num_deleted":"0","num_feature":"1446","num_nodes":"39","size_leaf_vector":"1"}},{"base_weights":[1.5877028E-3,-8.21053E-1,9.74807E-2,-9.969678E-1,1.5154789E-2,2.7215505E-1,-3.7040812E-1,1.714955E-2,-1.1699041E0,1.16810255E-1,1.0129055E0,1.3732162E-1,-7.085638E-1,-1.5106965E-3,-1.3005736E0,-1.17128186E-1,5.824281E-1,1.2032744E0,-3.290726E-2,-8.0610555E-1,9.521542E-1,-9.327136E-1,5.5231136E-1,-9.802344E-3,-7.287361E-2,5.787469E-1,-3.832249E-1,9.907264E-1,-8.238803E-2,1.7057307E-1,1.4031744E0,1.7302627E-2,-1.1687294E0,6.944626E-2,-7.0202313E-3,-1.4269257E0,-2.4945702E-1,-1.3504579E-2,5.3511973E-2,5.637173E-2,-4.706523E-3,5.004297E-2,-2.5455266E-2,-2.1776365E-2,5.8416147E-2,-4.3672703E-2,2.3704423E-2,-1.9752814E-2,3.2474376E-2,7.6766394E-2,6.6759633E-3,-9.861383E-3,-6.9717064E-2,-8.110495E-3,-7.9177305E-2,-5.5036306E-2,2.2317948E-2],"categories":[],"categories_nodes":[],"categories_segments":[],"categories_sizes":[],"default_left":[0,0,0,0,0,0,0,0,0,0,0,0,0,0,0,0,0,0,0,0,0,0,0,0,0,0,0,0,0,0,0,0,0,0,0,0,0,0,0,0,0,0,0,0,0,0,0,0,0,0,0,0,0,0,0,0,0],"id":8,"left_children":[1,3,5,7,-1,9,11,-1,13,15,17,19,21,-1,23,25,27,29,-1,31,33,35,37,-1,-1,39,41,43,45,47,49,-1,51,-1,-1,53,55,-1,-1,-1,-1,-1,-1,-1,-1,-1,-1,-1,-1,-1,-1,-1,-1,-1,-1,-1,-1],"loss_changes":[1.0789146E1,3.1258488E0,1.0110585E1,3.3163347E0,0E0,1.0210396E1,5.886324E0,0E0,1.6537304E0,8.273487E0,5.700469E0,1.1773337E1,6.2809153E0,0E0,1.4776382E0,9.660047E0,6.964924E0,2.6932068E0,0E0,3.402728E0,4.079592E0,5.618641E0,1.8682028E0,0E0,0E0,5.4586678E0,7.038439E0,4.507559E0,5.067765E0,1.1890355E0,1.7687702E0,0E0,9.7145796E-1,0E0,0E0,1.734869E0,5.6079597E0,0E0,0E0,0E0,0E0,0E0,0E0,0E0,0E0,0E0,0E0,0E0,0E0,0E0,0E0,0E0,0E0,0E0,0E0,0E0,0E0],"parents":[2147483647,0,0,1,1,2,2,3,3,5,5,6,6,8,8,9,9,10,10,11,11,12,12,14,14,15,15,16,16,17,17,19,19,20,20,21,21,22,22,25,25,26,26,27,27,28,28,29,29,30,30,32,32,35,35,36,36],"right_children":[2,4,6,8,-1,10,12,-1,14,16,18,20,22,-1,24,26,28,30,-1,32,34,36,38,-1,-1,40,42,44,46,48,50,-1,52,-1,-1,54,56,-1,-1,-1,-1,-1,-1,-1,-1,-1,-1,-1,-1,-1,-1,-1,-1,-1,-1,-1,-1],"split_conditions":[-2.9968176E-2,5.0543487E-2,4.388999E-2,-1.3667072E-1,1.5154789E-2,1.2085512E-3,-2.162945E-3,1.714955E-2,-2.6144661E-2,1.99401E-2,7.7482216E-2,-1.240355E-2,3.0326018E-2,-1.5106965E-3,-1.3332097E-3,-4.7633413E-4,4.2326905E-2,-2.5722886E-2,-3.290726E-2,-2.5708706E-4,-4.081136E-3,2.5334328E-1,-4.7329353E-4,-9.802344E-3,-7.287361E-2,2.4198862E-2,-4.537845E-2,-1.016035E-2,4.8043323E-4,-4.1004033E-3,4.4258233E-2,1.7302627E-2,-6.810586E-3,6.944626E-2,-7.0202313E-3,-1.5621909E-3,-7.105977E-4,-1.3504579E-2,5.3511973E-2,5.637173E-2,-4.706523E-3,5.004297E-2,-2.5455266E-2,-2.1776365E-2,5.8416147E-2,-4.3672703E-2,2.3704423E-2,-1.9752814E-2,3.2474376E-2,7.6766394E-2,6.6759633E-3,-9.861383E-3,-6.9717064E-2,-8.110495E-3,-7.9177305E-2,-5.5036306E-2,2.2317948E-2],"split_indices":[1434,1440,1440,1441,0,5,475,0,448,1362,1442,763,853,0,122,986,1095,964,0,11,775,1445,587,0,0,1445,447,1443,611,1445,846,0,1109,0,0,827,155,0,0,0,0,0,0,0,0,0,0,0,0,0,0,0,0,0,0,0,0],"split_type":[0,0,0,0,0,0,0,0,0,0,0,0,0,0,0,0,0,0,0,0,0,0,0,0,0,0,0,0,0,0,0,0,0,0,0,0,0,0,0,0,0,0,0,0,0,0,0,0,0,0,0,0,0,0,0,0,0],"sum_hessian":[1.3475513E2,1.3278678E1,1.21476456E2,1.1579734E1,1.6989434E0,8.875891E1,3.2717545E1,1.2112547E0,1.036848E1,7.432889E1,1.4430023E1,1.3316765E1,1.9400778E1,1.1931479E0,9.175331E0,4.997074E1,2.4358147E1,1.3205553E1,1.2244695E0,6.1763687E0,7.1403956E0,1.6693403E1,2.7073755E0,1.4210446E0,7.7542872E0,1.3497692E1,3.647305E1,1.4786659E1,9.571487E0,2.4422028E0,1.07633505E1,1.4895014E0,4.6868677E0,4.9073367E0,2.233059E0,9.055196E0,7.638207E0,1.2310858E0,1.4762897E0,7.062853E0,6.4348392E0,2.4611595E0,3.401189E1,1.4765271E0,1.3310133E1,3.717382E0,5.8541055E0,1.2000114E0,1.2421916E0,9.55913E0,1.2042214E0,1.2365177E0,3.4503498E0,1.2221307E0,7.833065E0,3.1736302E0,4.4645767E0],"tree_param":{"num_deleted":"0","num_feature":"1446","num_nodes":"57","size_leaf_vector":"1"}},{"base_weights":[1.7047819E-3,-6.138405E-2,1.1701211E0,-1.5635316E-1,6.8139565E-1,6.934928E-2,3.5164095E-3,-6.5401447E-1,4.2342773E-4,1.2352185E0,1.13044314E-1,3.024212E-1,-8.0186814E-1,5.88415E-1,-1.6708232E-1,7.072582E-2,8.521746E-3,5.9113022E-2,-5.690192E-1,-2.5133902E-2,5.6609433E-2,-9.0113765E-1,2.8908834E-2,-5.072282E-1,8.4730774E-1,9.9545777E-1,-2.4990502E-1,-1.0386587E0,1.9004768E-2,2.4523747E-3,-5.397855E-2,-6.0773473E-2,2.0252055E-2,2.1849978E-3,6.013598E-2,6.723482E-3,6.2205296E-2,6.127886E-2,-1.6012263E-2,-8.217291E-3,-6.658249E-2],"categories":[],"categories_nodes":[],"categories_segments":[],"categories_sizes":[],"default_left":[0,0,0,0,0,0,0,0,0,0,0,0,0,0,0,0,0,0,0,0,0,0,0,0,0,0,0,0,0,0,0,0,0,0,0,0,0,0,0,0,0],"id":9,"left_children":[1,3,5,7,9,-1,-1,11,13,15,17,19,21,23,25,-1,-1,-1,27,-1,-1,29,-1,31,33,35,37,39,-1,-1,-1,-1,-1,-1,-1,-1,-1,-1,-1,-1,-1],"loss_changes":[1.0026932E1,9.212131E0,1.5644484E0,8.993237E0,4.525092E0,0E0,0E0,4.147299E0,8.829583E0,1.1726379E0,6.8093E0,3.5240412E0,3.834898E0,6.0677342E0,6.96688E0,0E0,0E0,0E0,2.9856668E0,0E0,0E0,3.945219E0,0E0,3.350995E0,4.6462393E0,8.6906815E-1,7.235334E0,8.4586287E-1,0E0,0E0,0E0,0E0,0E0,0E0,0E0,0E0,0E0,0E0,0E0,0E0,0E0],"parents":[2147483647,0,0,1,1,2,2,3,3,4,4,7,7,8,8,9,9,10,10,11,11,12,12,13,13,14,14,18,18,21,21,23,23,24,24,25,25,26,26,27,27],"right_children":[2,4,6,8,10,-1,-1,12,14,16,18,20,22,24,26,-1,-1,-1,28,-1,-1,30,-1,32,34,36,38,40,-1,-1,-1,-1,-1,-1,-1,-1,-1,-1,-1,-1,-1],"split_conditions":[4.769624E-2,1.2241033E-3,9.45855E-3,-2.6760347E-2,2.5021164E-3,6.934928E-2,3.5164095E-3,-3.2693422E-3,0E0,9.968235E-3,2.2113914E-4,-6.574721E-3,3.5469815E-2,-4.349009E-2,-3.2285724E-3,7.072582E-2,8.521746E-3,5.9113022E-2,2.1979571E-3,-2.5133902E-2,5.6609433E-2,-4.4956756E-1,2.8908834E-2,1.7019535E-3,-1.0472821E-2,-4.5538004E-3,-4.6089806E-2,-1.0352803E-2,1.9004768E-2,2.4523747E-3,-5.397855E-2,-6.0773473E-2,2.0252055E-2,2.1849978E-3,6.013598E-2,6.723482E-3,6.2205296E-2,6.127886E-2,-1.6012263E-2,-8.217291E-3,-6.658249E-2],"split_indices":[162,1112,1440,1444,381,0,0,251,1444,1438,182,446,1135,888,1316,0,0,0,182,0,0,1436,0,43,1445,809,1182,1441,0,0,0,0,0,0,0,0,0,0,0,0,0],"split_type":[0,0,0,0,0,0,0,0,0,0,0,0,0,0,0,0,0,0,0,0,0,0,0,0,0,0,0,0,0,0,0,0,0,0,0,0,0,0,0,0,0],"sum_hessian":[1.3405037E2,1.2808203E2,5.9683466E0,1.1426236E2,1.3819668E1,4.767187E0,1.2011592E0,2.66128E1,8.764956E1,6.4050303E0,7.414638E0,3.423226E0,2.3189573E1,1.8876171E1,6.877339E1,5.200815E0,1.2042148E0,2.60213E0,4.812508E0,1.9375103E0,1.4857159E0,2.1957172E1,1.2324023E0,3.4244702E0,1.54517E1,3.8409386E0,6.493245E1,3.156345E0,1.6561631E0,3.5860453E0,1.8371126E1,1.7407098E0,1.6837604E0,5.0825973E0,1.0369103E1,1.2059448E0,2.6349938E0,2.2073207E0,6.272513E1,1.1840259E0,1.972319E0],"tree_param":{"num_deleted":"0","num_feature":"1446","num_nodes":"41","size_leaf_vector":"1"}},{"base_weights":[3.9037815E-3,-7.7217966E-1,9.373758E-2,-9.3478847E-1,1.7862162E-2,2.583657E-1,-3.467477E-1,-1.0864612E0,6.116138E-3,-2.3215327E-3,6.496235E-1,1.3748549E-1,-6.704333E-1,-2.7489369E-3,-1.269008E0,-2.9513705E-1,6.216084E-1,-6.919373E-1,7.887224E-1,-7.692844E-1,9.1881233E-1,-8.461828E-1,3.8828835E-2,-6.743187E-2,-1.8294334E-2,-5.4442674E-1,3.886431E-1,9.5237744E-1,-2.5326163E-1,-5.4660946E-2,6.244155E-3,9.2401594E-1,-4.3372265E-1,1.6906952E-2,-1.1211826E0,6.691961E-2,-6.3841376E-3,-1.1421608E0,3.4945946E-2,-6.759975E-2,-1.7249707E-2,-4.575371E-2,3.9463352E-2,1.7035149E-2,6.820297E-2,5.11803E-2,-4.6803176E-2,5.044024E-2,-2.8594598E-2,2.8547345E-2,-5.5101372E-2,-9.133703E-3,-6.7134894E-2,-3.309598E-2,-7.5440966E-2,4.421535E-2,-4.51154E-2],"categories":[],"categories_nodes":[],"categories_segments":[],"categories_sizes":[],"default_left":[0,0,0,0,0,0,0,0,0,0,0,0,0,0,0,0,0,0,0,0,0,0,0,0,0,0,0,0,0,0,0,0,0,0,0,0,0,0,0,0,0,0,0,0,0,0,0,0,0,0,0,0,0,0,0,0,0],"id":10,"left_children":[1,3,5,7,-1,9,11,13,-1,15,17,19,21,-1,23,25,27,29,31,33,35,37,-1,-1,-1,39,41,43,45,-1,-1,47,49,-1,51,-1,-1,53,55,-1,-1,-1,-1,-1,-1,-1,-1,-1,-1,-1,-1,-1,-1,-1,-1,-1,-1],"loss_changes":[9.449131E0,2.9163513E0,8.895464E0,2.1479988E0,0E0,9.07597E0,5.33734E0,2.018839E0,0E0,1.0120341E1,7.1850767E0,1.0793501E1,5.8011494E0,0E0,1.8104935E-1,6.63715E0,5.361655E0,1.4066801E0,5.8095856E0,3.159162E0,3.7289019E0,4.8685675E0,0E0,0E0,0E0,4.049711E0,6.2871737E0,2.821476E0,5.879279E0,0E0,0E0,4.3521156E0,3.2741783E0,0E0,9.283433E-1,0E0,0E0,1.4469738E0,5.276479E0,0E0,0E0,0E0,0E0,0E0,0E0,0E0,0E0,0E0,0E0,0E0,0E0,0E0,0E0,0E0,0E0,0E0,0E0],"parents":[2147483647,0,0,1,1,2,2,3,3,5,5,6,6,7,7,9,9,10,10,11,11,12,12,14,14,15,15,16,16,17,17,18,18,19,19,20,20,21,21,25,25,26,26,27,27,28,28,31,31,32,32,34,34,37,37,38,38],"right_children":[2,4,6,8,-1,10,12,14,-1,16,18,20,22,-1,24,26,28,30,32,34,36,38,-1,-1,-1,40,42,44,46,-1,-1,48,50,-1,52,-1,-1,54,56,-1,-1,-1,-1,-1,-1,-1,-1,-1,-1,-1,-1,-1,-1,-1,-1,-1,-1],"split_conditions":[-2.9968176E-2,2.1614354E-2,4.388999E-2,4.109109E-2,1.7862162E-2,2.3359023E-3,-2.162945E-3,-5.9677072E-2,6.116138E-3,2.829223E-2,-9.759191E-2,-1.240355E-2,2.510535E-3,-2.7489369E-3,6.676867E-4,1.5892398E-4,2.507783E-2,5.5550607E-3,7.3113196E-2,-2.5708706E-4,-4.081136E-3,5.135961E-4,3.8828835E-2,-6.743187E-2,-1.8294334E-2,-4.0840868E-2,-5.690878E-3,-1.2222003E-3,3.8860105E-2,-5.4660946E-2,6.244155E-3,4.2946666E-2,-3.6344212E-3,1.6906952E-2,-3.4979219E-3,6.691961E-2,-6.3841376E-3,-3.516895E-4,6.0160627E-4,-6.759975E-2,-1.7249707E-2,-4.575371E-2,3.9463352E-2,1.7035149E-2,6.820297E-2,5.11803E-2,-4.6803176E-2,5.044024E-2,-2.8594598E-2,2.8547345E-2,-5.5101372E-2,-9.133703E-3,-6.7134894E-2,-3.309598E-2,-7.5440966E-2,4.421535E-2,-4.51154E-2],"split_indices":[1434,646,1440,63,0,1443,475,1438,0,486,1445,763,815,0,62,542,1436,175,1441,11,775,506,0,0,0,1436,1015,1435,486,0,0,1182,22,0,44,0,0,395,593,0,0,0,0,0,0,0,0,0,0,0,0,0,0,0,0,0,0],"split_type":[0,0,0,0,0,0,0,0,0,0,0,0,0,0,0,0,0,0,0,0,0,0,0,0,0,0,0,0,0,0,0,0,0,0,0,0,0,0,0,0,0,0,0,0,0,0,0,0,0,0,0,0,0,0,0,0,0],"sum_hessian":[1.3349437E2,1.3061248E1,1.2043312E2,1.1568066E1,1.4931825E0,8.796886E1,3.2464256E1,1.0092277E1,1.4757886E0,5.339015E1,3.4578712E1,1.3236989E1,1.9227268E1,1.7131708E0,8.379106E0,3.6695576E1,1.669457E1,2.8750844E0,3.1703629E1,6.1338053E0,7.1031837E0,1.751515E1,1.7121184E0,7.2468367E0,1.1322691E0,2.7040913E1,9.654663E0,1.2050099E1,4.644471E0,1.7010307E0,1.1740535E0,2.876428E1,2.9393487E0,1.4885231E0,4.6452823E0,4.871204E0,2.2319796E0,1.288929E1,4.62586E0,4.210798E0,2.2830114E1,1.967587E0,7.6870766E0,5.5828E0,6.4673E0,1.4443505E0,3.2001204E0,2.7529516E1,1.2347631E0,1.2323792E0,1.7069696E0,1.2354833E0,3.4097989E0,6.794837E0,6.094453E0,2.4563506E0,2.16951E0],"tree_param":{"num_deleted":"0","num_feature":"1446","num_nodes":"57","size_leaf_vector":"1"}},{"base_weights":[2.3102937E-3,-5.6748223E-2,1.1068972E0,-1.4583221E-1,6.4543873E-1,6.613539E-2,2.25977E-3,1.8103968E-1,-3.5532868E-1,1.1852429E0,9.5670596E-2,-2.4822357E-1,4.184101E-1,-6.0055494E-1,1.6469559E-1,6.803043E-2,7.892805E-3,-5.9884276E-2,6.1150366E-1,1.5948477E-1,-1.0003351E0,8.268112E-1,-1.4623751E-1,5.164337E-2,-6.8109024E-1,-5.4930496E-1,6.1015546E-1,-2.8207881E-2,5.601352E-2,-1.958382E-2,5.8213234E-2,-6.415092E-2,-1.3168004E-2,-9.6224947E-4,5.587685E-2,-6.0573228E-2,1.7106408E-2,-6.633996E-2,-2.346529E-2,6.3650385E-3,-5.69237E-2,5.238266E-2,-2.3765383E-2],"categories":[],"categories_nodes":[],"categories_segments":[],"categories_sizes":[],"default_left":[0,0,0,0,0,0,0,0,0,0,0,0,0,0,0,0,0,0,0,0,0,0,0,0,0,0,0,0,0,0,0,0,0,0,0,0,0,0,0,0,0,0,0],"id":11,"left_children":[1,3,5,7,9,-1,-1,11,13,15,17,19,21,23,25,-1,-1,-1,27,29,31,33,35,-1,37,39,41,-1,-1,-1,-1,-1,-1,-1,-1,-1,-1,-1,-1,-1,-1,-1,-1],"loss_changes":[8.781026E0,8.08917E0,1.5055046E0,7.8871326E0,4.211604E0,0E0,0E0,4.717807E0,9.01991E0,1.0942659E0,6.2751346E0,5.296174E0,6.930709E0,6.9853554E0,7.714834E0,0E0,0E0,0E0,4.5804653E0,6.949386E0,9.175086E-1,4.2734528E0,7.3042817E0,0E0,5.6832237E0,3.908222E0,7.5081534E0,0E0,0E0,0E0,0E0,0E0,0E0,0E0,0E0,0E0,0E0,0E0,0E0,0E0,0E0,0E0,0E0],"parents":[2147483647,0,0,1,1,2,2,3,3,4,4,7,7,8,8,9,9,10,10,11,11,12,12,13,13,14,14,18,18,19,19,20,20,21,21,22,22,24,24,25,25,26,26],"right_children":[2,4,6,8,10,-1,-1,12,14,16,18,20,22,24,26,-1,-1,-1,28,30,32,34,36,-1,38,40,42,-1,-1,-1,-1,-1,-1,-1,-1,-1,-1,-1,-1,-1,-1,-1,-1],"split_conditions":[4.769624E-2,1.2241033E-3,9.45855E-3,-1.7282782E-3,2.5021164E-3,6.613539E-2,2.25977E-3,-3.2591948E-3,1.3268398E-2,2.577065E-2,1.6337728E-2,0E0,6.241685E-4,-4.552676E-2,-1.597887E-3,6.803043E-2,7.892805E-3,-5.9884276E-2,-5.222869E-3,-1.2040191E-3,-1.7927024E-3,-1.1565941E-2,6.5279537E-4,5.164337E-2,-1.3066884E-2,-1.5527174E-4,1.0986089E-2,-2.8207881E-2,5.601352E-2,-1.958382E-2,5.8213234E-2,-6.415092E-2,-1.3168004E-2,-9.6224947E-4,5.587685E-2,-6.0573228E-2,1.7106408E-2,-6.633996E-2,-2.346529E-2,6.3650385E-3,-5.69237E-2,5.238266E-2,-2.3765383E-2],"split_indices":[162,1112,1440,418,381,0,0,1442,820,1440,21,1265,746,492,1435,0,0,0,1435,1265,1036,96,827,0,1444,752,1437,0,0,0,0,0,0,0,0,0,0,0,0,0,0,0,0],"split_type":[0,0,0,0,0,0,0,0,0,0,0,0,0,0,0,0,0,0,0,0,0,0,0,0,0,0,0,0,0,0,0,0,0,0,0,0,0,0,0,0,0,0,0],"sum_hessian":[1.3264261E2,1.2681107E2,5.831533E0,1.13237366E2,1.3573709E1,4.6421022E0,1.1894304E0,4.428167E1,6.8955696E1,6.265686E0,7.3080225E0,1.5751237E1,2.8530432E1,4.6753456E1,2.2202244E1,5.075077E0,1.1906091E0,1.7067686E0,5.6012535E0,1.0725212E1,5.026025E0,1.6286415E1,1.2244016E1,1.6412137E0,4.511224E1,8.440447E0,1.3761797E1,1.6589254E0,3.9423282E0,7.32006E0,3.4051523E0,3.0971274E0,1.9288976E0,4.4039774E0,1.1882438E1,3.383421E0,8.860595E0,9.841537E0,3.5270702E1,4.29359E0,4.146857E0,9.833301E0,3.928496E0],"tree_param":{"num_deleted":"0","num_feature":"1446","num_nodes":"43","size_leaf_vector":"1"}},{"base_weights":[2.420162E-3,-5.4544453E-2,1.0747213E0,5.6789428E-2,-1.0381783E-1,6.435934E-2,2.1988184E-3,-1.7470242E-1,7.3204553E-1,-6.050727E-1,-2.9969212E-2,-5.8956943E-2,6.475233E-2,4.0746376E-1,-7.4558765E-1,-1.4251623E-1,6.872013E-1,-7.008619E-1,4.7077358E-2,5.953586E-2,-3.1487204E-2,-2.2666799E-2,-6.346125E-2,-3.1875942E-3,-6.343054E-2,-3.191716E-2,5.2594747E-2,5.307273E-3,-5.6088902E-2],"categories":[],"categories_nodes":[],"categories_segments":[],"categories_sizes":[],"default_left":[0,0,0,0,0,0,0,0,0,0,0,0,0,0,0,0,0,0,0,0,0,0,0,0,0,0,0,0,0],"id":12,"left_children":[1,3,5,-1,7,-1,-1,9,11,13,15,17,-1,19,21,23,25,27,-1,-1,-1,-1,-1,-1,-1,-1,-1,-1,-1],"loss_changes":[8.1742115E0,7.573187E0,1.4217033E0,0E0,7.4141126E0,0E0,0E0,7.0932875E0,4.443376E0,4.3842964E0,7.0788813E0,3.892809E0,0E0,4.1145287E0,3.3328514E0,6.62321E0,6.4258204E0,1.355436E0,0E0,0E0,0E0,0E0,0E0,0E0,0E0,0E0,0E0,0E0,0E0],"parents":[2147483647,0,0,1,1,2,2,4,4,7,7,8,8,9,9,10,10,11,11,13,13,14,14,15,15,16,16,17,17],"right_children":[2,4,6,-1,8,-1,-1,10,12,14,16,18,-1,20,22,24,26,28,-1,-1,-1,-1,-1,-1,-1,-1,-1,-1,-1],"split_conditions":[4.769624E-2,-4.5445357E-2,9.45855E-3,5.6789428E-2,1.935168E-3,6.435934E-2,2.1988184E-3,-2.6760347E-2,2.872284E-3,-2.4080675E-2,3.68851E-2,-2.1836502E-3,6.475233E-2,-1.3740823E-3,-2.6628333E-3,3.1450436E-2,-1.360644E-3,1.1829458E-3,4.7077358E-2,5.953586E-2,-3.1487204E-2,-2.2666799E-2,-6.346125E-2,-3.1875942E-3,-6.343054E-2,-3.191716E-2,5.2594747E-2,5.307273E-3,-5.6088902E-2],"split_indices":[162,501,1440,0,1376,0,0,1444,772,457,1128,1435,0,923,1438,1341,941,32,0,0,0,0,0,0,0,0,0,0,0],"split_type":[0,0,0,0,0,0,0,0,0,0,0,0,0,0,0,0,0,0,0,0,0,0,0,0,0,0,0,0,0],"sum_hessian":[1.318612E2,1.2611087E2,5.7503433E0,4.1363072E0,1.2197456E2,4.5613327E0,1.189011E0,1.1316841E2,8.806148E0,2.768004E1,8.548837E1,4.0339003E0,4.7722473E0,3.1416738E0,2.4538368E1,7.458489E1,1.0903479E1,2.6397665E0,1.394134E0,1.7056441E0,1.4360296E0,1.6946152E1,7.5922165E0,7.0696655E1,3.8882427E0,2.190685E0,8.712793E0,1.1612213E0,1.4785451E0],"tree_param":{"num_deleted":"0","num_feature":"1446","num_nodes":"29","size_leaf_vector":"1"}},{"base_weights":[2.9555112E-3,7.5109905E-1,-7.5511456E-2,9.962279E-1,-2.585857E-2,-1.4048004E-1,9.15678E-1,-2.9583782E-2,6.432415E-2,1.417613E-1,-3.2435936E-1,6.402786E-2,-1.9276027E-2,-1.6998017E-2,1.0677551E0,-5.700978E-1,1.5285572E-1,-5.344172E-1,2.7228802E-1,6.943494E-2,-1.1804774E-2,-1.3233795E0,-3.812669E-1,-1.039599E0,4.303621E-1,-4.7305744E-2,1.8414678E-2,-3.803163E-2,2.1452779E-2,-1.9922508E-2,-7.0253514E-2,4.7048237E-2,-2.2852404E-2,-6.529519E-2,-6.059322E-3,3.0750444E-2,-5.7710458E-2],"categories":[],"categories_nodes":[],"categories_segments":[],"categories_sizes":[],"default_left":[0,0,0,0,0,0,0,0,0,0,0,0,0,0,0,0,0,0,0,0,0,0,0,0,0,0,0,0,0,0,0,0,0,0,0,0,0],"id":13,"left_children":[1,3,5,7,-1,9,11,-1,-1,13,15,-1,-1,17,19,21,23,25,27,-1,-1,29,31,33,35,-1,-1,-1,-1,-1,-1,-1,-1,-1,-1,-1,-1],"loss_changes":[7.824045E0,4.4483604E0,7.89874E0,5.805152E0,0E0,5.9678736E0,4.0808153E0,0E0,0E0,6.7378707E0,8.225262E0,0E0,0E0,6.133366E0,3.1338487E0,6.041362E0,8.514097E0,5.8052807E0,4.588443E0,0E0,0E0,1.06505394E-1,4.2577405E0,1.038897E0,6.702665E0,0E0,0E0,0E0,0E0,0E0,0E0,0E0,0E0,0E0,0E0,0E0,0E0],"parents":[2147483647,0,0,1,1,2,2,3,3,5,5,6,6,9,9,10,10,13,13,14,14,15,15,16,16,17,17,18,18,21,21,22,22,23,23,24,24],"right_children":[2,4,6,8,-1,10,12,-1,-1,14,16,-1,-1,18,20,22,24,26,28,-1,-1,30,32,34,36,-1,-1,-1,-1,-1,-1,-1,-1,-1,-1,-1,-1],"split_conditions":[-8.615172E-3,3.7656724E-2,4.6092834E-2,-1.972607E-1,-2.585857E-2,-1.0835335E-3,1.8303434E-3,-2.9583782E-2,6.432415E-2,8.19901E-4,1.1818004E-2,6.402786E-2,-1.9276027E-2,-2.8249389E-3,5.067279E-4,-2.3366837E-2,-2.0181173E-3,2.534473E-4,-8.518009E-2,6.943494E-2,-1.1804774E-2,-5.6694425E-3,-4.5169964E-2,9.861789E-3,4.4337206E-2,-4.7305744E-2,1.8414678E-2,-3.803163E-2,2.1452779E-2,-1.9922508E-2,-7.0253514E-2,4.7048237E-2,-2.2852404E-2,-6.529519E-2,-6.059322E-3,3.0750444E-2,-5.7710458E-2],"split_indices":[998,1444,579,1444,0,397,953,0,0,943,1042,0,0,1442,44,1445,1280,1379,1444,0,0,970,801,1442,799,0,0,0,0,0,0,0,0,0,0,0,0],"split_type":[0,0,0,0,0,0,0,0,0,0,0,0,0,0,0,0,0,0,0,0,0,0,0,0,0,0,0,0,0,0,0,0,0,0,0,0,0],"sum_hessian":[1.313122E2,1.165124E1,1.1966096E2,9.943817E0,1.7074231E0,1.131056E2,6.555358E0,1.3762531E0,8.567564E0,4.4709232E1,6.839637E1,5.132092E0,1.4232659E0,3.9003777E1,5.7054563E0,4.5019344E1,2.3377024E1,1.3682961E1,2.5320814E1,4.526243E0,1.1792132E0,7.819124E0,3.7200222E1,3.8947837E0,1.9482239E1,9.364176E0,4.318785E0,2.8289912E0,2.2491823E1,1.1115319E0,6.7075925E0,1.3976225E0,3.5802597E1,2.6922262E0,1.2025578E0,1.7996967E1,1.4852726E0],"tree_param":{"num_deleted":"0","num_feature":"1446","num_nodes":"37","size_leaf_vector":"1"}},{"base_weights":[2.1079169E-3,-6.9842756E-1,8.19925E-2,-8.7069476E-1,1.6738718E-2,2.357818E-1,-3.2652366E-1,1.7852938E-2,-1.0385584E0,1.02817856E-1,8.910397E-1,-1.0439967E0,-1.3689983E-1,-3.3463085E-1,-6.472584E-2,-1.0722764E-1,4.9034384E-1,1.0672157E0,-2.9571647E-2,-5.0973995E-3,-6.1430354E-2,-2.735155E-1,5.5188756E-2,-4.3533653E-2,1.4085076E-2,-3.5431522E-1,4.5442736E-1,-4.8938435E-2,6.0123926E-1,1.3330965E0,2.7252787E-1,9.897947E-2,-9.1418546E-1,4.002313E-2,-2.2639103E-2,1.6419663E-3,6.0220666E-2,-3.6204882E-2,3.626752E-2,6.9952965E-2,2.0257732E-2,-3.2677755E-2,4.0036652E-2,-4.451709E-2,2.4446225E-2,-2.4653736E-3,-6.441644E-2],"categories":[],"categories_nodes":[],"categories_segments":[],"categories_sizes":[],"default_left":[0,0,0,0,0,0,0,0,0,0,0,0,0,0,0,0,0,0,0,0,0,0,0,0,0,0,0,0,0,0,0,0,0,0,0,0,0,0,0,0,0,0,0,0,0,0,0],"id":14,"left_children":[1,3,5,7,-1,9,11,-1,13,15,17,19,21,23,-1,25,27,29,-1,-1,-1,31,-1,-1,-1,33,35,-1,37,39,41,43,45,-1,-1,-1,-1,-1,-1,-1,-1,-1,-1,-1,-1,-1,-1],"loss_changes":[7.4161687E0,2.7059407E0,7.548996E0,2.8242884E0,0E0,7.4870725E0,4.339543E0,0E0,1.4998341E0,6.03067E0,4.4294796E0,1.0463066E0,4.9139905E0,1.6359792E0,0E0,6.884558E0,4.8234315E0,2.4584818E0,0E0,0E0,0E0,6.131345E0,0E0,0E0,0E0,4.252156E0,4.7791224E0,0E0,4.6028147E0,2.995491E-2,2.7759092E0,6.9584303E0,2.9795475E0,0E0,0E0,0E0,0E0,0E0,0E0,0E0,0E0,0E0,0E0,0E0,0E0,0E0,0E0],"parents":[2147483647,0,0,1,1,2,2,3,3,5,5,6,6,8,8,9,9,10,10,11,11,12,12,13,13,15,15,16,16,17,17,21,21,25,25,26,26,28,28,29,29,30,30,31,31,32,32],"right_children":[2,4,6,8,-1,10,12,-1,14,16,18,20,22,24,-1,26,28,30,-1,-1,-1,32,-1,-1,-1,34,36,-1,38,40,42,44,46,-1,-1,-1,-1,-1,-1,-1,-1,-1,-1,-1,-1,-1,-1],"split_conditions":[-2.9968176E-2,5.0543487E-2,4.388999E-2,-1.3667072E-1,1.6738718E-2,1.2085512E-3,5.6924806E-3,1.7852938E-2,-9.2026025E-2,2.3359023E-3,7.7482216E-2,-2.8973306E-2,2.7760942E-3,-2.884984E-3,-6.472584E-2,2.5129473E-2,-4.6381854E-2,2.9785845E-3,-2.9571647E-2,-5.0973995E-3,-6.1430354E-2,8.721987E-4,5.5188756E-2,-4.3533653E-2,1.4085076E-2,-4.645981E-2,1.4653672E-4,-4.8938435E-2,-9.759191E-2,4.880918E-2,2.6751936E-3,-1.240355E-2,3.518718E-3,4.002313E-2,-2.2639103E-2,1.6419663E-3,6.0220666E-2,-3.6204882E-2,3.626752E-2,6.9952965E-2,2.0257732E-2,-3.2677755E-2,4.0036652E-2,-4.451709E-2,2.4446225E-2,-2.4653736E-3,-6.441644E-2],"split_indices":[1434,1440,1440,1441,0,5,1437,0,1434,1443,1442,4,818,753,0,411,828,59,0,0,0,1133,0,0,0,12,809,0,1445,3,425,763,10,0,0,0,0,0,0,0,0,0,0,0,0,0,0],"split_type":[0,0,0,0,0,0,0,0,0,0,0,0,0,0,0,0,0,0,0,0,0,0,0,0,0,0,0,0,0,0,0,0,0,0,0,0,0,0,0,0,0,0,0,0,0,0,0],"sum_hessian":[1.3049825E2,1.2565354E1,1.1793289E2,1.0904514E1,1.6608402E0,8.5985695E1,3.1947197E1,1.1760219E0,9.728493E0,7.244266E1,1.3543041E1,5.736517E0,2.621068E1,3.2094207E0,6.5190716E0,4.744823E1,2.4994425E1,1.2354904E1,1.1881365E0,1.1943084E0,4.5422087E0,2.4313019E1,1.8976603E0,1.4958062E0,1.7136145E0,3.3208187E1,1.4240043E1,1.2049905E0,2.3789434E1,8.749913E0,3.6049917E0,1.5908873E1,8.404146E0,2.0490086E0,3.1159178E1,9.78398E0,4.4560623E0,1.6230637E0,2.216637E1,7.695197E0,1.0547156E0,1.2231587E0,2.3818328E0,4.1349444E0,1.1773929E1,2.8795354E0,5.524611E0],"tree_param":{"num_deleted":"0","num_feature":"1446","num_nodes":"47","size_leaf_vector":"1"}},{"base_weights":[1.5594674E-3,-5.1151615E-2,1.0106602E0,5.3457476E-2,-9.6693866E-2,6.1142135E-2,1.017233E-3,-1.6081841E-1,6.7459625E-1,2.613103E-1,-2.931912E-1,-7.4539885E-2,6.1045617E-2,-5.865894E-2,4.1603574E-1,-5.0022644E-1,8.9716986E-2,-6.8574107E-1,4.4693805E-2,-4.890465E-2,2.811431E-2,-2.8618617E-2,5.3456735E-2,-2.2060275E-2,1.9303551E-2,4.4949427E-3,-5.392328E-2],"categories":[],"categories_nodes":[],"categories_segments":[],"categories_sizes":[],"default_left":[0,0,0,0,0,0,0,0,0,0,0,0,0,0,0,0,0,0,0,0,0,0,0,0,0,0,0],"id":15,"left_children":[1,3,5,-1,7,-1,-1,9,11,13,15,17,-1,-1,19,21,23,25,-1,-1,-1,-1,-1,-1,-1,-1,-1],"loss_changes":[7.0021963E0,6.4879518E0,1.348311E0,0E0,6.1011353E0,0E0,0E0,6.3725414E0,3.9760947E0,6.575394E0,6.8820524E0,3.5403516E0,0E0,0E0,5.748041E0,6.967222E0,5.066015E0,1.1929449E0,0E0,0E0,0E0,0E0,0E0,0E0,0E0,0E0,0E0],"parents":[2147483647,0,0,1,1,2,2,4,4,7,7,8,8,9,9,10,10,11,11,14,14,15,15,16,16,17,17],"right_children":[2,4,6,-1,8,-1,-1,10,12,14,16,18,-1,-1,20,22,24,26,-1,-1,-1,-1,-1,-1,-1,-1,-1],"split_conditions":[4.769624E-2,-4.5445357E-2,9.45855E-3,5.3457476E-2,1.935168E-3,6.1142135E-2,1.017233E-3,-9.198478E-3,2.872284E-3,-4.309097E-2,9.719994E-3,-2.1836502E-3,6.1045617E-2,-5.865894E-2,-2.1010028E-2,4.593387E-2,-1.8049553E-3,2.7153445E-3,4.4693805E-2,-4.890465E-2,2.811431E-2,-2.8618617E-2,5.3456735E-2,-2.2060275E-2,1.9303551E-2,4.4949427E-3,-5.392328E-2],"split_indices":[162,501,1440,0,1376,0,0,532,772,73,1306,1435,0,0,1437,1113,1439,845,0,0,0,0,0,0,0,0,0],"split_type":[0,0,0,0,0,0,0,0,0,0,0,0,0,0,0,0,0,0,0,0,0,0,0,0,0,0,0],"sum_hessian":[1.296711E2,1.2413607E2,5.535025E0,3.971227E0,1.2016484E2,4.3649917E0,1.1700335E0,1.11672005E2,8.492842E0,2.6426252E1,8.524575E1,3.9457664E0,4.5470753E0,1.9319987E0,2.4494253E1,5.5130672E1,3.0115078E1,2.597983E0,1.3477838E0,1.7855688E0,2.2708685E1,5.3314987E1,1.8156854E0,1.0612985E1,1.9502094E1,1.1324526E0,1.4655303E0],"tree_param":{"num_deleted":"0","num_feature":"1446","num_nodes":"27","size_leaf_vector":"1"}},{"base_weights":[2.4059056E-3,7.069745E-1,-6.995349E-2,9.461203E-1,-2.4292497E-2,-1.292477E-1,8.55149E-1,-2.7636169E-2,6.1259385E-2,-1.1230043E0,-8.07418E-2,6.0665715E-2,-1.86665E-2,-6.41387E-2,-1.4146472E-2,-1.274007E-1,9.351228E-1,-2.2336401E-1,4.2937896E-1,5.8915734E-2,2.8154014E-3,-4.891864E-3,-4.288789E-2,3.6169793E-2,-3.2942683E-2],"categories":[],"categories_nodes":[],"categories_segments":[],"categories_sizes":[],"default_left":[0,0,0,0,0,0,0,0,0,0,0,0,0,0,0,0,0,0,0,0,0,0,0,0,0],"id":16,"left_children":[1,3,5,7,-1,9,11,-1,-1,13,15,-1,-1,-1,-1,17,19,21,23,-1,-1,-1,-1,-1,-1],"loss_changes":[6.677515E0,3.939351E0,6.6275883E0,5.069293E0,0E0,5.333205E0,3.659522E0,0E0,0E0,3.2952213E-1,5.2554135E0,0E0,0E0,0E0,0E0,5.6785245E0,9.762764E-1,7.065636E0,5.500905E0,0E0,0E0,0E0,0E0,0E0,0E0],"parents":[2147483647,0,0,1,1,2,2,3,3,5,5,6,6,9,9,10,10,15,15,16,16,17,17,18,18],"right_children":[2,4,6,8,-1,10,12,-1,-1,14,16,-1,-1,-1,-1,18,20,22,24,-1,-1,-1,-1,-1,-1],"split_conditions":[-8.615172E-3,3.7656724E-2,4.6092834E-2,-1.972607E-1,-2.4292497E-2,-5.8168685E-3,1.8303434E-3,-2.7636169E-2,6.1259385E-2,4.794172E-3,3.2192245E-3,6.0665715E-2,-1.86665E-2,-6.41387E-2,-1.4146472E-2,2.0059992E-2,4.025757E-3,7.3102624E-3,3.063302E-2,5.8915734E-2,2.8154014E-3,-4.891864E-3,-4.288789E-2,3.6169793E-2,-3.2942683E-2],"split_indices":[998,1444,579,1444,0,1001,953,0,0,173,173,0,0,0,0,1207,173,175,969,0,0,0,0,0,0],"split_type":[0,0,0,0,0,0,0,0,0,0,0,0,0,0,0,0,0,0,0,0,0,0,0,0,0],"sum_hessian":[1.2900745E2,1.1198316E1,1.1780912E2,9.500427E0,1.6978886E0,1.1152147E2,6.287652E0,1.3373017E0,8.163125E0,4.159173E0,1.073623E2,4.87785E0,1.4098018E0,3.0517917E0,1.1073813E0,1.0348385E2,3.8784485E0,8.8780914E1,1.4702935E1,2.770873E0,1.1075754E0,7.5079285E1,1.3701628E1,1.1839433E1,2.8635023E0],"tree_param":{"num_deleted":"0","num_feature":"1446","num_nodes":"25","size_leaf_vector":"1"}},{"base_weights":[2.281955E-3,-6.54548E-1,7.644349E-2,-8.2636446E-1,1.7089346E-2,2.21982E-1,-3.0799004E-1,1.6887045E-2,-9.896347E-1,9.7740054E-2,8.467706E-1,-1.0013148E0,-1.2558657E-1,-1.1196643E0,2.2016107E-3,5.1937026E-1,-7.25514E-2,1.0190319E0,-2.8495407E-2,-4.883459E-3,-5.89973E-2,-2.5424948E-1,5.256787E-2,-1.4066634E-2,-6.373047E-2,-5.286885E-2,6.915402E-1,-7.734145E-1,1.1528957E-1,1.279407E0,2.4554528E-1,1.00176394E-1,-8.695942E-1,4.307549E-2,-4.232016E-2,-5.184902E-2,4.2172134E-2,-1.7929029E-2,3.05863E-2,6.731497E-2,1.7999817E-2,-3.0648187E-2,3.7536394E-2,-4.3230105E-2,2.4027953E-2,-1.5722354E-3,-6.1863985E-2],"categories":[],"categories_nodes":[],"categories_segments":[],"categories_sizes":[],"default_left":[0,0,0,0,0,0,0,0,0,0,0,0,0,0,0,0,0,0,0,0,0,0,0,0,0,0,0,0,0,0,0,0,0,0,0,0,0,0,0,0,0,0,0,0,0,0,0],"id":17,"left_children":[1,3,5,7,-1,9,11,-1,13,15,17,19,21,23,-1,25,27,29,-1,-1,-1,31,-1,-1,-1,-1,33,35,37,39,41,43,45,-1,-1,-1,-1,-1,-1,-1,-1,-1,-1,-1,-1,-1,-1],"loss_changes":[6.3543177E0,2.5480537E0,6.624912E0,2.5353136E0,0E0,6.56085E0,3.9969947E0,0E0,1.448575E0,5.2446446E0,4.0133324E0,9.5767164E-1,4.3488016E0,8.4752464E-1,0E0,6.4282928E0,7.0053406E0,2.2837582E0,0E0,0E0,0E0,5.561777E0,0E0,0E0,0E0,0E0,5.8330336E0,5.661824E0,1.0170416E1,9.426689E-2,2.40585E0,6.5899296E0,2.8202028E0,0E0,0E0,0E0,0E0,0E0,0E0,0E0,0E0,0E0,0E0,0E0,0E0,0E0,0E0],"parents":[2147483647,0,0,1,1,2,2,3,3,5,5,6,6,8,8,9,9,10,10,11,11,12,12,13,13,15,15,16,16,17,17,21,21,26,26,27,27,28,28,29,29,30,30,31,31,32,32],"right_children":[2,4,6,8,-1,10,12,-1,14,16,18,20,22,24,-1,26,28,30,-1,-1,-1,32,-1,-1,-1,-1,34,36,38,40,42,44,46,-1,-1,-1,-1,-1,-1,-1,-1,-1,-1,-1,-1,-1,-1],"split_conditions":[-2.9968176E-2,5.0543487E-2,4.388999E-2,-1.3667072E-1,1.7089346E-2,1.2085512E-3,5.6924806E-3,1.6887045E-2,2.2892088E-3,-7.0832064E-3,7.7482216E-2,-2.0149471E-2,2.7760942E-3,-4.4956756E-1,2.2016107E-3,-4.147283E-2,-1.7407235E-2,2.9785845E-3,-2.8495407E-2,-4.883459E-3,-5.89973E-2,8.721987E-4,5.256787E-2,-1.4066634E-2,-6.373047E-2,-5.286885E-2,1.2068299E-3,4.656354E-2,2.2851615E-3,4.880918E-2,2.6751936E-3,-1.240355E-2,3.518718E-3,4.307549E-2,-4.232016E-2,-5.184902E-2,4.2172134E-2,-1.7929029E-2,3.05863E-2,6.731497E-2,1.7999817E-2,-3.0648187E-2,3.7536394E-2,-4.3230105E-2,2.4027953E-2,-1.5722354E-3,-6.1863985E-2],"split_indices":[1434,1440,1440,1441,0,5,1437,0,590,397,1442,748,818,1436,0,67,1440,59,0,0,0,1133,0,0,0,0,137,30,1096,3,425,763,10,0,0,0,0,0,0,0,0,0,0,0,0,0,0],"split_type":[0,0,0,0,0,0,0,0,0,0,0,0,0,0,0,0,0,0,0,0,0,0,0,0,0,0,0,0,0,0,0,0,0,0,0,0,0,0,0,0,0,0,0,0,0,0,0],"sum_hessian":[1.2842075E2,1.2234745E1,1.16186005E2,1.0580712E1,1.6540326E0,8.458607E1,3.1599941E1,1.1700118E0,9.410701E0,7.152036E1,1.30657E1,5.6467614E0,2.595318E1,8.285264E0,1.1254371E0,1.998614E1,5.1534225E1,1.1899471E1,1.1662284E0,1.1873008E0,4.4594603E0,2.4102303E1,1.8508766E0,1.7316804E0,6.553583E0,1.461364E0,1.8524775E1,1.0233626E1,4.1300602E1,8.413273E0,3.4861982E0,1.5824767E1,8.277536E0,1.7077267E1,1.4475068E0,9.107626E0,1.1260006E0,2.1272636E1,2.0027964E1,7.4098573E0,1.0034155E0,1.2124335E0,2.2737648E0,4.1149325E0,1.1709834E1,2.855001E0,5.4225354E0],"tree_param":{"num_deleted":"0","num_feature":"1446","num_nodes":"47","size_leaf_vector":"1"}},{"base_weights":[1.231658E-3,-4.717862E-2,9.4866544E-1,5.082937E-2,-8.9854375E-2,5.8217812E-2,-5.0593674E-4,-1.25771E-1,5.550775E-2,-7.713163E-2,-6.5776765E-2,-1.5024939E-1,4.9850214E-1,1.1863506E-2,-1.5081959E-2,5.1756155E-2,6.413947E-4],"categories":[],"categories_nodes":[],"categories_segments":[],"categories_sizes":[],"default_left":[0,0,0,0,0,0,0,0,0,0,0,0,0,0,0,0,0],"id":18,"left_children":[1,3,5,-1,7,-1,-1,9,-1,11,-1,13,15,-1,-1,-1,-1],"loss_changes":[5.9392433E0,5.6852474E0,1.3135667E0,0E0,5.2852783E0,0E0,0E0,6.6586394E0,0E0,4.843205E0,0E0,6.0139456E0,3.3748417E0,0E0,0E0,0E0,0E0],"parents":[2147483647,0,0,1,1,2,2,4,4,7,7,9,9,11,11,12,12],"right_children":[2,4,6,-1,8,-1,-1,10,-1,12,-1,14,16,-1,-1,-1,-1],"split_conditions":[4.769624E-2,-4.5445357E-2,9.45855E-3,5.082937E-2,4.593387E-2,5.8217812E-2,-5.0593674E-4,4.4615936E-2,5.550775E-2,1.2241033E-3,-6.5776765E-2,-5.701222E-3,2.5021164E-3,1.1863506E-2,-1.5081959E-2,5.1756155E-2,6.413947E-4],"split_indices":[162,501,1440,0,1113,0,0,1344,0,1112,0,280,381,0,0,0,0],"split_type":[0,0,0,0,0,0,0,0,0,0,0,0,0,0,0,0,0],"sum_hessian":[1.27516685E2,1.2222182E2,5.294868E0,3.8339088E0,1.1838791E2,4.147439E0,1.1474288E0,1.1581667E2,2.5712347E0,1.1229088E2,3.5257926E0,1.00290794E2,1.2000085E1,2.8014215E1,7.227658E1,5.163561E0,6.836524E0],"tree_param":{"num_deleted":"0","num_feature":"1446","num_nodes":"17","size_leaf_vector":"1"}},{"base_weights":[2.3675417E-3,-6.276481E-1,7.314978E-2,-7.890941E-1,1.8953359E-2,1.2462329E-1,-9.061828E-1,-9.4497824E-1,9.394891E-3,7.539912E-1,5.5730876E-2,-5.650531E-3,-6.2161036E-2,2.3412209E-3,-1.141026E0,1.025072E0,-2.2807375E-2,-8.598643E-3,8.764712E-1,-1.4574449E-2,-6.083667E-2,-1.0224623E-2,6.0893387E-2,9.2923903E-1,-6.415878E-2,6.0797997E-2,-1.7138164E-2,5.7783958E-2,1.1366721E-3,-3.5332542E-4,-4.711304E-2],"categories":[],"categories_nodes":[],"categories_segments":[],"categories_sizes":[],"default_left":[0,0,0,0,0,0,0,0,0,0,0,0,0,0,0,0,0,0,0,0,0,0,0,0,0,0,0,0,0,0,0],"id":19,"left_children":[1,3,5,7,-1,9,11,13,-1,15,17,-1,-1,-1,19,21,-1,23,25,-1,-1,-1,-1,27,29,-1,-1,-1,-1,-1,-1],"loss_changes":[5.7562323E0,2.418169E0,5.961144E0,1.9381924E0,0E0,4.7751102E0,1.4405046E0,2.0242043E0,0E0,4.037243E0,5.3516273E0,0E0,0E0,0E0,1.9216537E-1,2.429494E0,0E0,5.0019855E0,3.465918E0,0E0,0E0,0E0,0E0,1.0759344E0,4.5294547E0,0E0,0E0,0E0,0E0,0E0,0E0],"parents":[2147483647,0,0,1,1,2,2,3,3,5,5,6,6,7,7,9,9,10,10,14,14,15,15,17,17,18,18,23,23,24,24],"right_children":[2,4,6,8,-1,10,12,14,-1,16,18,-1,-1,-1,20,22,-1,24,26,-1,-1,-1,-1,28,30,-1,-1,-1,-1,-1,-1],"split_conditions":[-2.9968176E-2,2.1614354E-2,8.796895E-2,4.109109E-2,1.8953359E-2,-8.615172E-3,-4.369821E-4,-5.9677072E-2,9.394891E-3,3.7656724E-2,4.509279E-2,-5.650531E-3,-6.2161036E-2,2.3412209E-3,-3.701182E-2,-1.0456578E-2,-2.2807375E-2,-5.6769894E-3,1.8303434E-3,-1.4574449E-2,-6.083667E-2,-1.0224623E-2,6.0893387E-2,2.8276492E-2,4.2996313E-2,6.0797997E-2,-1.7138164E-2,5.7783958E-2,1.1366721E-3,-3.5332542E-4,-4.711304E-2],"split_indices":[1434,646,1438,63,0,998,155,1438,0,1444,378,0,0,0,0,1437,0,86,953,0,0,0,0,832,939,0,0,0,0,0,0],"split_type":[0,0,0,0,0,0,0,0,0,0,0,0,0,0,0,0,0,0,0,0,0,0,0,0,0,0,0,0,0,0,0],"sum_hessian":[1.27051544E2,1.2037889E1,1.1501366E2,1.0560483E1,1.4774053E0,1.10099594E2,4.9140644E0,9.135615E0,1.4248676E0,9.881598E0,1.00217995E2,1.863613E0,3.0504513E0,1.6334044E0,7.502211E0,8.19809E0,1.6835083E0,9.3851456E1,6.3665414E0,1.0107261E0,6.4914846E0,1.1029978E0,7.0950923E0,4.36957E0,8.948189E1,4.9820147E0,1.3845267E0,3.2762964E0,1.0932732E0,8.496565E1,4.516234E0],"tree_param":{"num_deleted":"0","num_feature":"1446","num_nodes":"31","size_leaf_vector":"1"}},{"base_weights":[2.0597323E-3,-4.360568E-2,9.122265E-1,-4.8755884E-1,5.4286644E-2,5.6473978E-2,-1.1037581E-3,2.9628143E-1,-6.4893246E-1,-9.19923E-2,3.9730835E-1,4.2022016E-2,-2.7596632E-2,-8.8123894E-1,6.778439E-2,1.6169775E-1,-4.3905652E-1,6.1112624E-1,-3.90245E-1,-1.1270075E0,-8.219204E-2,4.11236E-2,-6.1784714E-1,4.2986822E-1,-2.1516544E-1,4.4005148E-2,-5.482065E-1,8.2514846E-1,-8.968338E-2,-4.7186594E-2,1.2949932E-1,2.1904532E-3,-6.3243836E-2,3.39241E-2,-4.962905E-2,3.3997087E-4,-4.537008E-2,9.561265E-3,6.826774E-2,-2.1642894E-2,4.5639906E-2,-6.5570205E-2,-1.7641226E-2,-1.1041666E-2,5.0303217E-2,-3.7212346E-2,3.4391392E-2,4.0938634E-2,-2.8778706E-2],"categories":[],"categories_nodes":[],"categories_segments":[],"categories_sizes":[],"default_left":[0,0,0,0,0,0,0,0,0,0,0,0,0,0,0,0,0,0,0,0,0,0,0,0,0,0,0,0,0,0,0,0,0,0,0,0,0,0,0,0,0,0,0,0,0,0,0,0,0],"id":20,"left_children":[1,3,5,7,9,-1,-1,11,13,15,17,-1,-1,19,21,23,25,27,29,31,33,-1,35,37,39,-1,41,43,45,-1,47,-1,-1,-1,-1,-1,-1,-1,-1,-1,-1,-1,-1,-1,-1,-1,-1,-1,-1],"loss_changes":[5.3356104E0,5.3408623E0,1.2698126E0,2.9994216E0,5.108979E0,0E0,0E0,2.5295498E0,3.1760921E0,6.3823023E0,5.359267E0,0E0,0E0,2.697321E0,3.3593645E0,4.351531E0,4.8797E0,3.719657E0,2.1656947E0,1.7965412E0,3.7346852E0,0E0,6.3165987E-1,5.3101087E0,4.860885E0,0E0,3.8350382E0,3.7642384E0,3.8649132E0,0E0,2.6789951E0,0E0,0E0,0E0,0E0,0E0,0E0,0E0,0E0,0E0,0E0,0E0,0E0,0E0,0E0,0E0,0E0,0E0,0E0],"parents":[2147483647,0,0,1,1,2,2,3,3,4,4,7,7,8,8,9,9,10,10,13,13,14,14,15,15,16,16,17,17,18,18,19,19,20,20,22,22,23,23,24,24,26,26,27,27,28,28,30,30],"right_children":[2,4,6,8,10,-1,-1,12,14,16,18,-1,-1,20,22,24,26,28,30,32,34,-1,36,38,40,-1,42,44,46,-1,48,-1,-1,-1,-1,-1,-1,-1,-1,-1,-1,-1,-1,-1,-1,-1,-1,-1,-1],"split_conditions":[4.769624E-2,-5.560278E-2,9.45855E-3,-2.5226343E-3,5.651465E-4,5.6473978E-2,-1.1037581E-3,1.1065966E-3,1.8525772E-3,-1.4053307E-4,1.5858272E-2,4.2022016E-2,-2.7596632E-2,1.0772534E-2,6.2199467E-4,1.0755617E-3,-1.3095676E-2,1.8981414E-2,-8.7899924E-4,-1.1420884E-1,2.4668835E-2,4.11236E-2,9.481936E-4,-8.73545E-5,-3.445256E-4,4.4005148E-2,-1.777914E-4,-3.253327E-2,-2.554296E-3,-4.7186594E-2,6.8131665E-4,2.1904532E-3,-6.3243836E-2,3.39241E-2,-4.962905E-2,3.3997087E-4,-4.537008E-2,9.561265E-3,6.826774E-2,-2.1642894E-2,4.5639906E-2,-6.5570205E-2,-1.7641226E-2,-1.1041666E-2,5.0303217E-2,-3.7212346E-2,3.4391392E-2,4.0938634E-2,-2.8778706E-2],"split_indices":[162,1444,1440,515,1322,0,0,17,620,1091,1438,0,0,1138,569,63,1443,1444,239,1439,445,0,2,753,929,0,827,280,256,0,752,0,0,0,0,0,0,0,0,0,0,0,0,0,0,0,0,0,0],"split_type":[0,0,0,0,0,0,0,0,0,0,0,0,0,0,0,0,0,0,0,0,0,0,0,0,0,0,0,0,0,0,0,0,0,0,0,0,0,0,0,0,0,0,0,0,0,0,0,0,0],"sum_hessian":[1.2641655E2,1.2128354E2,5.1330175E0,2.1192501E1,1.00091034E2,3.9951286E0,1.1378889E0,3.4754076E0,1.7717094E1,7.068134E1,2.9409693E1,2.1227527E0,1.3526549E0,1.320686E1,4.5102344E0,4.1142166E1,2.9539177E1,2.330617E1,6.103522E0,9.78636E0,3.4204998E0,2.0519886E0,2.4582458E0,2.395528E1,1.7186884E1,1.7175893E0,2.7821589E1,1.7717846E1,5.588325E0,2.560756E0,3.542766E0,1.1028603E0,8.683499E0,2.0022538E0,1.4182459E0,1.0878909E0,1.3703548E0,2.0045961E1,3.9093187E0,1.4923045E1,2.2638392E0,4.506476E0,2.3315111E1,2.5801022E0,1.5137743E1,3.0572774E0,2.5310476E0,1.7099124E0,1.8328536E0],"tree_param":{"num_deleted":"0","num_feature":"1446","num_nodes":"49","size_leaf_vector":"1"}},{"base_weights":[2.387974E-3,6.4424926E-1,-6.0761824E-2,8.771787E-1,-2.2309182E-2,-1.1137763E-1,7.6694614E-1,-2.5405532E-2,5.728479E-2,-1.0657024E0,-6.51687E-2,5.6016237E-2,-1.7901799E-2,-6.0691576E-2,-1.3798281E-2,-1.0907093E-1,8.951195E-1,-1.9845213E-1,4.085581E-1,5.65269E-2,2.3091717E-3,-4.1443235E-3,-3.937742E-2,3.4146827E-2,-3.02254E-2],"categories":[],"categories_nodes":[],"categories_segments":[],"categories_sizes":[],"default_left":[0,0,0,0,0,0,0,0,0,0,0,0,0,0,0,0,0,0,0,0,0,0,0,0,0],"id":21,"left_children":[1,3,5,7,-1,9,11,-1,-1,13,15,-1,-1,-1,-1,17,19,21,23,-1,-1,-1,-1,-1,-1],"loss_changes":[5.172142E0,3.2943664E0,4.953918E0,4.210664E0,0E0,4.7982683E0,3.113779E0,0E0,0E0,2.5378132E-1,4.581238E0,0E0,0E0,0E0,0E0,4.8276453E0,8.987298E-1,5.936515E0,4.7027826E0,0E0,0E0,0E0,0E0,0E0,0E0],"parents":[2147483647,0,0,1,1,2,2,3,3,5,5,6,6,9,9,10,10,15,15,16,16,17,17,18,18],"right_children":[2,4,6,8,-1,10,12,-1,-1,14,16,-1,-1,-1,-1,18,20,22,24,-1,-1,-1,-1,-1,-1],"split_conditions":[-8.615172E-3,3.7656724E-2,4.6092834E-2,-1.972607E-1,-2.2309182E-2,-5.8168685E-3,1.8303434E-3,-2.5405532E-2,5.728479E-2,4.794172E-3,3.2192245E-3,5.6016237E-2,-1.7901799E-2,-6.0691576E-2,-1.3798281E-2,2.0059992E-2,4.025757E-3,7.3102624E-3,3.063302E-2,5.65269E-2,2.3091717E-3,-4.1443235E-3,-3.937742E-2,3.4146827E-2,-3.02254E-2],"split_indices":[998,1444,579,1444,0,1001,953,0,0,173,173,0,0,0,0,1207,173,175,969,0,0,0,0,0,0],"split_type":[0,0,0,0,0,0,0,0,0,0,0,0,0,0,0,0,0,0,0,0,0,0,0,0,0],"sum_hessian":[1.2563618E2,1.0429339E1,1.1520683E2,8.754782E0,1.6745573E0,1.0938329E2,5.8235426E0,1.2765794E0,7.478203E0,4.032839E0,1.0535046E2,4.4346676E0,1.3888749E0,2.9436898E0,1.0891491E0,1.015923E2,3.7581542E0,8.715883E1,1.4433472E1,2.6825457E0,1.0756084E0,7.381827E1,1.334056E1,1.1613852E1,2.81962E0],"tree_param":{"num_deleted":"0","num_feature":"1446","num_nodes":"25","size_leaf_vector":"1"}},{"base_weights":[2.2780537E-3,-5.9354615E-1,6.832442E-2,-7.6440567E-1,1.7619254E-2,1.1775408E-1,-8.7019897E-1,-1.0360167E0,1.9312853E-2,3.4954995E-1,-4.863708E-2,-5.4440508E-3,-5.987811E-2,-5.872316E-2,-1.0074368E-2,4.2043816E-2,-4.086226E-2,5.296334E-2,7.615871E-1,-1.1145917E0,7.951826E-2,2.405564E-1,-1.0060306E0,8.824174E-1,-3.127022E-2,-1.4389591E-2,-6.537509E-2,-1.0419186E-1,5.0990295E-1,-1.4230238E-2,2.6130721E-2,-6.37771E-2,-6.719718E-3,-1.6016757E-2,5.1876247E-2,1.1192255E-2,-2.4090758E-2,-7.17814E-3,4.5605537E-2],"categories":[],"categories_nodes":[],"categories_segments":[],"categories_sizes":[],"default_left":[0,0,0,0,0,0,0,0,0,0,0,0,0,0,0,0,0,0,0,0,0,0,0,0,0,0,0,0,0,0,0,0,0,0,0,0,0,0,0],"id":22,"left_children":[1,3,5,7,-1,9,11,13,15,17,19,-1,-1,-1,-1,-1,-1,21,23,25,27,29,31,33,-1,-1,-1,35,37,-1,-1,-1,-1,-1,-1,-1,-1,-1,-1],"loss_changes":[4.9995475E0,2.3184128E0,5.406721E0,2.3730278E0,0E0,4.240221E0,1.3250484E0,7.139225E-1,3.3172147E0,5.5662246E0,8.916218E0,0E0,0E0,0E0,0E0,0E0,0E0,5.755072E0,3.7574034E0,7.404833E-1,4.6878324E0,3.7603645E0,8.549528E-1,3.6920738E0,0E0,0E0,0E0,5.2997394E0,4.7845E0,0E0,0E0,0E0,0E0,0E0,0E0,0E0,0E0,0E0,0E0],"parents":[2147483647,0,0,1,1,2,2,3,3,5,5,6,6,7,7,8,8,9,9,10,10,17,17,18,18,19,19,20,20,21,21,22,22,23,23,27,27,28,28],"right_children":[2,4,6,8,-1,10,12,14,16,18,20,-1,-1,-1,-1,-1,-1,22,24,26,28,30,32,34,-1,-1,-1,36,38,-1,-1,-1,-1,-1,-1,-1,-1,-1,-1],"split_conditions":[-2.9968176E-2,5.0543487E-2,8.796895E-2,1.2706657E-3,1.7619254E-2,-1.2895088E-3,-4.369821E-4,9.204673E-3,2.026394E-3,-8.385682E-3,-1.2150496E-3,-5.4440508E-3,-5.987811E-2,-5.872316E-2,-1.0074368E-2,4.2043816E-2,-4.086226E-2,-7.1581975E-3,4.4357914E-2,-5.516208E-3,1.7876782E-4,-6.593609E-2,-3.7893062E-3,-4.323046E-2,-3.127022E-2,-1.4389591E-2,-6.537509E-2,-1.8818E-4,-9.555255E-4,-1.4230238E-2,2.6130721E-2,-6.37771E-2,-6.719718E-3,-1.6016757E-2,5.1876247E-2,1.1192255E-2,-2.4090758E-2,-7.17814E-3,4.5605537E-2],"split_indices":[1434,1440,1438,389,0,415,155,55,389,829,1225,0,0,0,0,0,0,1084,924,13,845,1436,49,162,0,0,0,1091,1434,0,0,0,0,0,0,0,0,0,0],"split_type":[0,0,0,0,0,0,0,0,0,0,0,0,0,0,0,0,0,0,0,0,0,0,0,0,0,0,0,0,0,0,0,0,0,0,0,0,0,0,0],"sum_hessian":[1.2501626E2,1.1678068E1,1.1333819E2,1.0053964E1,1.6241037E0,1.0849838E2,4.8398046E0,7.2272973E0,2.8266668E0,4.487844E1,6.3619946E1,1.8560244E0,2.9837804E0,5.8495364E0,1.3777608E0,1.4235101E0,1.4031568E0,2.6751268E1,1.8127172E1,6.0017915E0,5.7618153E1,2.3382137E1,3.369131E0,1.7009176E1,1.117995E0,1.6068373E0,4.394954E0,4.0912518E1,1.6705635E1,8.167016E0,1.5215121E1,2.2194772E0,1.1496538E0,1.8212652E0,1.5187912E1,2.211163E1,1.8800888E1,6.609791E0,1.0095845E1],"tree_param":{"num_deleted":"0","num_feature":"1446","num_nodes":"39","size_leaf_vector":"1"}},{"base_weights":[3.6651193E-4,7.541368E-1,-4.9489986E-2,9.657225E-1,-1.5225087E-2,-1.2780519E-1,4.167037E-1,5.6105472E-2,5.2517722E-3,2.33871E-1,-2.5767577E-1,-5.7508457E-1,6.016619E-1,-7.64925E-2,8.5058165E-1,-8.0333465E-1,-9.771761E-2,-2.712229E-3,-4.084487E-2,7.743838E-1,-3.1137979E-2,-4.302514E-1,6.171019E-1,1.0791498E0,-2.3411222E-2,-1.2450105E0,-4.7089466E-1,-5.6039345E-1,6.8410754E-2,-2.5880734E-2,9.368549E-1,-5.2533817E-2,2.0133143E-3,-2.7275482E-2,4.7474306E-2,4.0932777E-3,6.1251152E-2,-6.802948E-2,-1.6835889E-2,2.2443067E-2,-5.1859405E-2,2.5723094E-2,-3.7722304E-2,2.270483E-2,-1.3395697E-2,5.5472363E-2,4.135708E-3],"categories":[],"categories_nodes":[],"categories_segments":[],"categories_sizes":[],"default_left":[0,0,0,0,0,0,0,0,0,0,0,0,0,0,0,0,0,0,0,0,0,0,0,0,0,0,0,0,0,0,0,0,0,0,0,0,0,0,0,0,0,0,0,0,0,0,0],"id":23,"left_children":[1,3,5,7,-1,9,11,-1,-1,13,15,17,19,21,23,25,27,-1,-1,29,-1,31,33,35,-1,37,39,41,43,-1,45,-1,-1,-1,-1,-1,-1,-1,-1,-1,-1,-1,-1,-1,-1,-1,-1],"loss_changes":[4.7454863E0,2.048832E0,4.3778205E0,7.932224E-1,0E0,4.859663E0,3.51416E0,0E0,0E0,5.332588E0,6.5250697E0,3.6197424E-1,3.66403E0,4.982575E0,3.3073573E0,1.911685E0,4.622855E0,0E0,0E0,3.346198E0,0E0,3.930827E0,3.1859748E0,1.0962906E0,0E0,2.4497795E-1,6.3589168E0,3.697609E0,5.930075E0,0E0,1.745656E0,0E0,0E0,0E0,0E0,0E0,0E0,0E0,0E0,0E0,0E0,0E0,0E0,0E0,0E0,0E0,0E0],"parents":[2147483647,0,0,1,1,2,2,3,3,5,5,6,6,9,9,10,10,11,11,12,12,13,13,14,14,15,15,16,16,19,19,21,21,22,22,23,23,25,25,26,26,27,27,28,28,30,30],"right_children":[2,4,6,8,-1,10,12,-1,-1,14,16,18,20,22,24,26,28,-1,-1,30,-1,32,34,36,-1,38,40,42,44,-1,46,-1,-1,-1,-1,-1,-1,-1,-1,-1,-1,-1,-1,-1,-1,-1,-1],"split_conditions":[-3.1307798E-3,2.541889E-2,1.2085512E-3,1.2133444E-1,-1.5225087E-2,-7.1604364E-3,-1.3830636E-1,5.6105472E-2,5.2517722E-3,-1.1512481E-2,-2.1412214E-3,1.9785296E-3,1.8170342E-2,3.1241984E-4,7.755737E-3,-1.4874871E-3,-4.873916E-2,-2.712229E-3,-4.084487E-2,-3.4170717E-2,-3.1137979E-2,-4.496774E-3,-5.9215506E-3,-9.602262E-3,-2.3411222E-2,-3.0761145E-3,-5.277744E-4,-2.7301328E-3,-4.6165605E-6,-2.5880734E-2,1.8288791E-2,-5.2533817E-2,2.0133143E-3,-2.7275482E-2,4.7474306E-2,4.0932777E-3,6.1251152E-2,-6.802948E-2,-1.6835889E-2,2.2443067E-2,-5.1859405E-2,2.5723094E-2,-3.7722304E-2,2.270483E-2,-1.3395697E-2,5.5472363E-2,4.135708E-3],"split_indices":[1034,754,5,1445,0,703,1444,0,0,847,1021,59,1438,1178,1084,53,1436,0,0,64,0,1442,1435,1096,0,106,382,280,719,0,280,0,0,0,0,0,0,0,0,0,0,0,0,0,0,0,0],"split_type":[0,0,0,0,0,0,0,0,0,0,0,0,0,0,0,0,0,0,0,0,0,0,0,0,0,0,0,0,0,0,0,0,0,0,0,0,0,0,0,0,0,0,0,0,0,0,0],"sum_hessian":[1.2428261E2,6.8340373E0,1.1744857E2,5.768817E0,1.0652201E0,1.0117773E2,1.6270847E1,4.6247606E0,1.1440563E0,2.6520386E1,7.465734E1,2.2258832E0,1.4044964E1,1.8224672E1,8.295713E0,1.6012474E1,5.8644863E1,1.0939506E0,1.1319326E0,1.2630767E1,1.4141966E0,1.2320459E1,5.904213E0,7.2252035E0,1.07051E0,5.697617E0,1.03148575E1,1.4866806E1,4.3778057E1,1.166742E0,1.1464025E1,4.7819524E0,7.538507E0,1.1701318E0,4.7340813E0,1.1211948E0,6.1040087E0,4.612695E0,1.0849223E0,4.009737E0,6.30512E0,2.0210557E0,1.2845751E1,2.022944E1,2.3548616E1,9.2882805E0,2.1757448E0],"tree_param":{"num_deleted":"0","num_feature":"1446","num_nodes":"47","size_leaf_vector":"1"}},{"base_weights":[-4.2547504E-4,6.111935E-1,-5.9279248E-2,8.4101665E-1,-2.1269469E-2,-4.0250933E-1,5.0320946E-2,-2.380489E-2,5.5072952E-2,7.7554666E-2,-6.5859526E-1,-6.7747526E-2,5.9933025E-1,-4.2362553E-1,9.7036487E-1,-1.0584755E0,2.8189123E-1,-1.7418039E-1,5.888957E-1,8.597557E-1,-5.4668295E-1,-1.0060464E0,6.7261213E-1,5.905158E-2,1.1385552E-2,-1.1672556E0,6.1785206E-3,6.927367E-1,-2.6047667E-2,-2.8726434E-2,-5.705814E-1,1.0299289E0,-2.2268534E-1,1.0671831E0,-1.3014075E-2,-4.751969E-2,8.256002E-3,-6.1220374E-2,-5.1346254E-3,4.6197522E-2,3.1631365E-3,-6.854543E-3,-6.397073E-2,-7.1844645E-3,5.437072E-2,-7.543558E-3,6.357881E-2,3.4093913E-2,-3.641526E-2,6.270449E-2,-5.331719E-3,-5.5099096E-2,5.0237197E-2,-9.26051E-3,6.1254602E-2],"categories":[],"categories_nodes":[],"categories_segments":[],"categories_sizes":[],"default_left":[0,0,0,0,0,0,0,0,0,0,0,0,0,0,0,0,0,0,0,0,0,0,0,0,0,0,0,0,0,0,0,0,0,0,0,0,0,0,0,0,0,0,0,0,0,0,0,0,0,0,0,0,0,0,0],"id":24,"left_children":[1,3,5,7,-1,9,11,-1,-1,13,15,17,19,21,23,25,27,29,31,33,35,37,39,-1,-1,41,-1,43,-1,45,47,49,51,53,-1,-1,-1,-1,-1,-1,-1,-1,-1,-1,-1,-1,-1,-1,-1,-1,-1,-1,-1,-1,-1],"loss_changes":[4.516023E0,2.98134E0,4.3252473E0,3.7317924E0,0E0,3.4698887E0,5.7208476E0,0E0,0E0,5.140144E0,7.158334E0,5.205727E0,5.1292887E0,5.442916E0,3.7309408E-1,1.8169851E0,2.4163213E0,3.6509972E0,3.9564471E0,3.3234491E0,1.1632822E0,9.149327E-1,4.3000937E-1,0E0,0E0,1.2120934E0,0E0,1.6587279E0,0E0,7.7494817E0,3.859017E0,1.897862E0,5.9514985E0,2.4531488E0,0E0,0E0,0E0,0E0,0E0,0E0,0E0,0E0,0E0,0E0,0E0,0E0,0E0,0E0,0E0,0E0,0E0,0E0,0E0,0E0,0E0],"parents":[2147483647,0,0,1,1,2,2,3,3,5,5,6,6,9,9,10,10,11,11,12,12,13,13,14,14,15,15,16,16,17,17,18,18,19,19,20,20,21,21,22,22,25,25,27,27,29,29,30,30,31,31,32,32,33,33],"right_children":[2,4,6,8,-1,10,12,-1,-1,14,16,18,20,22,24,26,28,30,32,34,36,38,40,-1,-1,42,-1,44,-1,46,48,50,52,54,-1,-1,-1,-1,-1,-1,-1,-1,-1,-1,-1,-1,-1,-1,-1,-1,-1,-1,-1,-1,-1],"split_conditions":[-8.615172E-3,3.7656724E-2,-1.840268E-2,-1.972607E-1,-2.1269469E-2,-5.4008737E-3,1.1154196E-3,-2.380489E-2,5.5072952E-2,3.2003145E-3,1.631837E-2,4.000277E-2,2.9879222E-2,-9.602262E-3,2.3950508E-3,4.503717E-2,3.0019034E-2,2.2153931E-3,4.387333E-2,1.64893E-2,-1.1165538E-3,2.5751998E-4,-1.2813745E-1,5.905158E-2,1.1385552E-2,-1.0788642E-1,6.1785206E-3,1.8254349E-2,-2.6047667E-2,1.3411033E-4,-2.2422101E-2,4.6028323E-2,4.4732098E-2,-3.4974586E-2,-1.3014075E-2,-4.751969E-2,8.256002E-3,-6.1220374E-2,-5.1346254E-3,4.6197522E-2,3.1631365E-3,-6.854543E-3,-6.397073E-2,-7.1844645E-3,5.437072E-2,-7.543558E-3,6.357881E-2,3.4093913E-2,-3.641526E-2,6.270449E-2,-5.331719E-3,-5.5099096E-2,5.0237197E-2,-9.26051E-3,6.1254602E-2],"split_indices":[998,1444,1445,1444,0,382,1091,0,0,32,1156,201,1434,1096,593,354,67,1425,819,1438,404,170,1436,0,0,1440,0,202,0,1410,754,78,48,211,0,0,0,0,0,0,0,0,0,0,0,0,0,0,0,0,0,0,0,0,0],"split_type":[0,0,0,0,0,0,0,0,0,0,0,0,0,0,0,0,0,0,0,0,0,0,0,0,0,0,0,0,0,0,0,0,0,0,0,0,0,0,0,0,0,0,0,0,0,0,0,0,0,0,0,0,0,0,0],"sum_hessian":[1.2345221E2,1.001277E1,1.1343944E2,8.350111E0,1.6626585E0,2.6809326E1,8.663011E1,1.241836E0,7.108275E0,9.568733E0,1.7240595E1,7.2018585E1,1.4611524E1,6.465071E0,3.1036618E0,1.2009069E1,5.231525E0,6.260579E1,9.412799E0,1.2109491E1,2.502032E0,4.275703E0,2.189368E0,1.9579655E0,1.1456963E0,1.1008502E1,1.0005676E0,3.5513263E0,1.6801987E0,4.6584652E1,1.6021135E1,5.92433E0,3.4884684E0,1.0257098E1,1.8523933E0,1.382648E0,1.1193839E0,3.1571476E0,1.1185554E0,1.1845051E0,1.0048629E0,1.2990634E0,9.709438E0,1.3423872E0,2.208939E0,4.339252E1,3.1921308E0,1.4202129E0,1.4600923E1,4.8620067E0,1.0623237E0,2.092012E0,1.3964565E0,1.1291102E0,9.127988E0],"tree_param":{"num_deleted":"0","num_feature":"1446","num_nodes":"55","size_leaf_vector":"1"}},{"base_weights":[6.6278747E-4,7.255663E-1,-4.6862062E-2,9.349879E-1,-1.5209583E-2,-3.4815153E-1,6.936288E-2,5.4398317E-2,5.473714E-3,-4.7372344E-1,4.3392748E-2,1.0825533E0,-2.211161E-3,-3.7266266E-2,-7.731856E-1,-2.8588993E-3,6.845951E-2,-1.3443217E-1,4.6173975E-1,-4.213613E-1,6.034794E-1,-1.0577278E0,-1.04577154E-1,2.2459468E-1,-5.237594E-1,-6.09253E-1,7.268328E-1,-4.1672897E-2,1.7527431E-2,4.812857E-2,-2.0709155E-2,-1.4365907E-3,-5.947102E-2,-4.3763675E-2,3.0928E-2,-2.3421157E-2,2.0456193E-2,2.5052605E-2,-3.4010883E-2,2.251087E-2,-5.624425E-2,4.4409435E-2,-1.4656867E-2],"categories":[],"categories_nodes":[],"categories_segments":[],"categories_sizes":[],"default_left":[0,0,0,0,0,0,0,0,0,0,0,0,0,0,0,0,0,0,0,0,0,0,0,0,0,0,0,0,0,0,0,0,0,0,0,0,0,0,0,0,0,0,0],"id":25,"left_children":[1,3,5,7,-1,9,11,-1,-1,13,-1,15,17,19,21,-1,-1,23,25,27,29,31,33,35,37,39,41,-1,-1,-1,-1,-1,-1,-1,-1,-1,-1,-1,-1,-1,-1,-1,-1],"loss_changes":[4.28595E0,1.9350929E0,4.11299E0,7.1516514E-1,0E0,5.3998218E0,6.173353E0,0E0,0E0,3.9261937E0,0E0,1.9132137E0,4.9989605E0,3.543252E0,3.2939892E0,0E0,0E0,8.980226E0,5.574355E0,3.1373315E0,2.3792496E0,1.65207E0,4.1372757E0,4.499432E0,5.266266E0,2.7627206E0,2.7198477E0,0E0,0E0,0E0,0E0,0E0,0E0,0E0,0E0,0E0,0E0,0E0,0E0,0E0,0E0,0E0,0E0],"parents":[2147483647,0,0,1,1,2,2,3,3,5,5,6,6,9,9,11,11,12,12,13,13,14,14,17,17,18,18,19,19,20,20,21,21,22,22,23,23,24,24,25,25,26,26],"right_children":[2,4,6,8,-1,10,12,-1,-1,14,-1,16,18,20,22,-1,-1,24,26,28,30,32,34,36,38,40,42,-1,-1,-1,-1,-1,-1,-1,-1,-1,-1,-1,-1,-1,-1,-1,-1],"split_conditions":[-3.1307798E-3,2.486706E-2,-4.161499E-4,1.2133444E-1,-1.5209583E-2,4.5690294E-2,-2.800036E-4,5.4398317E-2,5.473714E-3,-9.513306E-4,4.3392748E-2,-6.689336E-3,1.1932578E-2,-7.005081E-4,4.2513818E-1,-2.8588993E-3,6.845951E-2,-1.4429138E-3,-2.7205248E-4,6.2310707E-2,1.9324595E-1,-4.0605716E-2,-5.948804E-4,-7.536929E-2,-4.2468674E-2,-6.4817205E-4,3.061763E-3,-4.1672897E-2,1.7527431E-2,4.812857E-2,-2.0709155E-2,-1.4365907E-3,-5.947102E-2,-4.3763675E-2,3.0928E-2,-2.3421157E-2,2.0456193E-2,2.5052605E-2,-3.4010883E-2,2.251087E-2,-5.624425E-2,4.4409435E-2,-1.4656867E-2],"split_indices":[1034,904,17,1445,0,1239,17,0,0,587,0,1439,853,713,1444,0,0,280,746,1436,1445,420,95,1444,0,1440,23,0,0,0,0,0,0,0,0,0,0,0,0,0,0,0,0],"split_type":[0,0,0,0,0,0,0,0,0,0,0,0,0,0,0,0,0,0,0,0,0,0,0,0,0,0,0,0,0,0,0,0,0,0,0,0,0,0,0,0,0,0,0],"sum_hessian":[1.2242044E2,6.654302E0,1.15766136E2,5.6062016E0,1.0481004E0,3.167073E1,8.4095406E1,4.461501E0,1.1447005E0,2.9259636E1,2.4110937E0,4.616734E0,7.947867E1,1.2363967E1,1.689567E1,1.0886289E0,3.5281053E0,6.240435E1,1.7074322E1,7.944203E0,4.419764E0,1.1443592E1,5.452077E0,3.2685658E1,2.971869E1,3.1301315E0,1.394419E1,5.127219E0,2.8169835E0,3.3069942E0,1.11277E0,1.4366128E0,1.000698E1,2.537407E0,2.9146702E0,6.549579E0,2.613608E1,3.6445014E0,2.6074188E1,1.0662231E0,2.0639083E0,1.2151124E1,1.793066E0],"tree_param":{"num_deleted":"0","num_feature":"1446","num_nodes":"43","size_leaf_vector":"1"}},{"base_weights":[1.1737422E-3,-5.4554886E-1,6.0664326E-2,-7.159228E-1,1.7722229E-2,1.9950919E-1,-2.5043964E-1,-1.0469733E0,-7.844248E-2,-2.5114128E-3,5.353615E-1,-1.0481305E-1,-5.7840116E-2,-1.4367983E-2,-5.6407508E-2,-3.4382306E-2,3.4822933E-2,-2.2068182E-1,4.9280006E-1,-6.3588476E-1,6.710664E-1,6.4483297E-1,-4.1531792E-1,-9.783243E-2,-5.709668E-2,6.90996E-1,-3.1424586E-2,-4.5182787E-2,9.270697E-4,8.052783E-1,-4.450899E-1,-1.093116E-1,5.8276564E-2,-9.4210917E-1,-8.046788E-2,-1.0882761E-2,5.9282403E-2,4.933046E-2,-1.2513997E-2,4.4421986E-2,-2.4164971E-2,-4.5225695E-2,1.3641114E-2,3.350101E-2,-4.9908865E-2,-5.666087E-3,-5.9273142E-2,-3.2057684E-2,3.6923002E-2],"categories":[],"categories_nodes":[],"categories_segments":[],"categories_sizes":[],"default_left":[0,0,0,0,0,0,0,0,0,0,0,0,0,0,0,0,0,0,0,0,0,0,0,0,0,0,0,0,0,0,0,0,0,0,0,0,0,0,0,0,0,0,0,0,0,0,0,0,0],"id":26,"left_children":[1,3,5,7,-1,9,11,13,15,17,19,21,-1,-1,-1,-1,-1,23,25,27,29,31,33,35,-1,37,-1,-1,-1,39,41,43,-1,45,47,-1,-1,-1,-1,-1,-1,-1,-1,-1,-1,-1,-1,-1,-1],"loss_changes":[4.017322E0,2.112391E0,4.860897E0,2.1386533E0,0E0,5.264036E0,4.473592E0,9.791422E-2,2.6872096E0,5.449985E0,5.0579166E0,7.5051794E0,0E0,0E0,0E0,0E0,0E0,3.8498688E0,3.861897E0,6.368952E-1,4.342905E0,3.8572423E0,3.9097123E0,5.1761403E0,0E0,4.0264354E0,0E0,0E0,0E0,3.0118723E0,1.4008504E0,3.9895515E0,0E0,1.6177545E0,7.3181987E0,0E0,0E0,0E0,0E0,0E0,0E0,0E0,0E0,0E0,0E0,0E0,0E0,0E0,0E0],"parents":[2147483647,0,0,1,1,2,2,3,3,5,5,6,6,7,7,8,8,9,9,10,10,11,11,17,17,18,18,19,19,20,20,21,21,22,22,23,23,25,25,29,29,30,30,31,31,33,33,34,34],"right_children":[2,4,6,8,-1,10,12,14,16,18,20,22,-1,-1,-1,-1,-1,24,26,28,30,32,34,36,-1,38,-1,-1,-1,40,42,44,-1,46,48,-1,-1,-1,-1,-1,-1,-1,-1,-1,-1,-1,-1,-1,-1],"split_conditions":[-2.9968176E-2,5.0543487E-2,3.4308266E-2,2.815806E-3,1.7722229E-2,2.3359023E-3,1.6682282E-3,-3.6432503E-3,-2.921488E-3,2.5129473E-2,-9.759191E-2,-5.404805E-3,-5.7840116E-2,-1.4367983E-2,-5.6407508E-2,-3.4382306E-2,3.4822933E-2,2.323619E-2,1.9676E-3,5.3976604E-4,7.3113196E-2,-1.240355E-2,-1.3025681E-3,1.0343542E-2,-5.709668E-2,4.352352E-2,-3.1424586E-2,-4.5182787E-2,9.270697E-4,3.8003884E-2,6.9193234E-4,-2.0741008E-2,5.8276564E-2,-5.7013356E-4,-2.9564212E-4,-1.0882761E-2,5.9282403E-2,4.933046E-2,-1.2513997E-2,4.4421986E-2,-2.4164971E-2,-4.5225695E-2,1.3641114E-2,3.350101E-2,-4.9908865E-2,-5.666087E-3,-5.9273142E-2,-3.2057684E-2,3.6923002E-2],"split_indices":[1434,1440,1440,443,0,1443,20,68,764,411,1445,142,0,0,0,0,0,1044,1438,62,1441,763,1343,9,0,456,0,0,0,754,1322,850,0,824,182,0,0,0,0,0,0,0,0,0,0,0,0,0,0],"split_type":[0,0,0,0,0,0,0,0,0,0,0,0,0,0,0,0,0,0,0,0,0,0,0,0,0,0,0,0,0,0,0,0,0,0,0,0,0,0,0,0,0,0,0,0,0,0,0,0,0],"sum_hessian":[1.2149794E2,1.1121377E1,1.10376564E2,9.52312E0,1.5982572E0,7.656467E1,3.3811897E1,5.8452535E0,3.6778667E0,4.842735E1,2.8137314E1,3.0092531E1,3.7193687E0,1.0026698E0,4.8425837E0,2.122121E0,1.5557455E0,3.400402E1,1.4423331E1,2.5388794E0,2.5598434E1,8.498365E0,2.1594166E1,3.0979132E1,3.024888E0,1.2582957E1,1.8403734E0,1.531429E0,1.0074502E0,2.309938E1,2.4990528E0,3.7937784E0,4.7045865E0,7.687129E0,1.3907036E1,2.9093452E1,1.88568E0,9.539013E0,3.0439444E0,2.1990686E1,1.108694E0,1.3653693E0,1.1336834E0,2.1526258E0,1.6411527E0,2.0774932E0,5.609636E0,8.3839655E0,5.5230703E0],"tree_param":{"num_deleted":"0","num_feature":"1446","num_nodes":"49","size_leaf_vector":"1"}},{"base_weights":[-4.1514845E-4,5.8609825E-1,-5.5597905E-2,8.1083554E-1,-1.975251E-2,-9.050095E-1,-1.5534824E-2,-2.1995014E-2,5.3085543E-2,-5.62084E-2,-6.802366E-3,2.7758442E-2,-8.027516E-1,-3.2818818E-1,1.4053696E-1,-3.8415254E-3,-5.610428E-2,-4.8719993E-1,6.7883855E-1,-5.3767806E-1,2.085422E-1,-2.4309182E-3,-4.956489E-2,5.1479317E-2,-6.756309E-3,-4.658869E-2,7.177607E-3,4.390392E-3,3.692601E-2],"categories":[],"categories_nodes":[],"categories_segments":[],"categories_sizes":[],"default_left":[0,0,0,0,0,0,0,0,0,0,0,0,0,0,0,0,0,0,0,0,0,0,0,0,0,0,0,0,0],"id":27,"left_children":[1,3,5,7,-1,9,11,-1,-1,-1,-1,13,15,17,19,-1,-1,21,23,25,27,-1,-1,-1,-1,-1,-1,-1,-1],"loss_changes":[3.9652624E0,2.6434686E0,3.7963803E0,3.2596364E0,0E0,6.940527E-1,3.70124E0,0E0,0E0,0E0,0E0,4.19236E0,1.225965E0,4.358174E0,3.762011E0,0E0,0E0,4.8828535E0,1.2376223E0,2.1449401E0,4.5833797E0,0E0,0E0,0E0,0E0,0E0,0E0,0E0,0E0],"parents":[2147483647,0,0,1,1,2,2,3,3,5,5,6,6,11,11,12,12,13,13,14,14,17,17,18,18,19,19,20,20],"right_children":[2,4,6,8,-1,10,12,-1,-1,-1,-1,14,16,18,20,-1,-1,22,24,26,28,-1,-1,-1,-1,-1,-1,-1,-1],"split_conditions":[-8.615172E-3,3.7656724E-2,-5.8168685E-3,-1.972607E-1,-1.975251E-2,4.794172E-3,8.796895E-2,-2.1995014E-2,5.3085543E-2,-5.62084E-2,-6.802366E-3,-1.8807203E-2,-3.4301437E-4,2.3140682E-2,-5.044591E-2,-3.8415254E-3,-5.610428E-2,-1.8290946E-3,6.824316E-4,-2.2772145E-3,1.1154196E-3,-2.4309182E-3,-4.956489E-2,5.1479317E-2,-6.756309E-3,-4.658869E-2,7.177607E-3,4.390392E-3,3.692601E-2],"split_indices":[998,1444,1001,1444,0,173,1438,0,0,0,0,1445,1091,178,1440,0,0,103,1238,1439,1091,0,0,0,0,0,0,0,0],"split_type":[0,0,0,0,0,0,0,0,0,0,0,0,0,0,0,0,0,0,0,0,0,0,0,0,0,0,0,0,0],"sum_hessian":[1.20508575E2,9.53579E0,1.10972786E2,7.8998685E0,1.6359216E0,4.0259323E0,1.0694685E2,1.1939555E0,6.705913E0,2.7735322E0,1.2524004E0,1.0228632E2,4.660534E0,2.4151234E1,7.8135086E1,1.8028435E0,2.8576906E0,2.1303555E1,2.8476787E0,6.4912763E0,7.164381E1,1.1978402E1,9.325153E0,1.8049848E0,1.0426939E0,3.8792984E0,2.6119778E0,5.9300285E1,1.2343526E1],"tree_param":{"num_deleted":"0","num_feature":"1446","num_nodes":"29","size_leaf_vector":"1"}},{"base_weights":[-1.3684438E-3,7.3849535E-1,-4.3760285E-2,9.835766E-1,-1.5160531E-2,-3.3528578E-1,6.9597855E-2,6.8084374E-3,5.7281453E-2,-4.5516273E-1,4.1863125E-2,1.0334651E0,1.5213204E-3,-8.967966E-1,-1.8291382E-1,-2.8650498E-3,6.5492444E-2,-1.1941409E-1,4.311282E-1,-1.0611218E0,1.8178418E-2,1.3770568E-1,-9.3874484E-1,8.012992E-2,-7.262058E-1,-5.889414E-1,6.833251E-1,-6.2944874E-2,-6.8314484E-4,4.9208235E-2,-7.730005E-3,5.2862796E-3,-5.989936E-2,2.5871783E-2,-6.0670436E-3,2.7527122E-2,-5.1253874E-2,2.0861594E-2,-5.3613734E-2,4.1756935E-2,-1.3403808E-2],"categories":[],"categories_nodes":[],"categories_segments":[],"categories_sizes":[],"default_left":[0,0,0,0,0,0,0,0,0,0,0,0,0,0,0,0,0,0,0,0,0,0,0,0,0,0,0,0,0,0,0,0,0,0,0,0,0,0,0,0,0],"id":28,"left_children":[1,3,5,7,-1,9,11,-1,-1,13,-1,15,17,19,21,-1,-1,23,25,27,-1,29,31,33,35,37,39,-1,-1,-1,-1,-1,-1,-1,-1,-1,-1,-1,-1,-1,-1],"loss_changes":[3.8224428E0,1.9844053E0,3.8315756E0,6.1059284E-1,0E0,4.940324E0,5.4972425E0,0E0,0E0,3.4520264E0,0E0,1.7412429E0,4.1701965E0,2.7081823E0,4.9424624E0,0E0,0E0,7.6432505E0,4.938149E0,2.0907068E0,0E0,3.8185084E0,1.7631273E0,4.295515E0,6.5177956E0,2.408224E0,2.332487E0,0E0,0E0,0E0,0E0,0E0,0E0,0E0,0E0,0E0,0E0,0E0,0E0,0E0,0E0],"parents":[2147483647,0,0,1,1,2,2,3,3,5,5,6,6,9,9,11,11,12,12,13,13,14,14,17,17,18,18,19,19,21,21,22,22,23,23,24,24,25,25,26,26],"right_children":[2,4,6,8,-1,10,12,-1,-1,14,-1,16,18,20,22,-1,-1,24,26,28,-1,30,32,34,36,38,40,-1,-1,-1,-1,-1,-1,-1,-1,-1,-1,-1,-1,-1,-1],"split_conditions":[-3.2285724E-3,3.1776525E-2,-4.161499E-4,-2.3320103E-2,-1.5160531E-2,4.5690294E-2,-2.800036E-4,6.8084374E-3,5.7281453E-2,-1.0116968E-3,4.1863125E-2,-6.689336E-3,1.1932578E-2,2.3998704E-3,-2.8987773E-4,-2.8650498E-3,6.5492444E-2,2.7602847E-4,-2.7205248E-4,4.7330126E-1,1.8178418E-2,2.9801487E-3,-4.8675656E-2,0E0,-4.325127E-2,-6.4817205E-4,3.061763E-3,-6.2944874E-2,-6.8314484E-4,4.9208235E-2,-7.730005E-3,5.2862796E-3,-5.989936E-2,2.5871783E-2,-6.0670436E-3,2.7527122E-2,-5.1253874E-2,2.0861594E-2,-5.3613734E-2,4.1756935E-2,-1.3403808E-2],"split_indices":[1316,799,17,67,0,1239,17,0,0,1363,0,1439,853,1229,1370,0,0,280,746,1444,0,10,174,833,0,1440,23,0,0,0,0,0,0,0,0,0,0,0,0,0,0],"split_type":[0,0,0,0,0,0,0,0,0,0,0,0,0,0,0,0,0,0,0,0,0,0,0,0,0,0,0,0,0,0,0,0,0,0,0,0,0,0,0,0,0],"sum_hessian":[1.1984247E2,5.604612E0,1.14237854E2,4.5823326E0,1.0222791E0,3.1435856E1,8.2802E1,1.0310454E0,3.5512874E0,2.9075138E1,2.3607166E0,4.5268784E0,7.827512E1,1.0213341E1,1.8861797E1,1.0754035E0,3.451475E0,6.1644173E1,1.663095E1,9.175174E0,1.038167E0,1.3818059E1,5.043739E0,4.7042236E1,1.4601937E1,3.0320141E0,1.3598936E1,7.548119E0,1.6270542E0,2.93936E0,1.0878699E1,1.1206974E0,3.9230413E0,1.434253E1,3.2699707E1,2.6100416E0,1.1991896E1,1.0282431E0,2.003771E0,1.183297E1,1.7659664E0],"tree_param":{"num_deleted":"0","num_feature":"1446","num_nodes":"41","size_leaf_vector":"1"}},{"base_weights":[-6.1653927E-4,8.9603496E-1,-3.4284167E-2,5.0332256E-2,1.3443544E-2,-8.78358E-1,1.0167323E-2,-1.7703371E-3,-6.227116E-2,-3.6675194E-1,1.02757655E-1,4.318102E-1,-4.9276784E-1,2.6331314E-1,-1.9750418E-1,5.00991E-2,-1.9574104E-2,-6.340565E-1,2.8594196E-1,2.2537196E-2,7.2637016E-1,-6.962217E-2,-5.3471506E-2,-5.0225683E-2,-7.0861937E-3,4.4565067E-2,-1.9530261E-2,-8.670612E-3,3.0139884E-2,5.506378E-2,1.366306E-2,2.8624663E-2,-1.6773505E-2],"categories":[],"categories_nodes":[],"categories_segments":[],"categories_sizes":[],"default_left":[0,0,0,0,0,0,0,0,0,0,0,0,0,0,0,0,0,0,0,0,0,0,0,0,0,0,0,0,0,0,0,0,0],"id":29,"left_children":[1,3,5,-1,-1,7,9,-1,-1,11,13,15,17,19,21,-1,-1,23,25,27,29,31,-1,-1,-1,-1,-1,-1,-1,-1,-1,-1,-1],"loss_changes":[3.6534019E0,3.3165455E-2,4.384697E0,0E0,0E0,1.7647433E0,3.938632E0,0E0,0E0,2.45306E0,4.415648E0,2.0667672E0,2.3482018E0,6.607127E0,3.505746E0,0E0,0E0,2.9547935E0,1.8691686E0,4.665851E0,3.1459188E0,5.1546474E0,0E0,0E0,0E0,0E0,0E0,0E0,0E0,0E0,0E0,0E0,0E0],"parents":[2147483647,0,0,1,1,2,2,5,5,6,6,9,9,10,10,11,11,12,12,13,13,14,14,17,17,18,18,19,19,20,20,21,21],"right_children":[2,4,6,-1,-1,8,10,-1,-1,12,14,16,18,20,22,-1,-1,24,26,28,30,32,-1,-1,-1,-1,-1,-1,-1,-1,-1,-1,-1],"split_conditions":[-4.543396E-2,-4.49927E-2,-4.4722226E-2,5.0332256E-2,1.3443544E-2,-4.7547523E-2,-4.8071172E-2,-1.7703371E-3,-6.227116E-2,-7.68048E-4,3.4308266E-2,-2.0964055E-3,2.1812401E-3,2.2046557E-3,1.6682282E-3,5.00991E-2,-1.9574104E-2,8.925484E-3,2.723E-3,3.502336E-4,-8.744669E-4,-5.404805E-3,-5.3471506E-2,-5.0225683E-2,-7.0861937E-3,4.4565067E-2,-1.9530261E-2,-8.670612E-3,3.0139884E-2,5.506378E-2,1.366306E-2,2.8624663E-2,-1.6773505E-2],"split_indices":[492,1113,321,0,0,309,1444,0,0,59,1440,320,137,1443,20,0,0,48,137,137,530,142,0,0,0,0,0,0,0,0,0,0,0],"split_type":[0,0,0,0,0,0,0,0,0,0,0,0,0,0,0,0,0,0,0,0,0,0,0,0,0,0,0,0,0,0,0,0,0],"sum_hessian":[1.19003525E2,3.3796995E0,1.15623825E2,2.3586419E0,1.0210576E0,4.845945E0,1.10777885E2,1.802661E0,3.0432842E0,2.1262184E1,8.95157E1,2.5672023E0,1.8694983E1,5.8407303E1,3.1108395E1,1.3885311E0,1.1786714E0,1.5981134E1,2.713847E0,3.9116535E1,1.929077E1,2.8071156E1,3.0372393E0,8.525661E0,7.4554734E0,1.26475E0,1.4490969E0,2.9765951E1,9.350583E0,9.773566E0,9.517203E0,7.8813896E0,2.0189766E1],"tree_param":{"num_deleted":"0","num_feature":"1446","num_nodes":"33","size_leaf_vector":"1"}},{"base_weights":[-1.8587206E-4,5.644652E-1,-5.2347787E-2,7.8874075E-1,-1.9227875E-2,-8.6245817E-1,-1.4523859E-2,-2.0800294E-2,5.170087E-2,-5.344955E-2,-6.9789994E-3,2.6429143E-2,-7.6291984E-1,-3.0534595E-1,1.3068695E-1,-3.0924994E-3,-5.4212023E-2,-4.6828914E-1,5.833573E-1,7.1545124E-2,8.814093E-1,-2.5619469E-3,-4.930931E-2,5.0682873E-2,-1.5275681E-2,4.0911444E-2,1.9719852E-4,5.3050965E-2,1.6157752E-3],"categories":[],"categories_nodes":[],"categories_segments":[],"categories_sizes":[],"default_left":[0,0,0,0,0,0,0,0,0,0,0,0,0,0,0,0,0,0,0,0,0,0,0,0,0,0,0,0,0],"id":30,"left_children":[1,3,5,7,-1,9,11,-1,-1,-1,-1,13,15,17,19,-1,-1,21,23,25,27,-1,-1,-1,-1,-1,-1,-1,-1],"loss_changes":[3.5435896E0,2.4688728E0,3.3621676E0,2.9588256E0,0E0,5.817025E-1,3.2762847E0,0E0,0E0,0E0,0E0,3.5574977E0,1.1821353E0,3.8376582E0,3.403546E0,0E0,0E0,4.562128E0,1.9387484E0,3.7050352E0,8.217988E-1,0E0,0E0,0E0,0E0,0E0,0E0,0E0,0E0],"parents":[2147483647,0,0,1,1,2,2,3,3,5,5,6,6,11,11,12,12,13,13,14,14,17,17,18,18,19,19,20,20],"right_children":[2,4,6,8,-1,10,12,-1,-1,-1,-1,14,16,18,20,-1,-1,22,24,26,28,-1,-1,-1,-1,-1,-1,-1,-1],"split_conditions":[-8.615172E-3,3.7656724E-2,-5.8168685E-3,-1.972607E-1,-1.9227875E-2,4.794172E-3,8.796895E-2,-2.0800294E-2,5.170087E-2,-5.344955E-2,-6.9789994E-3,-1.8807203E-2,-4.369821E-4,2.2351058E-2,4.5542292E-2,-3.0924994E-3,-5.4212023E-2,-1.8290946E-3,-5.737467E-2,-1.736359E-3,9.050146E-3,-2.5619469E-3,-4.930931E-2,5.0682873E-2,-1.5275681E-2,4.0911444E-2,1.9719852E-4,5.3050965E-2,1.6157752E-3],"split_indices":[998,1444,1001,1444,0,173,1438,0,0,0,0,1445,155,814,366,0,0,103,1445,1082,31,0,0,0,0,0,0,0,0],"split_type":[0,0,0,0,0,0,0,0,0,0,0,0,0,0,0,0,0,0,0,0,0,0,0,0,0,0,0,0,0],"sum_hessian":[1.1830898E2,9.17445E0,1.0913454E2,7.5573645E0,1.6170849E0,3.8956583E0,1.0523888E2,1.1606128E0,6.396752E0,2.657569E0,1.2380894E0,1.00693504E2,4.5453677E0,2.3615183E1,7.707832E1,1.8033139E0,2.7420535E0,2.035599E1,3.2591934E0,7.246485E1,4.613472E0,1.1884565E1,8.471423E0,2.101483E0,1.1577103E0,5.094138E0,6.737071E1,3.6019552E0,1.0115166E0],"tree_param":{"num_deleted":"0","num_feature":"1446","num_nodes":"29","size_leaf_vector":"1"}},{"base_weights":[-3.895902E-4,8.4257454E-1,-3.4958757E-2,5.357183E-2,-1.7037E-4,-1.0420346E0,1.2375478E-2,-7.687335E-3,-6.113668E-2,6.858428E-1,-4.158225E-2,-2.4248555E-2,1.1239474E0,-9.667605E-1,1.1548049E-2,6.547255E-2,3.6891215E-3,-6.0763147E-2,-3.972579E-3,5.5305682E-2,-7.429187E-1,-4.7387555E-3,1.7002774E-2,-2.713436E-3,-5.296048E-2],"categories":[],"categories_nodes":[],"categories_segments":[],"categories_sizes":[],"default_left":[0,0,0,0,0,0,0,0,0,0,0,0,0,0,0,0,0,0,0,0,0,0,0,0,0],"id":31,"left_children":[1,3,5,-1,-1,7,9,-1,-1,11,13,-1,15,17,19,-1,-1,-1,-1,21,23,-1,-1,-1,-1],"loss_changes":[3.4872804E0,9.16399E-1,5.492271E0,0E0,0E0,6.421566E-1,4.0539107E0,0E0,0E0,4.7891264E0,5.0987096E0,0E0,1.1350522E0,1.1454511E0,3.3050623E0,0E0,0E0,0E0,0E0,4.065529E0,1.1381116E0,0E0,0E0,0E0,0E0],"parents":[2147483647,0,0,1,1,2,2,5,5,6,6,9,9,10,10,12,12,13,13,14,14,19,19,20,20],"right_children":[2,4,6,-1,-1,8,10,-1,-1,12,14,-1,16,18,20,-1,-1,-1,-1,22,24,-1,-1,-1,-1],"split_conditions":[-4.579802E-2,4.159946E-3,-4.4722226E-2,5.357183E-2,-1.7037E-4,-1.6552057E-2,-4.0995724E-2,-7.687335E-3,-6.113668E-2,-7.8665E-3,-3.5954826E-2,-2.4248555E-2,7.4061104E-3,4.035684E-2,8.796895E-2,6.547255E-2,3.6891215E-3,-6.0763147E-2,-3.972579E-3,6.414079E-3,-3.4301437E-4,-4.7387555E-3,1.7002774E-2,-2.713436E-3,-5.296048E-2],"split_indices":[1377,326,321,0,0,1444,615,0,0,1439,351,0,1443,1444,1438,0,0,0,0,1443,1091,0,0,0,0],"split_type":[0,0,0,0,0,0,0,0,0,0,0,0,0,0,0,0,0,0,0,0,0,0,0,0,0],"sum_hessian":[1.1766017E2,3.7142851E0,1.1394589E2,2.713662E0,1.0006232E0,4.17185E0,1.0977404E2,1.0180618E0,3.1537886E0,7.2739763E0,1.0250006E2,1.9515572E0,5.3224196E0,4.632719E0,9.786734E1,4.313562E0,1.0088577E0,3.330394E0,1.302325E0,9.337828E1,4.489066E0,6.158587E1,3.1792408E1,1.7816074E0,2.707459E0],"tree_param":{"num_deleted":"0","num_feature":"1446","num_nodes":"25","size_leaf_vector":"1"}},{"base_weights":[-1.0411178E-3,8.223008E-1,-3.447539E-2,-1.373245E-4,5.248661E-2,-1.0138595E0,1.1208233E-2,-7.4969493E-3,-5.9576113E-2,6.641406E-1,-4.0648885E-2,-2.3526257E-2,1.092207E0,-9.40129E-1,1.0533869E-2,6.374578E-2,3.5971184E-3,-5.926127E-2,-3.859891E-3,-3.231082E-2,7.6254255E-1,1.1768533E-3,-3.6377165E-2,5.0039083E-2,-6.2694782E-3],"categories":[],"categories_nodes":[],"categories_segments":[],"categories_sizes":[],"default_left":[0,0,0,0,0,0,0,0,0,0,0,0,0,0,0,0,0,0,0,0,0,0,0,0,0],"id":32,"left_children":[1,3,5,-1,-1,7,9,-1,-1,11,13,-1,15,17,19,-1,-1,-1,-1,21,23,-1,-1,-1,-1],"loss_changes":[3.2842774E0,8.7651086E-1,5.1397524E0,0E0,0E0,6.070757E-1,3.7685256E0,0E0,0E0,4.491047E0,4.7662764E0,0E0,1.0726776E0,1.0872898E0,3.20603E0,0E0,0E0,0E0,0E0,3.6815596E0,1.2599874E0,0E0,0E0,0E0,0E0],"parents":[2147483647,0,0,1,1,2,2,5,5,6,6,9,9,10,10,12,12,13,13,14,14,19,19,20,20],"right_children":[2,4,6,-1,-1,8,10,-1,-1,12,14,-1,16,18,20,-1,-1,-1,-1,22,24,-1,-1,-1,-1],"split_conditions":[-4.579802E-2,-4.8030373E-2,-4.4722226E-2,-1.373245E-4,5.248661E-2,-1.6552057E-2,-4.0995724E-2,-7.4969493E-3,-5.9576113E-2,-7.8665E-3,-3.5954826E-2,-2.3526257E-2,7.4061104E-3,4.035684E-2,4.769624E-2,6.374578E-2,3.5971184E-3,-5.926127E-2,-3.859891E-3,4.452108E-2,9.45855E-3,1.1768533E-3,-3.6377165E-2,5.0039083E-2,-6.2694782E-3],"split_indices":[1377,846,321,0,0,1444,615,0,0,1439,351,0,1443,1444,162,0,0,0,0,753,1440,0,0,0,0],"split_type":[0,0,0,0,0,0,0,0,0,0,0,0,0,0,0,0,0,0,0,0,0,0,0,0,0],"sum_hessian":[1.17277664E2,3.6558285E0,1.1362184E2,1.0034741E0,2.6523542E0,4.1192217E0,1.0950262E2,1.017138E0,3.1020837E0,7.1882553E0,1.0231436E2,1.94185E0,5.246405E0,4.5734243E0,9.774094E1,4.237892E0,1.0085132E0,3.2709079E0,1.3025163E0,9.337789E1,4.363046E0,8.732892E1,6.0489693E0,3.3398468E0,1.0231993E0],"tree_param":{"num_deleted":"0","num_feature":"1446","num_nodes":"25","size_leaf_vector":"1"}},{"base_weights":[-1.1894592E-3,5.370158E-1,-5.0081264E-2,7.6178217E-1,-1.920551E-2,-7.873967E-2,4.7519084E-2,-2.0519095E-2,5.0430954E-2,-3.7217507E-1,4.1754335E-2,-2.077639E-1,-1.0132862E0,7.809792E-1,-6.413826E-2,-7.1212006E-1,1.4927655E-1,-2.29932E-3,-6.1527826E-2,-3.0788645E-1,1.1329577E0,-1.6592334E-1,3.5222152E-1,-9.898397E-5,-6.39561E-2,2.502879E-2,-5.1600005E-2,1.3626377E-2,-3.791384E-2,3.6933061E-3,6.756671E-2,-8.4323896E-4,-3.608596E-2,-3.9471116E-2,3.2330398E-2],"categories":[],"categories_nodes":[],"categories_segments":[],"categories_sizes":[],"default_left":[0,0,0,0,0,0,0,0,0,0,0,0,0,0,0,0,0,0,0,0,0,0,0,0,0,0,0,0,0,0,0,0,0,0,0],"id":33,"left_children":[1,3,5,7,-1,9,-1,-1,-1,11,13,15,17,19,21,23,25,-1,-1,27,29,31,33,-1,-1,-1,-1,-1,-1,-1,-1,-1,-1,-1,-1],"loss_changes":[3.1291366E0,2.3429453E0,3.1997814E0,2.8141947E0,0E0,3.794489E0,0E0,0E0,0E0,3.0795279E0,6.0513854E0,4.8063354E0,1.2281199E0,4.0595512E0,2.939546E0,4.423258E0,7.2014112E0,0E0,0E0,1.0304981E0,1.6418581E0,4.5699515E0,5.1064277E0,0E0,0E0,0E0,0E0,0E0,0E0,0E0,0E0,0E0,0E0,0E0,0E0],"parents":[2147483647,0,0,1,1,2,2,3,3,5,5,9,9,10,10,11,11,12,12,13,13,14,14,15,15,16,16,19,19,20,20,21,21,22,22],"right_children":[2,4,6,8,-1,10,-1,-1,-1,12,14,16,18,20,22,24,26,-1,-1,28,30,32,34,-1,-1,-1,-1,-1,-1,-1,-1,-1,-1,-1,-1],"split_conditions":[-8.615172E-3,3.7656724E-2,4.593387E-2,-1.972607E-1,-1.920551E-2,-4.161499E-4,4.7519084E-2,-2.0519095E-2,5.0430954E-2,-4.6604968E-4,-1.6179697E-4,-1.7558857E-3,-1.324255E-4,-6.689336E-3,1.3032102E-2,-1.3247728E-3,2.9110715E-2,-2.29932E-3,-6.1527826E-2,-4.2099744E-1,-1.6552057E-2,1.7542689E-3,-2.0181173E-3,-9.898397E-5,-6.39561E-2,2.502879E-2,-5.1600005E-2,1.3626377E-2,-3.791384E-2,3.6933061E-3,6.756671E-2,-8.4323896E-4,-3.608596E-2,-3.9471116E-2,3.2330398E-2],"split_indices":[998,1444,1113,1444,0,17,0,0,0,845,17,793,1441,1439,1168,59,835,0,0,1436,1444,412,1280,0,0,0,0,0,0,0,0,0,0,0,0],"split_type":[0,0,0,0,0,0,0,0,0,0,0,0,0,0,0,0,0,0,0,0,0,0,0,0,0,0,0,0,0,0,0,0,0,0,0],"sum_hessian":[1.1689398E2,8.903185E0,1.079908E2,7.295885E0,1.6072999E0,1.0587917E2,2.111627E0,1.153874E0,6.142011E0,3.0213182E1,7.566599E1,2.5100338E1,5.1128435E0,8.682085E0,6.69839E1,9.991631E0,1.5108708E1,1.1600205E0,3.9528232E0,2.151516E0,6.530569E0,5.430883E1,1.2675077E1,4.8814096E0,5.110221E0,1.20896225E1,3.0190852E0,1.1126117E0,1.0389043E0,1.3451333E0,5.185436E0,4.363636E1,1.0672466E1,2.2536674E0,1.042141E1],"tree_param":{"num_deleted":"0","num_feature":"1446","num_nodes":"35","size_leaf_vector":"1"}},{"base_weights":[-1.9301919E-3,8.046805E-1,-3.4240976E-2,8.9390547E-4,5.1134426E-2,-9.786764E-1,9.403566E-3,-7.2170952E-3,-5.7528853E-2,-3.4190264E-1,9.472725E-2,4.173654E-1,-4.6369204E-1,2.3030141E-1,-2.3052613E-1,4.8461977E-2,-1.9020617E-2,-6.3692495E-2,-7.4837184E-1,1.3919455E-1,9.4716E-1,6.648355E-2,-7.4063575E-1,-2.9680004E-2,3.4719426E-2,-5.371471E-2,2.8621746E-4,-3.7978843E-2,1.2357937E-2,5.464148E-2,5.715449E-3,-1.3564465E-2,5.1109325E-2,-4.826447E-2,4.9403976E-3],"categories":[],"categories_nodes":[],"categories_segments":[],"categories_sizes":[],"default_left":[0,0,0,0,0,0,0,0,0,0,0,0,0,0,0,0,0,0,0,0,0,0,0,0,0,0,0,0,0,0,0,0,0,0,0],"id":34,"left_children":[1,3,5,-1,-1,7,9,-1,-1,11,13,15,17,19,21,-1,-1,23,25,27,29,31,33,-1,-1,-1,-1,-1,-1,-1,-1,-1,-1,-1,-1],"loss_changes":[3.0794024E0,7.6231647E-1,4.6895785E0,0E0,0E0,5.5462885E-1,3.3153021E0,0E0,0E0,2.1926777E0,3.9733737E0,1.9161549E0,2.1277986E0,3.9989705E0,4.087658E0,0E0,0E0,4.0422287E0,2.7264318E0,5.7467685E0,7.194357E-1,6.0116706E0,1.96067E0,0E0,0E0,0E0,0E0,0E0,0E0,0E0,0E0,0E0,0E0,0E0,0E0],"parents":[2147483647,0,0,1,1,2,2,5,5,6,6,9,9,10,10,11,11,12,12,13,13,14,14,17,17,18,18,19,19,20,20,21,21,22,22],"right_children":[2,4,6,-1,-1,8,10,-1,-1,12,14,16,18,20,22,-1,-1,24,26,28,30,32,34,-1,-1,-1,-1,-1,-1,-1,-1,-1,-1,-1,-1],"split_conditions":[-4.579802E-2,-4.762643E-2,-4.5101777E-2,8.9390547E-4,5.1134426E-2,-1.6552057E-2,-4.8071172E-2,-7.2170952E-3,-5.7528853E-2,-7.68048E-4,1.5450397E-1,-2.0964055E-3,-1.8007765E-4,2.489284E-3,1.7277512E-3,4.8461977E-2,-1.9020617E-2,-2.9882725E-4,2.5984102E-3,-1.811479E-3,4.1696304E-3,-5.955019E-4,2.4421997E-2,-2.9680004E-2,3.4719426E-2,-5.371471E-2,2.8621746E-4,-3.7978843E-2,1.2357937E-2,5.464148E-2,5.715449E-3,-1.3564465E-2,5.1109325E-2,-4.826447E-2,4.9403976E-3],"split_indices":[1377,522,324,0,0,1444,1444,0,0,59,1444,320,1076,122,702,0,0,1034,1133,1142,395,645,420,0,0,0,0,0,0,0,0,0,0,0,0],"split_type":[0,0,0,0,0,0,0,0,0,0,0,0,0,0,0,0,0,0,0,0,0,0,0,0,0,0,0,0,0,0,0,0,0,0,0],"sum_hessian":[1.1609858E2,3.5508285E0,1.12547745E2,1.00516E0,2.5456684E0,4.0250416E0,1.08522705E2,1.0019032E0,3.0231388E0,2.0619244E1,8.7903465E1,2.5147383E0,1.8104504E1,6.2248558E1,2.5654903E1,1.3594176E0,1.1553206E0,8.036404E0,1.0068101E1,5.6288876E1,5.9596825E0,1.6763865E1,8.891038E0,4.857749E0,3.1786542E0,6.733328E0,3.3347733E0,5.3892703E0,5.089961E1,4.8067966E0,1.152886E0,1.2915347E1,3.848518E0,6.8956857E0,1.9953527E0],"tree_param":{"num_deleted":"0","num_feature":"1446","num_nodes":"35","size_leaf_vector":"1"}},{"base_weights":[-1.8880281E-3,-3.595494E-2,7.34696E-1,7.7799396E-3,-7.0007765E-1,4.8869066E-2,-7.020735E-3,-4.956232E-2,7.381851E-1,-9.087892E-1,1.1510824E-2,4.1554037E-2,-8.6281665E-2,1.0606627E0,-2.4737788E-2,-5.6431323E-2,-6.8119436E-4,2.9004648E-1,-1.7786807E-1,5.856016E-2,1.1385397E-2,-2.0119375E-2,3.251065E-2,-4.584629E-2,-5.040006E-3],"categories":[],"categories_nodes":[],"categories_segments":[],"categories_sizes":[],"default_left":[0,0,0,0,0,0,0,0,0,0,0,0,0,0,0,0,0,0,0,0,0,0,0,0,0],"id":35,"left_children":[1,3,5,7,9,-1,-1,11,13,15,-1,-1,17,19,-1,-1,-1,21,23,-1,-1,-1,-1,-1,-1],"loss_changes":[2.949246E0,3.2667599E0,1.240675E0,4.4902306E0,1.5583441E0,0E0,0E0,3.2902305E0,3.6273441E0,1.1412225E0,0E0,0E0,3.3760188E0,3.3212757E-1,0E0,0E0,0E0,5.064752E0,4.361347E0,0E0,0E0,0E0,0E0,0E0,0E0],"parents":[2147483647,0,0,1,1,2,2,3,3,4,4,7,7,8,8,9,9,12,12,13,13,17,17,18,18],"right_children":[2,4,6,8,10,-1,-1,12,14,16,-1,-1,18,20,-1,-1,-1,22,24,-1,-1,-1,-1,-1,-1],"split_conditions":[4.769624E-2,4.452108E-2,9.45855E-3,4.0007647E-2,4.5997243E-2,4.8869066E-2,-7.020735E-3,-4.543396E-2,2.2500188E-3,1.1323142E-2,1.1510824E-2,4.1554037E-2,-1.4877558E-3,4.526619E-2,-2.4737788E-2,-5.6431323E-2,-6.8119436E-4,-3.528093E-3,-1.0058979E-3,5.856016E-2,1.1385397E-2,-2.0119375E-2,3.251065E-2,-4.584629E-2,-5.040006E-3],"split_indices":[162,753,1440,1104,798,0,0,492,329,970,0,0,113,966,0,0,0,113,134,0,0,0,0,0,0],"split_type":[0,0,0,0,0,0,0,0,0,0,0,0,0,0,0,0,0,0,0,0,0,0,0,0,0],"sum_hessian":[1.1547923E2,1.1128357E2,4.1956635E0,1.0533516E2,5.948415E0,3.1932476E0,1.002416E0,9.8531815E1,6.803339E0,4.877307E0,1.0711079E0,3.0780225E0,9.54538E1,5.503595E0,1.2997442E0,3.706301E0,1.171006E0,1.8259336E1,7.719446E1,4.5002847E0,1.0033102E0,6.2076545E0,1.2051682E1,6.2605076E0,7.093395E1],"tree_param":{"num_deleted":"0","num_feature":"1446","num_nodes":"25","size_leaf_vector":"1"}},{"base_weights":[-1.3900113E-3,6.7046195E-1,-3.8956735E-2,9.035255E-1,-1.0939288E-2,-3.0218714E-1,6.3116655E-2,5.2521056E-3,5.3640414E-2,-4.1245067E-1,3.9176118E-2,9.700192E-1,-1.1132827E-3,-8.254274E-1,-1.6052423E-1,-1.423567E-3,6.0961485E-2,-1.11695506E-1,3.9301252E-1,1.582468E-2,-9.7905356E-1,1.4131624E-1,-8.8450736E-1,6.6131964E-2,-6.704217E-1,-5.669613E-1,6.319176E-1,-5.8944054E-2,7.11552E-3,4.68743E-2,-7.0855888E-3,5.257849E-3,